9996 16
the 0.033005834 0.013899203 0.021949291 0.035115685 0.051601876 -0.041709706 0.030594397 -0.030499913 -0.051131804 -0.015723392 0.025108533 -0.03681697 -0.0058037816 0.033833124 0.008275259 0.0147409495
and -0.077645324 0.08266797 -0.005705292 0.0052417642 0.04590722 -0.033975404 0.046635613 0.047647275 0.023084862 -0.050165117 -0.042372532 -0.045284804 0.011382526 0.06435898 -0.041797508 0.016230108
a -0.055159107 0.012963971 -0.053512085 0.025745725 0.06632006 -0.052391615 0.0024291966 0.054332443 -0.042197183 -0.00078582735 0.014758364 -0.002801518 -0.0025741025 0.04893891 -0.06272236 0.0056853904
of -0.02797118 0.039429072 0.014798379 -0.05883514 0.056098014 -0.04948662 0.047152948 0.004659766 0.010677418 -0.009866276 -0.1048666 0.03323021 0.024035463 0.009290707 0.0076504783 0.016880678
to 0.0006038283 -0.03536657 0.06323416 0.052955046 -0.0038184682 0.023116838 -0.014204802 -0.021014916 0.031907618 -0.007692927 -0.024523277 0.027859334 -0.07030345 -0.03544911 0.016253365 -0.037527215
is -0.05504388 0.07581239 -0.032960538 0.021337897 0.08652127 -0.016532958 0.022383112 0.0014010662 0.0243787 0.019976689 -0.08263173 0.03155962 0.019503033 0.008537298 -0.048587088 0.058074687
br 0.03866199 0.030948233 -0.023334239 0.021688305 0.05075598 -0.015100022 0.009989622 -0.051354982 -0.006684407 0.045946453 -0.06660137 -0.02742696 -0.02625393 -0.055398732 -0.01380824 -0.023192406
in -0.020600414 0.07961906 0.0032595377 -0.06322469 0.08337757 -0.015191762 -0.0057391804 0.02318866 -0.00984869 -0.026894521 -0.052270643 -0.006253336 0.06409219 -0.038418982 -0.01877669 0.014855464
it -0.038381513 0.02245453 -0.028636739 0.016632477 0.15758005 -0.03715559 0.0283495 0.0482293 -0.022827443 0.021365318 -0.07243602 0.005956635 -0.022349488 -0.045289148 -0.05130391 -0.004019226
i 0.024423365 -0.007145989 0.010979332 0.09970946 0.08305733 0.082177654 -0.023223778 -0.057502102 0.05243503 0.03491523 -0.0016184716 0.0005650204 -0.022337234 -0.014696102 0.025973575 -0.054465853
this 0.009472625 0.084977284 0.03818604 -0.018669972 0.08335384 -0.016780246 0.009943917 -0.04058997 0.010563585 0.10841204 -0.07310658 7.0135e-05 -0.02267639 0.0028132896 -0.012973206 -0.073961236
that 0.017444296 0.011593837 0.06511956 -0.040151346 -0.027253496 0.01589477 0.0011998584 -0.046039857 -0.012278995 -0.0038690763 -0.06302108 0.06900426 -0.013014766 -0.062456176 -0.014288871 -0.018462257
was -0.00868899 -0.0073657404 0.03342231 -0.03479854 -0.029234098 -0.011717727 0.022626067 -0.07591071 0.009449392 0.06096739 -0.060105786 0.07674657 -0.01569764 -0.006152819 0.00495001 -0.004092572
as -0.04902618 0.13550174 0.059187323 0.020468853 0.075666115 -0.043040458 0.050044887 -0.035224456 -0.011448043 0.077840135 -0.09218187 -0.008696404 -0.0012133303 0.0016811372 -0.044129457 0.011891516
for -0.020710034 0.05576853 0.043042265 -0.017827002 0.061350465 -0.031120129 0.060007464 -0.026672358 -0.008940969 -0.020090884 -0.011695754 0.04062958 -0.041694745 -0.009602362 -0.027805103 -0.01390373
with 0.0401378 -0.0014631054 0.008868939 0.037144188 -0.024235213 -0.017411066 0.04061877 -0.05801857 -0.035892013 0.021440852 -0.06310866 0.036084812 0.012476989 -0.060587715 0.019279217 -0.041308094
movie 0.025774553 -0.03959528 0.019499395 0.029639928 -0.00051580084 0.072706625 0.024127102 -0.017255327 0.07041649 0.06553161 -0.03806658 0.067122184 -0.013993764 -0.07279456 0.05000187 -0.0022332133
but -0.07041575 0.011046576 0.009347986 -0.066048674 0.12938395 -0.043034468 0.037264075 0.019597543 -0.078732915 0.00960892 -0.06411833 -0.015147704 0.049469806 0.003883168 -0.083725505 0.06812819
film 0.03415269 0.0012463654 0.023447515 -0.04488935 0.018041344 0.01836439 0.05969176 -0.003618936 -0.042385273 0.027024895 -0.03446903 0.008901248 0.02675706 -0.017597442 -0.012710054 -0.05225029
on -0.031702902 0.006533416 -0.006125914 0.011215644 0.045687165 0.053400114 0.002349723 -0.0318809 -0.027280185 0.06482911 -0.09497096 0.04608032 0.01953352 -0.010740929 -0.028763501 0.02084828
not 0.07002634 0.04476688 -0.014983277 -0.017787669 0.073591396 0.032773513 0.030587532 -0.056057885 0.04523268 0.06791219 -0.0886197 0.07832279 0.007471415 0.01378388 0.024491688 0.016540837
you -0.05734794 0.034457352 -0.051817734 0.044874046 0.26781747 -0.038377546 0.045759667 0.022627896 -0.07647072 -0.0058217407 -0.11280003 -0.022786323 0.021959314 -0.020083208 -0.06563862 0.08700657
are -0.0010603815 0.041648068 0.025509294 0.079581015 0.021929696 0.0070926915 -0.018212242 -0.024179231 0.05048459 0.037443653 -0.033338264 0.069015674 -0.031754423 0.0012147567 -0.004709256 -0.079544865
his -0.034663826 -0.014720093 -0.036428742 -0.008212113 0.008664225 -0.102769904 0.07429661 0.07914662 -0.0638181 -0.03380501 -0.025598424 -0.04223987 0.07729861 0.050384346 -0.06686002 0.04284585
have -0.018469166 -0.053193357 0.0043873177 0.05702584 0.008781575 0.055913813 -0.04307692 0.018615264 0.0090946965 0.00044718728 0.04432102 0.066421226 -0.022118201 -0.006826777 0.0001312962 -0.07528783
he -0.023227332 -0.027618416 -0.0060823606 0.0058988007 0.010117437 0.04707555 -0.01365835 -0.055038836 0.065839246 0.07066026 -0.024163932 0.008135306 0.007451169 0.025256043 -0.016806731 -0.0027804382
be 0.031218437 0.06749288 0.06024298 -0.0012060169 0.04035902 0.043683197 -0.04222126 0.017009605 0.032816477 -0.008303998 -0.013779108 -0.0038845525 -0.015708981 0.024374597 -0.0051169107 0.008844247
one -0.0073164385 0.004289384 0.0072058486 -0.04458074 0.058285724 -0.0199246 0.009629657 -0.022158463 0.037673194 0.016756434 -0.036286827 0.03511861 0.047374483 0.03363723 -0.037199702 -0.017082449
all -0.011884608 -0.040906247 0.017915674 0.026976705 0.008135484 -0.055429835 0.02573309 0.018103613 -0.036930513 -0.02248704 -0.018411707 -0.013520786 -0.04227641 -0.03235398 0.027856458 0.014252479
at 0.06574467 0.061886486 0.025093772 0.030976726 0.05083247 0.008627087 -4.3388343e-05 -0.021683538 0.022856846 -0.023877451 -0.024255902 0.04947637 -0.0033387726 0.023202725 -0.00084788655 0.023466049
by -0.012501757 -0.010697606 -0.037766118 -0.039229188 0.046666835 -0.015292275 0.025083972 0.010763822 0.029701607 -0.03885427 0.04808683 -0.04571352 0.023327578 0.032554273 -0.005220914 -0.0018211473
an -0.018628849 0.03717825 -0.03221897 -0.0381493 -0.019302823 -0.01427689 0.057036977 0.042130552 0.041513067 0.038585152 -0.019794364 0.032740787 -0.009558749 -0.031338878 -0.012902712 0.04918112
they -0.011730129 0.0031713154 0.0051464923 0.055472825 -0.06913312 -0.015572788 0.010906757 -0.06674335 0.05997482 -0.024592686 0.02644783 -0.0026073584 0.023686385 0.010372369 0.035435718 0.002499775
who 0.0029472033 -0.03970543 0.020164832 -0.048265804 -0.030856345 0.032129757 -0.007883337 -0.047021937 0.038495723 0.024205219 0.03271017 0.013733309 -0.030778607 0.030342862 0.035873607 -0.045278072
so 0.04703206 0.033770587 0.11009788 0.14507023 0.14260712 0.11007775 -0.06730263 -0.07773944 0.081791274 0.07219935 -0.16458096 0.08325799 -0.148618 -0.053307388 0.13014084 -0.085799836
from 0.06479221 -0.0052396925 0.034699626 -0.012564921 0.011866901 0.051879138 -0.035839092 -0.047014795 0.03783713 0.0021401742 0.0058724303 0.06674083 -0.032932393 0.02557725 0.0037594533 -0.032319076
like 0.0066756657 -0.031064719 0.011083088 0.029235888 0.06450548 -0.042632595 -0.002136919 0.034642633 0.04398813 -0.038039498 -0.047955018 0.025469715 -0.0072909156 -0.021535583 -0.041704897 0.008283101
her -0.02667045 0.064687654 -0.016826326 0.010899933 0.1790142 -0.037212834 -0.025410516 0.037181187 0.0050786515 0.0069627166 -0.059761133 0.021568196 0.022473354 0.014262417 -0.064225554 -0.031637926
or 0.08501636 -0.042573288 0.04026149 0.02271725 -0.020499427 0.04717686 0.0026979763 -0.0030307476 0.041880272 0.05806064 0.013322732 0.019785287 0.015401364 -0.047982182 0.008691332 -0.026973004
just 0.035833642 0.026995562 0.083758 0.09945852 0.14293934 0.08731895 -0.007799317 -0.025730733 0.031998035 0.03357462 -0.04135887 0.04338469 -0.113696046 -0.062334687 0.057579014 -0.04218408
about 0.069358274 -0.037459973 -0.0032239496 0.07197989 0.05203106 0.05117777 -0.08032477 -0.043364532 0.037350174 0.023950193 0.014978855 0.05511063 0.0106631005 -0.048257664 0.0367078 -0.028747905
it's -0.021126116 0.074063234 0.042064954 0.038426906 0.11390754 -0.0005501689 -0.04180158 -0.03161299 0.06927108 0.08273599 -0.10228058 0.062167384 -0.07394554 -0.0060837767 -0.02342804 -0.04285888
out 0.018531904 0.1579043 0.1340997 0.048721246 0.20732613 0.061727982 0.031577993 -0.058307283 0.120451644 0.16074215 -0.25788552 0.07194958 -0.05567307 -0.11948673 0.06693083 -0.040883943
has -0.008873105 -0.00826574 -0.012735138 -0.003592286 0.01678954 0.03350689 0.009299097 -0.05769409 -0.0032495956 0.07844566 3.6230806e-05 0.023094246 -0.03996953 0.015398571 0.0597045 0.004876695
if -0.03182193 0.10124155 0.017129023 0.027556121 0.15695839 -0.057248022 -0.008482552 -0.016991232 -0.004359495 0.042568173 -0.09429552 -0.024828535 -0.068291835 0.017816497 -0.052724797 0.005274725
some 0.09424163 -0.0058786976 0.02937269 0.05182043 -0.05619071 0.08501566 -0.022773622 -0.018861156 0.0018367373 0.08143911 -0.012787641 0.05412038 -0.05165385 -0.0146001 0.041112456 -0.09255292
there 0.104199424 0.017023068 0.06941054 0.015539851 -0.0024009706 0.08365087 -0.013322358 -0.09456541 0.0108243795 0.10773477 -0.028628739 0.029648388 -0.09046367 -0.06070302 0.085251786 -0.054958723
what -0.009198557 0.06003869 -0.020627335 -0.075691566 -0.012815276 -0.054666024 0.08152515 0.05886735 -0.067026116 -0.070042886 -0.025834337 -0.0022632356 0.07181579 0.023360454 -0.04416881 0.011451457
good -0.010176483 -0.008879774 -0.03130267 -0.05787462 -0.0048816376 -0.050006967 0.040151495 -0.025308812 -0.04132593 0.03802453 -0.020375857 -0.04843875 0.025229305 -0.024614394 -0.037478846 -0.0077538267
more 0.029244738 0.052291516 0.008400363 -0.022064036 0.096850656 0.017002298 -0.04937914 -0.05819473 0.03284812 -0.02631009 -0.029738251 -0.00028740033 -0.023892093 -0.056822207 0.016374039 -0.024772353
when 0.023534818 0.03628266 -0.0012559801 0.022046957 -0.030243207 0.021900102 0.045092426 0.011545176 -0.048384104 0.006384298 0.052127685 -0.045160722 0.042487703 -0.031197594 0.0008692404 0.030953763
very -5.4642514e-06 0.19710654 0.057326958 -4.9712202e-05 0.18188058 -0.018725794 0.02849634 0.004818763 -0.03522604 0.007019134 -0.13500652 0.00802213 -0.003840386 -0.0032077178 -0.056562617 0.029369218
up -0.03091716 -0.022095604 -0.035136264 0.031580187 0.050001632 0.03141847 -0.032225974 -0.012894522 -0.029317569 0.029363574 -0.05929684 -0.018327128 0.0034265479 -0.025403773 0.02158274 -0.036335666
no 0.087980606 0.00642168 0.050447382 0.04582101 -0.0238963 0.057402737 -0.030282367 -0.08566214 0.10873201 0.056536626 0.02218961 0.04420938 -0.061236206 -0.095538005 0.029078707 -0.041274417
time -0.012667784 0.015442498 0.06988704 0.064713314 0.059120655 0.012628017 0.014618752 0.008473311 -0.007535928 0.07166254 -0.055838216 0.08246221 -0.015916975 -0.045379248 -0.0029147242 -0.068882905
she -0.040266227 0.19858083 -0.072758615 -0.07863825 0.14600484 -0.1324745 0.109138004 0.039815947 -0.08142612 0.011801662 -0.06354578 -0.050673548 0.11105149 0.054232407 -0.066232346 0.11576998
even -0.028041733 0.17487225 -0.013074227 0.06766955 0.104062274 -0.047852404 -0.009560505 -0.02453738 0.05335535 0.020597054 -0.14396498 0.053904787 -0.022908155 -0.08542584 -0.0040544057 -0.05851395
my -0.09987762 0.13147199 -0.06922806 -0.037559222 0.35428205 -0.10391968 0.121658735 0.05710526 -0.10966398 -0.07819101 -0.20320569 -0.08307407 0.054759853 0.025607867 -0.055534076 0.056875873
would -0.055424202 0.017999256 0.008023967 -0.041574188 0.06408563 -0.06685552 0.06191244 -0.0016878793 -0.086073525 -0.047680095 0.00689272 -0.03657409 0.08710908 -0.030985022 -0.032858074 0.04498894
which -0.030118044 0.008739113 -0.015919967 0.047829393 0.06335908 -0.01425871 0.001768146 -0.016262498 -0.015260524 -0.019183183 -0.015690198 0.0025303173 0.02099644 0.01864706 0.05539613 -0.037862826
only 0.06468515 -0.03747528 0.07566133 0.037939668 -0.042812854 0.032350805 -0.029653152 -0.09032867 0.029265806 0.029220916 -0.0032469272 0.049101055 0.0063258437 -0.0327967 0.028099257 -0.013330034
story 0.037324183 0.0893527 0.05032845 0.046011016 0.090751894 0.0018682979 0.025877733 0.039283153 0.026271828 0.059810087 -0.05981785 0.00278117 -0.012789389 0.0075173755 -0.011015547 -0.004248221
really -0.011885277 0.0774462 0.07252433 0.0337381 0.14822547 0.022721218 0.025325138 -0.0147537375 0.051356785 0.08486497 -0.09872617 0.020226391 -0.026795631 -0.05026782 0.04514937 -0.0031463737
see -0.067057036 0.1593897 -0.06466666 -0.032049425 0.2333248 -0.056403786 0.059932113 9.0280475e-05 -0.092467494 -0.005483402 -0.16891928 -0.023402205 0.020833468 0.027640276 -0.0091100875 0.031371407
their -0.008944467 -0.024792403 0.030868681 0.00797056 0.09522683 -0.0019399462 0.017369833 0.032404516 -0.04279927 -0.06372877 0.037315786 -0.08284824 0.047457367 0.06084584 -0.019279225 0.007835481
had -0.010492733 0.06322761 -0.063512616 0.03173236 0.10420037 -0.05970534 0.059422635 0.016221147 -0.050686505 0.026705017 -0.061716676 -0.06619973 0.010527351 0.016617136 0.00089929294 -0.020610522
can -0.014607668 0.044732224 0.034903787 0.01970974 0.15578261 0.002130762 0.009284996 0.020290328 -0.013558487 0.023313442 -0.06941411 0.019748028 -0.07379204 -0.059725564 0.03527694 0.013971717
were -0.0180006 -0.047818907 0.041436113 0.06380505 -0.029045139 0.015983086 -0.032857224 -0.06388428 0.016101506 -0.026309952 0.061286032 0.05499183 0.016728876 0.030589726 0.047087602 -0.049442712
me 0.020344507 0.08250024 -0.03141211 0.0037153207 -0.016823258 -0.019257087 0.028733773 -0.015929928 0.023617133 0.030098327 -0.09760971 0.034489885 0.040310834 0.018122707 -0.044910688 -0.023383796
well -0.20467065 0.18682799 -0.115155354 -0.10163023 0.27376595 -0.18324108 0.090425745 0.10516856 -0.14280348 -0.15855718 -0.22260854 -0.17695665 0.1622382 0.09499607 -0.16834071 0.18020476
than -0.05109415 0.09249454 -0.03504091 0.014553233 0.21748829 -0.04880938 0.016377956 0.026575945 0.016518274 0.03944177 -0.070638746 0.017656822 0.065423764 0.035427526 -0.03252714 0.059614465
we 0.017457234 0.056236837 -0.045330334 0.005022573 0.048765462 -0.023834025 0.032366928 0.02411853 0.01436967 -0.07105103 0.023457391 -0.0024043308 0.049431313 0.029038262 0.0006628623 0.0680057
much -0.06454798 0.11472431 0.030285712 0.09526754 0.19741285 -0.054408554 0.022991212 -0.013733802 -0.029632013 -0.028647764 -0.0987076 -0.013694301 0.041614227 -0.015895315 -0.018542947 -0.0036133006
been -0.09720302 0.02566884 -0.012203661 0.01338224 0.15984651 -0.06576978 0.0638309 0.07976155 0.0014334114 0.009431179 -0.014469447 -0.008410012 -0.00091650296 -0.010698847 -0.021765033 0.0045319535
bad 0.17393309 0.050904717 0.19099545 0.08506314 -0.0025488576 0.15172715 -0.06677223 -0.18292493 0.13281468 0.1601878 -0.092387214 0.21774283 -0.17856924 -0.13754559 0.12265005 -0.10817183
get -0.01584094 0.030682433 -0.0012839896 0.052176874 0.07324448 0.07632419 -0.08476246 -0.05009973 0.07521667 0.0016926308 -0.08307618 -0.0002657862 -0.094955266 -0.04133227 0.08135564 -0.0350377
will -0.018208917 0.022194587 0.003784613 0.00040574258 0.028112162 0.041587137 -0.0151402 -0.036805708 0.009126519 0.040151365 0.035587266 -0.039620463 -0.017234005 0.006624595 0.0025983576 0.041297045
do -0.069237724 0.15321696 -0.06369953 -0.017047914 0.13089062 -0.051128667 0.06562113 0.0032504422 -0.05539396 -0.0051529016 -0.093692206 -0.044097688 0.038887464 -0.02092965 -0.014925939 0.0162848
also -0.015677836 -0.054878503 0.00868184 -0.019789146 0.016210385 -0.0477081 0.045440108 0.057461638 0.023456492 -0.0008685353 -0.024660222 -0.047033407 -0.0071537695 0.044869002 -0.0120037105 0.0120154135
into -0.019797249 -0.01965351 0.028269185 -0.038938954 -0.07586307 -0.040319655 -0.002452391 -0.027473882 -0.014122338 -0.033863693 0.016317667 -0.029790081 0.027947988 0.061328713 0.036205277 -0.038740706
people -0.02679737 -0.05366622 0.029010402 -0.0007603397 -0.039882485 -0.0019375397 -0.01773272 -0.056559294 0.064589515 0.059026934 0.030857302 -0.037695654 0.000908353 -0.03953123 0.02862859 0.016724909
other -0.0873961 0.012326387 -0.036569864 -0.055950195 0.08959035 -0.110479996 0.09958079 0.05447594 -0.03328931 -0.055692747 -0.037646927 -0.09416889 0.02680216 0.06024244 -0.070114315 0.068567626
first 0.015813384 0.029933257 -0.02689048 -0.0077374387 0.0020327484 -0.0042955424 0.0036732182 -0.0027280317 0.027397815 -0.0077871014 -0.036915343 0.028856494 -0.023193432 -0.002982965 -0.0017655285 -0.0025683672
great -0.057703163 0.04482813 -0.009661432 -0.12019236 0.0152453715 -0.010167043 0.09528857 0.04212204 -0.013300803 -0.038365636 -0.034701027 -0.022949032 -0.007590738 0.05602936 -0.02113544 0.069905564
because 0.044527117 0.06404034 0.10865763 0.011094331 0.085925534 0.011724617 -0.0748672 -0.030800683 0.063350596 0.12723485 -0.039773855 0.03266162 -0.041837674 -0.054883208 0.019601144 -0.01617647
how 0.04976624 -0.018142717 -0.008270622 0.053914998 -0.0488411 0.050907183 -0.0707935 -0.005140649 0.041241948 0.02560711 0.014824169 -0.0034414148 -0.010451688 -0.085549265 0.014828267 -0.009226894
him -0.11644468 0.116166994 -0.0191381 0.02339222 0.25551757 -0.08579019 0.0058914702 0.10206271 -0.030963011 -0.071645714 -0.09321261 -0.022190677 0.07254834 0.009006023 -0.08899788 0.0795957
most -0.02834742 0.046587817 -0.067620985 0.007691122 0.009433611 -0.04707785 0.07226365 0.05734602 0.016835777 -0.004302982 -0.07115092 -0.03249646 0.049783476 -0.013433993 -0.05133784 0.016572023
don't 0.03288737 -0.06630429 0.019773507 0.06821258 0.11162092 -0.00037010963 -0.052554186 -0.016584896 -0.0023242075 0.04434647 -0.031600777 0.009361794 0.0012628348 -0.08361001 -0.015268714 -0.060987543
made -0.002348231 0.021000003 -0.030099658 0.068616554 0.043417733 0.0017477421 -0.055907115 0.028794734 0.01884484 -0.021703217 -0.0069216583 0.048090737 -0.014724224 -0.014620054 0.037579115 -0.0066899466
its -0.16764843 0.2535879 -0.09543902 -0.026404362 0.3042931 -0.11338149 0.087414116 0.0768211 -0.10824648 -0.09017188 -0.18164138 -0.116008356 0.099010676 0.034679666 -0.13257468 0.091228545
then -0.02497951 0.010837635 -0.022218201 0.044522382 0.08022533 -0.07060481 -0.044455305 0.02319174 0.003128302 0.049379937 0.024284622 0.026796965 0.038996764 -0.033116776 -0.019497836 0.027730094
way 0.059066188 0.028630055 -0.0026768406 0.052279633 -0.009626612 -0.02033619 0.022796303 -0.088188685 0.0033834085 0.06323863 -0.12388183 0.0040658074 -0.06515516 0.024580518 0.008824402 -0.06293518
make 0.047966067 -0.027096022 0.11023281 0.018724995 -0.02420295 0.02134741 -0.0158332 -0.08273274 0.106437325 0.09512432 0.015014016 0.044889797 -0.096494935 -0.06504128 0.06328351 -0.103227824
them -0.13370582 0.026551133 -0.117113546 0.0021225899 0.25020668 -0.07461107 0.051341027 0.06991228 -0.04851919 -0.056236256 -0.04202044 -0.10173968 0.04193521 0.049454566 -0.067631185 0.09495285
too -0.025529088 -0.053653188 -0.09526277 -0.03819988 0.073333606 -0.10005239 0.058725588 0.10318374 -0.07979077 -0.047573544 -0.007269381 -0.023066977 0.06855797 -0.015325242 -0.086986296 0.08973465
could -0.013080437 -0.027154788 0.06325517 0.01764179 0.031016748 0.03411167 -0.034122612 0.029179228 -0.01367304 0.062275294 0.029916279 0.04541693 -0.019815356 -0.006018307 0.05908794 -0.05304038
any 0.06743592 0.12411565 0.09400494 0.03883716 0.08663326 -0.010785259 0.019890208 -0.042596057 0.10617519 0.05683004 -0.08463721 0.06122841 -0.08600827 -0.06286046 0.0086570075 -0.08534559
movies -0.0062296754 0.05077706 -0.042109862 -0.033866923 0.18036059 0.028424814 -0.004861702 0.02306467 -0.03216976 -0.01886089 -0.0952936 0.0033573264 -0.048989967 -0.03342094 -0.044558894 -0.02034073
after -0.04391545 -0.0091231065 -0.040175367 0.06407118 0.17546643 -0.033515118 -0.043729093 0.02136987 0.016343055 0.0034898175 0.011637514 -0.08902167 0.072304934 0.0010837778 -0.0063071763 0.007399186
think 0.03191287 0.000955651 -0.023499168 0.04748641 0.050196838 -0.028242704 0.04414182 0.021256149 0.013869855 -0.024482332 -0.018054515 -0.018760715 0.027203362 -0.052933153 -0.04114763 -0.04627404
characters -0.033239424 0.04240063 -0.07128288 -0.045412827 0.11730345 -0.06960926 0.043140065 0.038066622 -0.044102248 -0.035928663 0.04034066 -0.029325722 0.08334176 -0.018239975 -0.073379 0.051432926
watch -0.05877555 0.011547039 -0.05437133 0.06383544 0.069810025 -0.0010083473 0.011048669 -0.013677696 0.0028380177 -0.010877517 -0.0011486891 -0.05347266 0.038779683 0.022856124 0.010553714 -0.011436776
two -0.00922644 -0.038354922 -0.005695188 0.06350985 0.006100338 0.00047748623 -0.0249356 -0.016206425 0.055757016 0.020836538 0.07298759 0.034028098 -0.05130221 -0.05733255 0.03895185 -0.016674444
films -0.05636287 0.19883557 -0.083465025 0.019751187 0.32293573 -0.07894538 0.0086452365 0.074098155 -0.050659914 0.013651295 -0.18508369 -0.05382217 0.077278435 -0.008217949 -0.040229887 0.059396543
character -0.0052317283 0.10217899 0.07993327 -0.028799616 0.07570168 0.029173467 -0.029324353 -0.044474162 0.014481988 0.061347637 -0.054752752 0.07016477 -0.05996601 -0.034333527 -0.014012943 0.013392946
seen -0.036016755 0.055473063 -0.02091808 -0.06138551 0.047370963 -0.077447906 -0.024626672 0.034629058 -0.015475516 0.0075388537 -0.041727092 0.022630045 0.035411697 -0.03434201 -0.008816486 0.051698044
many 0.066808246 0.038520034 0.05787943 0.017360657 0.034710027 0.09352197 -0.070444725 -0.019750388 0.04182069 0.09391936 0.04239098 0.07337575 -0.06976744 -0.06438035 0.0107585825 -0.008129169
being 0.021556452 0.22300982 0.07322929 -0.1073406 0.06755886 -0.040320612 0.027038245 -0.06358678 0.0014446176 0.05086859 -0.15371287 0.058718633 0.009376708 0.026782086 0.0030291772 0.023183096
life 0.017540177 0.012010596 0.036143422 0.014812351 0.027770862 0.013763816 0.018517204 0.0023065996 -0.040687095 -0.06159487 -0.013327172 -0.04583691 -0.0086227115 0.029538138 -0.06142591 -0.046127684
plot 0.064340375 0.02663202 0.015314899 0.059343472 0.036005303 0.09985371 -0.08277807 -0.092514455 0.10474519 0.023950271 -0.05232547 0.0690526 -0.09163806 -0.08869164 0.05441089 -0.024964144
never 0.04634639 -0.014313494 -0.026994454 -0.057079393 0.0036969576 0.049593054 -0.03428365 -0.06413663 0.038116544 0.040457256 -0.060435273 -0.014437187 -0.054875784 0.009686841 0.024552539 -0.043119878
acting -0.0016427991 0.102763884 0.021714281 0.010659904 0.12329662 -0.057477165 -0.0021068768 -0.050637692 0.017978197 0.01291151 -0.14362003 0.00044535403 0.03741109 -0.054463435 -0.032260485 0.008340952
little -0.11450781 0.12161075 -0.03275625 -0.09114746 0.20205 -0.12710415 0.032353893 0.13923289 -0.126167 -0.12529334 -0.062298898 -0.052460793 0.03964286 0.053192932 -0.074573256 0.11728727
best -0.1686438 0.28311366 -0.11401205 -0.17888905 0.26115292 -0.19847223 0.20321845 0.08528098 -0.10512053 -0.14632446 -0.18556021 -0.13564512 0.18986179 0.08321801 -0.20863318 0.15194444
love -0.034892477 0.19879057 -0.019432668 -0.022306824 0.18738686 -0.026183534 0.01513752 0.045989115 0.015153579 0.017061787 -0.16522974 -0.06709513 0.06489982 0.08383418 -0.08276132 0.08237057
over -0.00014963336 0.03308232 -0.005365184 0.096855365 0.19674057 0.043893754 -0.011983672 -0.0013514297 0.008390985 0.048650585 -0.14956333 0.04690743 -0.066203594 -0.067465656 -0.030720174 -0.07159121
where 0.026866233 0.02746677 0.037163418 0.000903964 0.010927055 0.07181096 -0.0066667753 -0.080208 -0.0015269142 0.0027288909 -0.020219302 0.009377152 -0.06899562 -0.07041741 0.024380589 0.0030660816
did 0.019516947 -0.003132276 -0.067311205 -0.01457283 0.14268863 -0.073487185 -0.048612222 -0.029820325 0.012723762 -0.064442575 -0.044317897 0.02766988 0.0082780775 -0.0006449538 0.02234082 -0.05067032
show -0.02015192 0.08698563 -0.051742185 -0.081533246 0.06787562 -0.0388216 0.0045858757 0.03987525 -0.0644745 -0.03912373 -0.013848651 -0.078952216 0.06825264 0.06646933 0.006517292 0.057643514
know 0.07323771 -0.024582395 0.037649605 0.035062823 0.026901167 0.010910907 -0.038968608 0.0058228937 0.05636168 -0.013016549 0.00035791632 0.0054859472 -0.0037537792 -0.016312117 -5.4845164e-05 -0.024451643
off 0.065997966 0.0046972954 -0.013725862 0.09204044 0.033748947 0.07859391 -0.08291782 -0.053353764 -0.011436395 0.043345083 0.04231185 0.002229951 -0.052430715 -0.023177357 0.06644714 0.0039214343
ever 0.025702978 0.036494367 -0.027880827 0.026401814 0.0012760254 0.07250723 0.018336654 -0.022931108 0.0024161418 0.035376884 -0.07886306 0.041896403 -0.053759944 0.0010749543 0.056592945 -0.070470765
does -0.08921357 0.035032302 -0.0014657081 -0.06744765 0.1435455 -0.06026942 0.06868532 -0.023330344 -0.0023643803 0.005061024 -0.04598906 -0.07116626 -0.008959031 -0.0068249376 -0.014593112 0.029630315
better -0.113510184 0.18527792 -0.0108302515 -0.026448853 0.23333037 -0.10330098 0.08995914 0.023900924 -0.044567253 -0.047843188 -0.11495505 -0.019533787 0.08972849 0.0022006242 -0.044720437 0.09065892
your -0.0072190273 0.103520006 -0.044125948 0.009678634 0.16515823 -0.022979358 0.0627577 0.031586133 0.027258001 -0.011207119 -0.14778805 0.013954483 -0.009822428 -0.039967958 -0.049153484 0.011165065
end -0.027166074 0.030254977 -0.0056172754 -0.019400567 0.24671467 -0.023870787 0.025056008 0.0038200992 0.014088203 -0.0052875797 -0.005239548 -0.027263992 0.0001379328 -0.070051976 0.00548047 0.014909645
still -0.0955064 0.19152416 -0.019717036 -0.14081158 0.10016272 -0.10883715 0.09690648 0.063827366 -0.086178474 -0.052628458 -0.10714706 -0.108789474 0.06853895 0.033316266 -0.09512786 0.0218151
man -0.0151396 -0.0141950585 -0.075272344 -0.0011091675 -0.008020809 0.003789626 0.0635706 0.07469559 0.004412604 -0.027213095 -0.02062475 -0.045473084 0.044954684 0.067228995 -0.060553916 0.020358998
here 0.13487591 0.14478292 0.1553697 0.11490813 -0.023942737 0.105676375 -0.056543097 -0.16444016 0.1582724 0.17592154 -0.08634153 0.16115393 -0.13373175 -0.1076651 0.08070588 -0.076542854
these -0.08955245 0.10771734 -7.24921e-05 -0.014707411 0.16493529 -0.08157677 0.009736891 0.0343852 -0.046044372 -0.032950286 -0.074975744 -0.04550361 0.03789305 0.036505297 0.0048682517 0.04653817
say 0.08651822 0.00843382 0.065795794 0.031780925 0.025804061 0.028573904 0.0035844073 -0.0111334715 0.017140558 0.021076953 -0.09032837 0.092026584 -0.029708466 -0.07178245 0.060899664 -0.0018486172
scene 0.046248306 0.037406914 0.0055219424 0.071732044 0.003516642 0.05589319 -0.057812516 -0.06314249 0.030678963 0.0347946 -0.0016695247 0.0661127 0.0035010446 0.009489996 -0.01472019 -0.072077475
while -0.0278784 0.05761747 -0.021425443 0.076885484 0.026151583 0.0567071 -0.045585945 0.02598967 0.0054254727 0.061432652 -0.048540752 -0.014643508 0.0056473888 -0.05757062 0.044055313 -0.019909302
why 0.06898983 0.011826784 0.018597238 0.0457585 0.04619119 0.09988071 -0.112881705 -0.04611843 0.10624407 0.07624968 -0.016951801 0.025547266 -0.023064595 -0.034384668 0.012977124 -0.04117538
scenes 0.006478555 0.052996367 0.03713784 -0.0031306806 -0.0014050179 0.024816412 0.0106256455 -0.0031035184 -0.0044933693 -0.0054145693 -0.07721874 0.010093957 -0.013516673 -0.061128166 0.030126832 0.016285224
go 0.041549902 0.092491984 0.0035861365 0.03718548 -0.038624834 0.008776854 -0.012029068 -0.031299964 0.04999291 0.0035183935 -0.07421464 0.060581803 -0.08155233 -0.01102901 0.034378827 -0.08098319
such -0.06189611 0.00720057 0.034675386 0.016808452 -0.0054718032 -0.025958672 0.016303048 -0.025225744 0.03202828 -0.06389178 0.048050154 -0.019515384 -0.025209134 0.02873249 0.021223266 0.06546118
something 0.021021415 0.05802719 0.06170037 0.035483725 -0.06647412 0.10019713 0.0048396564 -0.0813778 0.040142406 0.038161963 -0.04009344 0.103553236 -0.07988332 0.003017899 0.0070160963 -0.09418103
through -0.032922104 -0.03237373 -0.10010418 0.010499722 0.0826685 -0.09503115 0.026592253 0.027750723 -0.066735424 -0.043431826 -0.0010931387 -0.07436951 0.0145746395 0.03291498 -0.067822695 0.0882519
should 0.07688898 0.06427506 0.018517012 0.09174673 0.07688743 0.0708164 -0.113585316 -0.06490225 0.078030474 0.070456505 -0.15726984 0.14759925 -0.13494365 -0.053580247 0.08898191 -0.06463998
back -0.06715685 0.1323271 -0.039833114 -0.033502027 0.17240891 -0.082224 0.05150906 0.035872016 0.027698385 -0.0016822296 -0.034217782 0.02571269 -0.02070884 0.011773883 0.0028618681 -0.027717676
i'm 0.024839934 0.1468042 0.061359823 0.11739862 0.08612208 0.017598005 -0.01392834 -0.10353693 0.04054445 0.121934 -0.15193048 0.12230071 -0.024877796 -0.07674154 0.08090577 -0.038424313
real -0.02563305 0.038655087 -0.01753895 -0.0068028234 0.26893753 -0.028686667 0.014475009 0.07698012 -0.04917675 0.00010184514 -0.0729949 -0.05464035 0.019026717 -0.0014451835 -0.074213 0.06631532
those -0.05582744 0.056054167 -0.0091951005 0.005259684 0.07812049 -0.044695925 0.021159131 0.059315722 -0.0076094386 -0.0006002343 -0.036807746 -0.008908425 0.059333056 -0.008073321 -0.022493454 0.023491327
watching 0.025527384 0.049032196 -0.040058974 -0.077336155 0.06763382 0.020185659 0.059217148 0.021573262 0.03766225 0.041216042 -0.016107794 0.035073396 0.03498437 0.08707542 0.0042786496 -0.0026050478
now -0.046317447 -0.013877902 -0.051424306 0.019606518 0.14535066 -0.119236 0.008565339 0.110151224 -0.019469842 -0.020972166 -0.06586962 -0.09983402 0.03265677 0.043522988 -0.06739708 0.08219098
though -0.05883165 0.19107366 -0.019197576 -0.07852428 0.23976333 -0.09129471 0.045520253 0.009808516 -0.05855333 -0.036105376 -0.11489175 -0.08647566 0.040563513 0.025571076 -0.0946529 0.09251557
doesn't 0.024442548 0.009258469 -0.0014266804 -0.04543812 0.019471822 0.038266834 0.050569557 0.0048486083 0.03816639 -0.017313285 0.022032047 0.03077847 -0.017782202 -0.04664512 0.0077967932 -0.047645357
years -0.02020284 -0.0033023583 -0.08963217 -0.04630364 0.099997744 -0.019274814 0.059389733 0.008786102 -0.058651492 -0.061663818 -0.0068496466 -0.08203894 0.07539289 -0.001363412 -0.062934816 0.05330332
old -0.023306254 0.050762568 0.03299017 0.0048309234 0.030732498 0.031196395 0.030405086 -0.08039727 0.0105841085 0.079877354 -0.07110027 -0.00030663243 -0.073270686 -0.08441392 -0.0065246783 -0.06571503
thing 0.1106079 -0.062081337 0.08247104 0.08603826 -0.08253977 0.09684631 -0.024185836 -0.031515513 0.019860191 0.067804486 0.057732355 0.047939662 -0.0765854 -0.04335887 0.057295673 -0.0814446
actors -0.04123561 0.057421573 0.007731952 0.025469668 0.030096266 -0.029839778 -0.018917145 -0.03093879 -0.014673188 0.06846092 -0.010301144 0.011936503 -0.048842702 -0.008187319 0.01652819 -0.045917183
work 0.030907825 0.023269784 -0.025884064 -0.004171598 -0.012019568 -0.002339092 0.044476163 0.043599945 0.004022366 -0.053791165 -0.014488853 0.04892303 -0.046250995 0.021559115 -0.016675087 -0.0036415847
10 -0.25711793 0.18400714 -0.15772668 0.039053835 0.34079745 -0.25421253 0.22473106 0.22322544 -0.17916371 -0.14951672 -0.15554626 -0.08946842 0.20743462 0.0037372306 -0.15750648 0.0805494
before -0.0020887312 -0.0156115005 -0.053977776 -0.004335701 0.06613673 -0.044351973 0.05226617 0.022527609 0.026438069 5.533905e-05 -0.07646543 -0.006653978 -0.016213793 0.005379356 -0.04369661 0.046352237
another 0.018663645 -0.07689694 0.042963445 0.04567003 0.028471421 0.050020818 -0.029347545 -0.013492348 -0.019414512 -0.022636062 -0.037502848 0.048025995 0.019336622 -0.05065511 0.07255866 0.020924108
didn't 0.10509877 0.082290314 0.052366532 0.055095125 0.08734951 0.07627328 -0.00020174854 -0.09436983 0.049984075 0.087765664 -0.13037501 0.09783865 -0.13051075 -0.07561868 0.11311911 -0.06672577
new -0.026159313 0.033028886 -0.0052899164 -0.05281873 -0.039607268 -0.018677203 0.013721734 0.03145661 0.045980234 0.06774013 0.009723829 -0.022418492 -0.042020526 0.012775771 0.03575341 -0.016473288
funny 0.019960348 0.08016918 0.09601793 0.05413843 0.04700659 0.09203246 -0.009028017 -0.09940171 0.00880726 0.1060848 -0.12420427 0.08813702 -0.09988278 -0.039652083 0.034002118 -0.041071035
nothing 0.057128467 -0.047352668 0.02932403 0.021880973 0.022751644 0.04858329 -0.033403456 -0.001769631 0.03000876 0.07750047 0.008225475 0.08369674 -0.08351357 -0.04447463 0.011812267 -0.08615401
actually 0.017759705 0.01564112 0.073478065 0.08738978 -0.027722273 0.0810544 -0.014523609 -0.041237436 0.026805632 0.09384561 -0.03599787 0.107159115 -0.058342688 -0.122398846 0.06768043 -0.071622185
makes 0.023498727 -0.02438504 0.0070678922 -0.019770851 0.024378972 -0.0343122 -0.009833195 -0.0006775313 -0.016969021 -0.04904648 -0.038443048 0.02053076 -0.016675532 0.051244255 -0.021524785 0.019153636
director 0.025527732 -0.030285323 0.058250945 0.056147728 -0.017419556 -0.020357093 0.015316627 -0.004253907 -0.007278542 0.016384495 0.06908247 -0.008044482 -0.050820775 -0.011274017 -0.0040179393 -0.040109478
look -0.032834757 0.060371216 0.04216878 0.0020516934 0.09271355 -0.04973187 0.011625189 0.035125095 0.04372237 0.01406438 -0.034561805 -0.027889227 0.011266247 0.0071830982 0.0360786 0.0103910295
find -0.0077257236 0.0871598 0.06950641 0.07432544 0.110588774 0.009914276 -0.011189407 -0.019519832 0.08914659 0.035684418 -0.1643747 0.034983993 -0.029845139 -0.012768789 0.05476481 -0.016033094
going -0.029629309 0.007995273 0.02530134 0.036699075 0.16431156 -0.06299116 0.029810108 0.005265446 0.0062456434 0.011563665 -0.030295348 0.016021702 -0.024284901 -0.057356708 -0.044853315 -0.009345971
few 0.025733126 -0.064080566 0.03536317 0.041936398 0.023176283 0.015407363 -0.053795986 0.009017718 0.03440732 0.06563303 0.0046879635 0.030554276 0.0012928753 -0.054153796 0.042202428 -0.07372979
same -0.012758731 0.15840864 0.037027497 -0.03112627 0.16121571 -0.05179297 -0.02713671 -0.068181194 0.046073068 0.09142416 -0.045747656 0.010189912 -0.03152065 0.015737738 0.041554417 -0.017352426
part 0.06300091 0.10039487 0.116863534 0.10034741 0.12726687 0.11978001 -0.05152315 -0.06424144 0.118425556 0.070504084 -0.15788022 0.1631048 -0.14774333 -0.07853875 0.05245474 -0.097827084
again -0.005205561 -0.024035783 -0.06036076 0.0124704 0.08534079 -0.054269843 0.035213795 0.01435309 -0.032736357 -0.041883986 0.019297794 -0.027278459 0.04248078 0.04004467 -0.0145761985 -0.013329687
every -0.029513367 0.039445527 -0.015644897 0.022979967 0.15502343 -0.044607792 0.02237244 -0.0051627858 0.020528164 -0.0007380716 -0.058604464 -0.027266745 0.023503607 0.061706576 0.022682086 0.0806073
lot 0.021649731 -0.01628626 0.07696874 0.0017820753 0.0057231965 0.060904745 -0.04579633 0.00690148 0.016427752 0.0041554845 -9.152054e-05 0.04839188 -0.050235987 -0.06761893 0.003506473 -0.011515388
cast -0.021566318 0.02527006 -0.00051967177 0.03199634 0.0592003 -0.025388027 -0.011587112 -0.040973153 0.006011196 0.04188112 -0.01813279 -0.01843922 -0.024132917 -0.05339603 0.067902505 -0.01975937
us -0.07477976 0.05683964 -0.07851283 -0.041147873 0.11192527 -0.07180159 0.04919571 0.0013788015 -0.07475184 0.016852956 -0.013364866 -0.008836789 0.0775975 0.027795576 -0.0840793 0.067353815
quite 0.020693958 0.20058917 0.004109806 -0.020796783 0.12690002 0.0069514634 0.06916184 0.01608489 -0.044107247 0.063226566 -0.07022666 -0.029262707 -0.009906215 0.03586743 -0.039012525 0.0025079378
down 0.005153016 0.037191447 -0.013546379 0.077839315 0.11714776 0.0006890282 -0.014668963 -0.019301614 0.014498111 0.059446346 -0.037320416 0.045252543 -0.04042845 -0.007812983 -0.033074595 -0.02483004
want -0.028795859 0.048403908 0.012153031 0.093303375 0.055768896 0.055079427 -0.048193064 -0.006052892 0.010623828 0.002135822 -0.06065754 -0.00090328377 -0.015696727 -0.069987334 0.015075409 -0.007941149
world 0.052172933 -0.028585719 0.016799085 -0.016661828 -0.02306763 -0.0065519195 -0.074059315 -0.04129457 0.007315004 0.00429793 0.010454485 0.0038123094 0.007107018 0.029396579 0.021553082 -0.025529794
things 0.03964389 0.04485337 0.028508538 0.033762284 -0.0040886723 0.045505665 -0.06165521 -0.08044125 -0.013466921 0.080886856 -0.089976534 0.06082833 -0.05739165 -0.014155301 0.031677455 -0.0445659
pretty 0.014147837 -0.015476165 0.009692529 0.004972901 0.07091716 0.021993851 0.0074751624 0.04989411 -0.0145185655 -0.027736325 -0.047428012 -0.03346253 0.027937142 0.020640625 -0.04609153 0.025478927
young 0.015563107 0.1522132 0.059107244 -0.0060859383 0.17606415 0.009704886 -0.02492338 0.010472221 0.027440766 -0.026592402 -0.102964506 -0.019901415 -0.043604214 -0.047684915 -0.049127307 0.060062826
seems -0.012747486 0.047369678 -0.037422787 -0.098054186 0.08139426 -0.0535664 0.10098061 0.0063276985 0.002504597 0.02412041 0.008127226 -0.029448776 0.048356593 0.016467227 -0.021834811 0.03191467
around -0.051981673 -0.024056334 -0.022549132 0.0048780367 0.07378255 0.018589173 0.0034558321 0.039151512 -0.018028438 -0.038093075 0.019603606 -0.07509737 0.020571664 -0.011038896 -0.008078831 -0.01804539
got -0.029605208 -0.007888712 0.0027483841 -0.018012892 0.046749532 -0.00640763 0.014354932 -0.005566501 0.027559618 0.057982862 -0.032780305 0.06047477 -0.016634215 -0.05016569 0.05376122 -0.018294407
horror 0.030390033 0.05720804 0.04145041 0.03639531 0.014210785 -0.017973669 0.027898675 -0.043789607 0.074813575 0.04426683 -0.08114214 -0.0038890094 -0.07874403 -0.067140326 0.006427998 -0.04898656
however -0.020850532 0.06641881 -0.022693418 0.03499829 0.014526888 0.0327699 0.04068972 0.018258348 0.033794053 0.07115277 -0.040251885 0.053721216 -0.0151619855 -0.0052125747 0.03312311 -0.005803403
can't -0.043113563 0.14302337 0.001877313 -0.09590607 0.07660301 -0.020049345 0.09970269 0.041054662 0.001814001 0.005631294 -0.06680133 -0.019230057 0.0677093 0.0024592916 -0.04437518 0.07052177
fact 0.057314686 0.047281653 -0.0048141424 -0.00063959934 0.06949091 0.03972953 -0.012689824 0.021358112 0.062972434 0.03803924 -0.09628974 0.050097756 -0.042293366 -0.048859168 0.06447947 -0.045949325
take -0.07795991 0.14062415 -0.08364763 0.018442797 0.2292714 -0.12866643 0.022971692 0.04131953 -0.09402613 0.022687804 -0.14708781 -0.03563514 0.010918312 0.00023324967 -0.11098467 0.00927576
big 0.013851852 0.17016971 -0.0066474075 0.0019607209 0.08855662 -0.04625143 0.03654586 -0.08004194 -0.025230244 0.07677054 -0.06320485 0.06112812 0.022101084 -0.048728563 0.0143235335 -0.022933546
enough 0.009038028 0.064654775 0.07350824 0.07806198 0.075649515 0.069867656 0.0012621789 -0.08482148 0.06692199 0.073936574 -0.1510418 0.09361592 -0.09001398 -0.029361317 0.00068199716 0.0040700166
long -0.002618636 0.050871883 -0.023272227 -0.035681564 0.056257583 0.04117404 0.0011633734 -0.016787743 0.0135189 0.013263276 0.0005807027 0.0021692736 -0.049215652 -0.024964338 0.020051055 -0.012991588
thought 0.057091273 0.071529076 0.1017165 0.05099472 0.06066959 0.033526406 -0.055976376 -0.11775949 0.08806219 0.06350539 -0.094038345 0.12096525 -0.085116014 -0.0873262 0.057910286 -0.09749373
that's -0.017941438 0.043651152 -0.041281797 -0.056706715 0.1629088 -0.06525676 0.064624175 -0.020314984 -0.0027375426 -0.025807096 -0.00748421 -0.05367887 0.0074517755 -0.016542891 -0.01588873 0.0374555
both -0.098901264 0.24505776 -0.09372614 -0.15854 0.16360801 -0.18753102 0.12958422 0.042826723 -0.13106972 -0.0060743354 -0.2758536 -0.10398809 0.09100985 0.08010531 -0.0644667 0.12991607
between -0.043879718 -0.023586309 -0.0015734959 -0.010745107 0.05555102 0.01123946 0.069168255 0.036995266 -0.003961343 0.0051281876 0.05794112 -0.021187034 0.0050018816 0.036020014 -0.008183969 0.023925966
series 0.010942222 0.12643133 -0.028430937 -0.027544975 0.07859776 -0.036133494 0.032710884 0.06426535 0.0027747066 -0.0406935 -0.12562282 -0.010225086 0.021010032 0.00304078 -0.03244729 0.079937175
give -0.04622403 0.07572587 -0.033647448 -0.08774368 0.21671169 -0.02748681 0.023135671 0.01333984 -0.07841144 -0.0033557592 -0.041282848 -0.031762682 0.0465965 0.05194586 -0.07779004 0.09414827
may -0.07841762 0.14892559 -0.07127222 -0.04335382 0.2146263 -0.08240878 0.07302071 0.062194683 0.0021567303 0.025051285 -0.12999025 -0.02688317 0.012156268 0.03454968 -0.08029526 0.06566055
original 0.034410823 -0.008903392 0.04971429 -0.008926322 0.035985067 0.054849308 0.0020029254 -0.0032529607 0.036332045 0.0826375 -0.073733926 0.023152675 -0.01033698 -0.052054167 0.0511967 -0.020077739
own -0.039462823 0.11210955 -0.030496772 -3.9870018e-05 0.11159162 -0.09765401 0.055785034 -0.028373841 -0.028721508 -0.029001655 -0.009157704 -0.075767174 0.07777139 -0.03117412 -0.04033096 0.010346106
action -0.061304804 0.07701153 -0.062233772 -0.02054972 0.1569762 -0.13833067 0.0038601437 0.0444844 -0.042169463 -0.07545404 -0.04665637 -0.02965621 0.10231656 0.0036485079 -0.04445332 0.029188313
i've -0.11157233 0.21726196 -0.09577253 0.016662974 0.28323466 -0.07127161 0.10191067 0.08745016 -0.058281556 0.009986255 -0.21124563 -0.042155348 0.006399901 0.04070021 -0.08547897 0.06613919
right -0.09598583 0.13813585 -0.019081803 -0.04440962 0.14263612 -0.12534846 0.1040561 0.014799473 -0.087730125 0.00072204537 -0.15151118 -0.008414145 0.048815638 -0.028534548 -0.0740503 0.040364057
without 0.01993176 0.03519848 0.025243593 -0.048665654 -0.017711125 -0.026283449 -0.013557171 0.01164178 -0.049827423 0.0058707683 -0.0063223504 -0.0630719 -0.025887774 0.05980525 -0.036346756 0.035209686
always -0.18411468 0.24301875 -0.09105001 -0.12386892 0.23360665 -0.15458119 0.08321275 0.09117754 -0.13922076 -0.031374484 -0.1931352 -0.08592441 0.110247724 0.05301771 -0.06283798 0.11932891
times -0.08563268 0.028433703 -0.015799055 -0.06530993 0.11860197 -0.051964756 0.051597785 0.018739643 -0.04051044 -0.003530655 -0.062594794 -0.05230309 0.08130831 0.04022242 -0.03693471 0.027893623
comedy -0.028738957 0.152712 0.018321354 -0.052759346 0.017975619 0.012140972 0.15280016 -0.037683293 0.05104058 0.038757615 -0.090067334 0.022958687 0.021587888 -0.02118396 0.04573652 0.014005228
point 0.095411316 -0.02043583 0.007793117 0.07967892 -0.007340878 0.08751553 -0.09537922 -0.03040192 0.109352514 0.101202704 -0.049338855 0.10748714 -0.038598217 -0.11070087 0.060509246 -0.058422714
gets 0.028939143 -0.015960794 0.004691335 0.010989249 0.08332642 0.058947757 -0.03522602 -0.033084236 -0.012759255 0.06411018 -0.05011111 -0.002654733 -0.058637563 0.019382766 -0.0045993477 -0.063105
must -0.10879694 0.02359535 -0.0212768 -0.006881292 0.1393029 -0.066188686 -0.003440438 0.07143754 -0.099900045 -0.03237477 0.0069029927 -0.08055835 0.016707174 0.07273995 -0.060277298 0.08893678
come -0.036864594 0.13483576 -0.068795614 -0.06117408 0.1130959 -0.085094854 0.084164925 0.048245817 -0.004743158 -0.0047830306 -0.038981237 -0.0338245 0.087842464 0.008783025 0.0028353073 0.08870219
role 0.0717057 -0.003930268 0.045565795 0.08569494 0.08233607 0.014881064 -0.040610064 0.008697476 0.058079783 -0.00084935763 -0.11383784 0.06346706 -0.018750291 -0.07429589 0.07009164 -0.047272496
isn't 0.013218177 -0.0141421575 0.039138403 -0.007483739 -0.030410795 -0.008001914 0.03538031 0.0078729205 -0.013784615 -0.006882353 -0.035246003 -0.00014537922 -0.047102176 -0.0261655 0.036542293 -0.017928524
saw -0.057081237 -0.047577135 -0.07680955 -0.0720768 0.16619562 -0.08970075 0.004620811 0.10380142 -0.042176936 -0.10754126 0.08092552 -0.07383628 0.099951684 0.072459534 -0.027556563 0.1306276
almost 0.084156536 0.06923437 0.049598508 0.03694695 -0.03645555 0.027677769 0.0014466634 -0.0786864 0.08847722 0.010189864 -0.010482541 0.04409735 -0.042771835 -0.09386282 -0.008619067 -0.076355204
interesting 0.017953267 0.12896614 0.068886906 -0.013512369 0.06851439 0.051684044 0.02481559 -0.027952256 -0.013974827 0.09913673 -0.13227563 0.02899648 -0.015343737 -0.021983055 -0.02898494 -0.06689995
least -0.020943407 0.0765176 0.018033214 0.029587872 0.032174893 0.0417189 0.015415636 -0.018596072 0.06412177 0.05105939 0.0051434916 0.04313475 -0.02481767 -0.057560746 -0.010369709 -0.028504303
family -0.087420925 -0.00093205686 -0.102763705 -0.108196005 0.038517736 -0.022321925 0.05964659 0.04591392 -0.08463853 -0.06377489 -0.023987187 -0.06857257 0.113745116 0.11421222 -0.11831474 0.12108776
done -0.06075288 0.2534921 0.05344985 0.010825629 0.15610828 -0.00204031 0.02734511 -0.007988776 0.0054810196 0.043790277 -0.26474234 0.06675009 0.022648659 -0.069906436 0.00944528 -0.031078283
there's 0.04050402 0.097408675 0.012241708 0.10273752 0.03905519 0.09089904 -0.055212207 -0.058638796 0.07122786 0.09463177 -0.037739728 0.08719864 -0.07202431 -0.08900142 0.102161616 -0.03901745
whole -0.0061071008 0.063211955 -0.042135276 -0.04209392 0.11078702 -0.0041020904 0.016490925 0.007521301 -0.042771757 0.0063086892 0.017308583 -0.09324595 0.080507144 -0.010211185 0.003811948 0.08823069
bit -0.0030694199 0.17530157 0.0056452015 0.017348995 0.13302307 0.03389104 0.06224512 -0.055451773 0.04777626 0.06424904 -0.17623292 0.070018515 0.019994898 -0.05855959 0.0029337478 -0.035035025
music -0.11882104 0.033041265 -0.1228027 -0.06407345 0.1482948 -0.0838092 0.07480697 0.12422736 -0.062644444 -0.0978807 -0.04989403 -0.09426759 0.16464834 0.08409624 -0.11823372 0.15893301
script -0.048023682 -0.087245256 0.0037915497 0.01687275 0.089991584 0.01827654 -0.027104484 -0.009163351 -0.021235304 -0.021419356 0.09806382 0.0015995081 0.012500439 -0.03490492 0.03604493 -0.05820171
far 0.04102641 0.039905913 0.05497818 0.10413203 0.085167155 -0.012343427 -0.052116193 -0.028499166 0.0077685444 0.019456908 -0.11636961 0.041262306 -0.09484309 -0.085590445 0.06819338 -0.05324454
making -0.07441725 0.083626345 0.004217041 0.03420284 0.26709864 -0.09405172 0.014292377 -0.005474101 -0.038946185 0.015711768 -0.09630793 -0.05141948 0.029728496 0.0040733283 -0.012123622 0.0052193836
guy 0.0049976557 -0.07746099 0.008614546 0.032049693 -0.026124598 -0.007760902 -0.05235179 -0.00876776 0.060282715 -0.029071428 0.030855203 0.026774874 -0.07121647 -0.07179434 0.017218689 -0.065089636
anything 0.022900306 0.18998958 0.04014972 0.03735369 0.09347059 0.07689278 0.03443979 -0.03995932 0.08456463 0.054889224 -0.16814837 0.111393355 -0.039410982 -0.04939359 0.053924326 -0.09252533
minutes 0.04381506 0.088791944 0.030516064 0.029704336 0.10759171 0.09386869 -0.0011597319 -0.057340328 0.106295705 0.053216096 -0.064631276 0.06988785 -0.114776246 -0.09263693 0.11428419 -0.04716165
feel 0.017156681 0.17844494 0.043750193 -0.032795813 0.1038835 -0.014389653 0.010394528 -0.034546867 0.021260187 0.07547773 -0.1337762 -0.0015933588 -0.017294725 -0.001069588 0.0306887 -0.040809922
last 0.05218471 0.05269122 0.0985349 0.07577232 0.10212557 0.07502519 -0.04270086 -0.08924418 0.100930676 0.08537376 -0.12253036 0.12384008 -0.07063222 -0.06932684 0.0923833 -0.039705865
since -0.11428697 0.020783564 -0.047429487 -0.000117783355 0.21156354 -0.11985093 0.031962268 0.05642839 -0.022750935 -0.04822557 0.027682755 -0.10599012 0.10163589 -0.032766607 -0.0016229928 0.03895398
might -0.069938876 0.19659092 0.04174312 -0.058045715 0.12239266 -0.062209498 0.057046257 -0.043963578 0.045343824 0.019912148 -0.11776463 -0.016512228 0.0027886603 0.011936961 0.02810196 0.008823641
performance -0.0044013783 0.124928504 0.01362993 -0.0132247675 0.17338859 -0.013916829 0.034337103 -0.05580222 0.012945894 0.019041136 -0.107291006 0.037284903 -0.00894669 -0.054840516 -0.016639935 -0.021538274
he's 0.038051717 -0.06711033 0.05706344 0.023000414 -0.026419062 0.04711623 -0.05566433 0.0013486934 0.008177272 0.026154492 0.053210754 0.008710109 -0.052039273 -0.001000046 0.06758366 -0.03901547
2 0.1272935 0.06312749 0.052698262 0.109526284 -0.059984602 0.029043607 -0.064510465 -0.095403135 0.030410863 0.11783437 -0.030904846 0.06341999 -0.09624336 -0.07895069 0.09439267 -0.08586211
probably 0.06867179 0.16664033 0.091214806 -0.0154367685 0.09804467 0.06338899 -0.011767542 -0.09954633 0.10124638 0.13656436 -0.14455627 0.04390578 -0.007160324 -0.010529447 0.056453686 -0.062975116
kind 0.03842432 -0.034225427 0.054374702 0.029326007 0.007805121 0.06710927 -0.051613655 -0.028068226 0.0053844033 0.010688438 -0.011411929 0.0019971004 0.010899778 -0.08610495 0.033285152 -0.06937511
am -0.10674942 -0.037059717 -0.08183387 -0.04056087 0.1397753 -0.06990409 0.052034497 0.07067132 -0.070650846 -0.023900066 0.07150882 -0.05493236 0.06632792 0.082988955 -0.089056104 0.02892574
away 0.03499306 0.021268362 0.04759676 0.003025661 0.13616963 -0.011236688 0.026353149 -0.030308655 -0.0077653183 0.040461395 -0.10463679 0.0449898 -5.1125426e-05 0.01046531 0.00033939004 -0.050671205
yet -0.064340726 0.28355974 -0.07604862 -0.07102367 0.16008751 -0.10108994 0.15416092 -0.029528089 -0.07614185 0.026130185 -0.13381724 -0.011506736 0.100982934 0.042298745 -0.0080688065 0.037722543
rather -0.027518725 0.026647508 -0.051186748 -0.051774703 0.08485792 -0.08206971 -0.007910787 0.051839467 -0.05062175 -0.09136106 0.011578955 -0.031695113 0.0139816515 0.055236567 -0.0005968174 0.04158267
tv -0.022333806 0.14361873 0.019827437 -0.018652644 0.0811341 -0.061788246 -0.03415854 -0.0247721 -0.01756338 0.028987112 -0.14147137 0.03758306 -0.0101359505 -0.023118878 -0.029139172 -0.0244607
worst 0.18104032 0.16165856 0.15818086 0.16399005 0.11348335 0.15221235 -0.018969882 -0.122431196 0.18403824 0.20848681 -0.24473034 0.15998888 -0.14369334 -0.20134014 0.110533945 -0.10229085
girl 0.037490964 0.02640609 -0.024210107 0.034323167 -0.011528508 0.016646726 0.009580303 -0.0064736772 0.042868547 -0.015290657 0.0002656465 0.005066713 0.0106285205 -0.0046137027 -0.04958024 -0.017675836
day -0.03361662 0.056705475 -0.01950989 -0.052648168 0.09402165 -0.038589537 0.025880467 0.051744062 -0.010399566 0.009212067 -0.024717394 -0.016567785 0.033522032 -0.016786894 -0.020836646 0.060733963
sure -0.1529511 0.08549656 -0.057158325 -0.057101175 0.15021649 -0.14987597 0.101080395 0.058174018 -0.09223892 -0.09577844 -0.026549226 -0.13692643 0.081604116 0.05540708 -0.12961428 0.09331776
fun -0.07205516 0.1361526 0.017312694 -0.034926537 0.17714897 -0.016511725 0.08326937 0.06211775 -0.039853297 0.014567471 -0.13786413 -0.002416878 -0.016908947 0.02605711 0.00485834 0.051813405
hard 0.0484668 0.13680185 0.03720078 0.01626713 0.0507109 0.06600454 0.008160257 -0.04160325 0.07344652 0.05231214 -0.1357555 0.07235416 -0.04814719 -0.078037985 0.06760025 -0.043563437
woman -0.0810137 0.13720912 -0.023138395 -0.029654697 0.055289645 -0.03155969 0.010421683 0.017751234 -0.03211878 -0.018389959 0.009362025 -0.07103162 0.09225554 0.049369935 -0.008500099 0.05612248
played -0.01987175 0.19275217 -0.034188632 -0.06380807 0.14349619 -0.029343322 0.07676373 0.0333097 -0.028902477 0.051113725 -0.114074536 0.01613388 -0.021444699 -0.040325362 0.028315898 0.010381629
each -0.09895336 0.091403574 -0.042074542 -0.097894385 0.20556346 -0.095266014 0.031392716 0.08221441 -0.06054415 -0.109469846 -0.024701431 -0.099264905 0.11047958 0.016028194 -0.088397495 0.08816985
found -0.016605655 0.04972963 0.032007635 0.00013347244 -0.010120064 -0.01635093 -0.03220506 -0.06946015 0.042353358 0.00868829 -0.048506413 0.039358217 -0.0292009 -0.006281348 0.002249781 -0.038028743
anyone -0.121773444 0.062417775 -0.07778488 -0.06009355 0.27619854 -0.10672845 0.06810343 0.057655483 -0.09980617 -0.059578054 -0.06429726 -0.070589386 0.09881157 0.017067377 -0.116149366 0.073971674
having -0.030919041 -0.0041199815 -0.0035519546 -0.06741353 0.003890438 -0.029616594 0.044283397 0.006421033 -0.03836846 -0.055866364 0.028333424 -0.0029771 -0.018697543 -0.0026835017 -0.034906413 0.0044908193
although 0.021491142 0.04094378 0.06290052 0.044898417 0.108936526 0.01195675 -0.04787689 -0.059158556 0.029611567 0.07772675 -0.088707246 -0.0022699754 -0.038734492 -0.005682106 0.062122762 -0.016304854
especially 0.024265941 0.0384277 0.018177161 -0.045883667 -0.0058046365 -0.028818771 0.05901767 0.038245287 -0.056581844 0.0348612 -0.013038414 -0.008943947 0.033792146 0.049542468 0.027749997 0.047384158
our -0.049032807 0.011032302 -0.08616693 -0.07100355 0.057459757 -0.08101407 0.020140557 0.08972024 -0.037416723 -0.037530694 -0.03297527 -0.05389429 0.011567987 0.020277768 -0.039392166 0.08038424
believe 0.039251763 0.15921848 0.07296414 0.037205473 0.071240924 -0.00538862 -0.011223498 -0.06558736 0.050858676 0.06037068 -0.113584064 0.092391364 -0.03156605 -0.016405053 -0.026484279 -0.008812587
course -0.032930087 0.10747427 0.025036663 -0.032648847 0.06829265 0.022044046 0.028377814 -0.027786743 0.03019585 0.009528427 -0.12347434 -0.008622118 -0.051397525 -0.019654987 -0.0032156608 0.0076742023
comes -0.07510009 0.13634886 -0.009658407 -0.06836549 0.13346244 -0.08422301 0.09754126 0.021161027 -0.047128897 0.021310825 -0.061911594 -0.044197533 0.022189515 0.053587064 -0.03824953 0.07519996
looking 0.011039541 0.038178246 0.039065085 0.061701305 -0.082609504 0.026546206 -0.03763827 -0.07960707 0.043978497 0.051441897 0.055162348 0.04318742 -0.07586654 -0.045333702 0.071558446 -0.03519755
screen -0.108195126 0.14330675 -0.10687286 -0.10488111 0.120649494 -0.076672636 0.11606587 0.11463439 -0.11132942 -0.08236101 -0.11234554 -0.09051316 0.047175806 0.06974434 -0.06433055 0.07637409
trying -0.030617459 0.08460838 -0.026068693 -0.06673086 0.0426673 -0.026351871 0.012311825 0.036795184 0.0030833238 -0.006105427 0.022712734 -0.015552848 0.026258385 0.008999568 -0.058127843 0.07897717
set -0.020332929 -0.06200855 -0.048325412 -0.009346336 0.041531242 -0.017984036 -0.021897094 0.021964425 -0.032419953 0.008598486 -0.0042549623 -0.012955868 0.04481923 -0.037138607 0.010672019 0.030531954
goes -0.0143316835 0.058741607 -0.049698796 0.021223169 -0.010695299 -0.04203586 0.051429555 0.02470763 -0.050624333 0.027565405 0.01696176 -0.07014828 0.05594088 0.015878582 -0.062357213 0.054709855
looks -0.05891844 0.020950442 -0.04605559 -0.12968978 0.09437026 -0.066161506 0.075736545 0.10247075 -0.06327515 -0.014482136 -0.033809315 -0.061992697 0.075062774 0.040294893 -0.07290108 0.07124776
place -0.23435195 0.13218592 -0.17230289 -0.24612115 0.27209237 -0.24730973 0.18317643 0.19876868 -0.17018463 -0.20021103 -0.06515386 -0.17120919 0.2242225 0.12406542 -0.17194965 0.239515
book -0.060647853 0.09778503 -0.0028741087 -0.0672972 0.10820235 -0.0872986 0.006624111 0.01049936 -0.027532194 0.029616587 -0.07069462 -0.053786736 0.08786015 -0.0048973165 -0.042364947 0.032699693
different -0.06407369 0.19154699 -0.020433895 -0.056100428 0.11031583 -0.011666414 0.0479891 -0.04085563 -0.039826777 0.050801676 -0.12607725 0.008869929 -0.0027160288 0.015900126 -0.012468053 0.024674611
put 0.0005552804 0.017765818 4.4394044e-05 -0.03612012 0.0231529 -0.04969557 0.02523238 -0.03367475 0.0015830908 -0.012905008 0.035692062 0.0027739792 0.024508065 0.034783866 -0.04610569 -0.02668851
ending -0.041713044 0.0376009 -0.009493222 0.0014602034 0.10336616 -0.056936093 0.04390599 0.050090574 -0.02055241 0.0328735 -0.012560547 0.025782226 -0.03448094 0.039038412 -0.06145449 0.028274344
money 0.08137975 0.07092262 0.050555225 0.11363857 -0.018669087 0.102283545 -0.084259465 -0.095812045 0.05611223 0.094790585 -0.11599398 0.13787508 -0.09524503 -0.061547164 0.06949781 -0.055519626
maybe 0.02993017 0.008037481 -0.027942244 0.058160655 0.075524725 0.0070298184 -0.018318987 0.04193216 0.04552919 -0.019990178 -0.015526933 -0.029796457 -0.029267836 0.020832704 -0.016689232 0.024357636
once -0.031409245 0.023336854 -0.10258617 -0.023302486 0.08695243 -0.09263783 0.04503983 0.033194963 -0.10699984 -0.0745275 0.05497573 -0.062443674 0.05892367 0.029085359 -0.028385397 0.09939041
sense 0.058656156 0.122011736 0.025940793 0.0688835 0.13897046 -0.0022647344 0.061171003 -0.054599248 0.020852022 0.08620163 -0.15136167 0.039270442 -0.0055498932 -0.10806666 0.037151057 -0.082492046
reason 0.11625332 0.112051874 0.08925534 0.091867596 0.037496313 0.06376914 -0.045519892 -0.15298997 0.118626036 0.06958917 -0.17130753 0.11481993 -0.113449864 -0.14141391 0.066509955 -0.07682547
true -0.0060351533 0.20062356 -0.00962049 -0.015891597 0.21298318 -0.109664924 0.098263346 0.02059687 -0.04660204 -0.008087375 -0.14747944 -0.0013519528 0.03836356 -0.014859257 -0.07406877 0.009825474
actor -0.11266361 0.16089165 -0.027086547 -0.11185496 0.08457985 -0.07569375 0.08066432 0.094848454 -0.033298098 -0.050672352 -0.08729131 -0.13222225 0.08708099 0.020393657 -0.07370035 0.13183878
everything 0.022596594 0.009590166 -0.023042005 0.0420917 0.107334614 -0.012749158 0.04957392 0.047912363 -0.034112275 -0.041476548 -0.058623876 0.027848488 0.0064271367 0.018791221 0.03291625 0.042125374
wasn't 0.119555645 0.035838116 0.05638071 0.09643021 0.063902535 0.11385333 -0.102065966 -0.071432374 0.12115617 0.07368709 -0.16359133 0.1632258 -0.15926348 -0.14236197 0.05080375 -0.14363809
shows -0.013587296 0.06385408 -0.008633513 -0.0002298266 0.119328104 -0.022802908 0.0005818071 0.050794326 -0.012250988 -0.024133135 -0.0538299 -0.06995141 0.06100671 -0.025966335 -0.034005538 0.080276884
dvd -0.04362919 0.038153227 -0.09582523 -0.11165945 0.03253452 -0.07854811 0.06087539 0.10154179 -0.07321594 -0.054645497 -0.02542269 -0.06923238 0.11350326 0.039430883 -0.09389645 0.12822266
three -0.08412515 0.08711969 -0.0075504794 -0.07402277 0.097531684 -0.05206235 0.0239467 0.024051901 -0.059616707 -0.047408625 -0.07623268 -0.04243208 0.018430693 0.033997618 -0.052212134 0.07111756
worth -0.10625452 0.19523728 -0.12964082 -0.08311344 0.2962421 -0.1632584 0.13912843 0.1489897 -0.14028428 -0.09668278 -0.16314267 -0.14196382 0.15665673 0.043306876 -0.10409803 0.06161122
year -0.11625503 0.06580436 -0.043075573 0.018306065 0.18617113 -0.10178692 0.10535372 0.12863357 -0.11678187 -0.00655238 0.011029738 -0.07572444 0.08140814 0.035184536 -0.10044687 0.08883978
job -0.053932734 0.14068514 0.012312151 -0.017137503 0.17472516 -0.03711105 0.08916139 0.014842216 0.0019397626 -0.020099694 -0.15372206 -0.055189032 -0.020717598 -0.041788414 -0.05425096 0.008488989
main 0.032019213 0.006653952 -0.03149457 0.07267483 0.089630686 -0.018000418 -0.062070563 0.040513694 -0.005897726 0.03863259 0.0013800953 0.017654696 -0.014210262 -0.057333548 0.053838264 -0.058689248
someone 0.12954551 0.0295747 0.09929646 0.11724511 0.06785423 0.06629021 -0.12945692 -0.14734101 0.1468149 0.16299579 -0.1088629 0.16794856 -0.09709207 -0.093394026 0.13351528 -0.110538475
together 0.034563825 0.14332324 0.05257831 0.02377911 0.121043295 -0.031425297 -0.031793363 -0.022391269 0.05168494 0.01690831 -0.22961211 0.0888636 0.019183101 -0.033767477 0.04807255 0.027389413
watched -0.02929103 0.052834142 -0.079030566 -0.12157323 -0.07371038 -0.007651216 0.06362515 0.014270529 -0.004085879 -0.024443002 0.07254804 -0.00811969 0.060918532 0.11273163 -0.039957933 0.09431892
play -0.03810738 0.086628415 0.027238647 0.03667159 0.074533865 -0.045517836 -0.025698924 0.034458466 0.025378114 0.04306497 -0.05879834 0.022158314 -0.018373381 -0.020355638 0.0035759986 -0.045620225
american -0.092733674 0.11703463 -0.07602067 0.01575294 0.18907729 -0.13501413 0.052371725 0.04674365 -0.06328113 -0.05924438 -0.096083336 -0.035356514 0.10104694 -0.007822924 -0.10869312 0.051127154
plays 0.050743673 -0.010863174 0.046031386 0.08919329 -0.018252734 0.031868123 -0.01600607 -0.10544527 0.03961609 0.08872332 -0.11133556 0.11777024 -0.031317215 -0.049367256 0.035421975 -0.085537694
1 0.027010908 0.18805479 0.020665918 0.08100993 0.09860035 0.024869556 -0.025545549 -0.027508585 0.01709101 0.0942987 -0.157651 0.116618246 -0.104656115 -0.13225421 0.096036874 -0.028526766
said 0.014604602 -0.0031975547 -0.016490363 0.02724343 0.0028544322 -0.05407273 0.047978114 -0.010104244 -0.009876961 0.037136964 0.019710504 -0.015479123 0.030744644 -0.024212753 -0.01819228 -0.019205434
effects 0.06702181 -0.005045093 0.03649954 0.0018923628 0.03298607 0.0021728654 -0.010339023 -0.052566957 0.017689481 0.05336244 -0.08121628 0.06548754 -0.082291484 -0.035665315 0.053990994 -0.055449575
later -0.006929508 0.2118696 -0.02735932 -0.094873704 0.13832021 -0.031885248 0.10780895 0.028240968 0.006578072 -0.009864848 -0.11084352 -0.065657996 0.028599227 0.04965645 -0.018391557 0.079946786
takes -0.021935556 0.086348034 0.043192238 0.043134782 0.08668128 0.028886523 -0.031184494 0.016853057 0.0030319288 0.0057865432 -0.106923476 0.07759302 -0.047847763 -0.0063223056 -0.020249672 -0.036932852
instead 0.11805492 0.17413765 0.14637043 0.04311241 0.11570246 0.023016265 -0.020817677 -0.1270837 0.0919756 0.11105534 -0.16173868 0.12899067 -0.09724576 -0.08623139 0.058035225 -0.029349837
seem 0.035141956 0.17546187 -0.012046893 0.01655012 0.091876715 -0.05833224 0.041458175 -0.010296673 0.0505664 -0.023217771 -0.090012126 0.02467276 0.03335827 -0.043556005 -0.017747998 0.038768753
beautiful -0.14158437 0.18883507 -0.1204128 -0.17078054 0.24587427 -0.18172106 0.19099064 0.14668116 -0.13141273 -0.0642783 -0.039801534 -0.14619052 0.10811658 0.14844562 -0.1676262 0.14357291
john -0.09080354 0.21612877 -0.10388367 -0.13359506 0.18102652 -0.13133168 0.1285736 0.017519943 -0.035493385 0.017044079 -0.18196952 -0.065163165 0.051701214 0.039930854 -0.063630626 0.12304115
himself -0.043584276 0.0005640584 -0.024120817 0.0076005426 0.07342263 -0.04320071 0.044416476 0.06107823 0.014786283 -0.047339037 0.031062653 0.0017982776 -0.009701528 0.017015142 -0.04819505 0.056180205
version -0.10566488 -0.011858226 -0.070459485 -0.072799526 0.052680872 -0.06411804 0.006087005 0.028628552 -0.06992321 -0.008243355 0.03036923 -0.021180844 0.062924 -0.005339304 -0.03477109 -0.0019078366
audience 0.004027282 -0.099042125 0.0049690134 0.07456311 -0.02822209 -0.021277357 -0.08548613 0.03162207 0.014437589 0.0041971244 0.08863825 0.00023207511 -0.024723602 0.004350628 0.0026945446 -0.05670978
high 0.010202907 0.14177975 0.00073606404 0.053984273 0.040110637 0.008551633 0.017686712 -0.047711093 0.052831396 0.02839498 -0.04524939 0.093026295 -0.035801973 -0.029560074 -0.009075391 -0.022290021
house -0.0049660075 0.005257852 -0.018032001 0.053855713 0.026368713 0.02992708 -0.0011310623 -0.030668195 -0.040414285 0.03157266 0.0125798425 -0.045377377 0.029935606 -0.014642193 0.010276941 -0.0039672
night -0.014028377 0.038367413 0.06438148 0.079880364 0.102083914 0.014726536 -0.05132263 -0.055327594 -0.0020700046 -0.0058490965 -0.008837188 -0.0146548245 0.0018277075 0.007945903 0.02030169 -0.013803913
during -0.005484813 0.06513089 0.038153637 0.06701546 0.0501337 0.02996563 -0.05249476 -0.041587163 0.04643468 0.04164696 -0.047744654 0.016947461 -0.047648635 -0.06725452 0.018379506 -0.023768231
everyone -0.0507334 0.017065587 0.028120616 -0.009520665 -0.0035424074 -0.069931135 0.025334688 0.04248711 0.010945765 -0.0452321 -0.043906134 -0.060092635 0.056824047 0.030345766 -0.061212763 0.03968373
left 0.10495093 -0.05278146 0.015268473 0.13434762 0.039196182 0.071666256 -0.07888394 -0.045180786 0.0659165 0.046735648 -0.036792766 0.09836971 -0.080944136 -0.09762619 0.06832158 -0.107538745
special -0.08966731 0.07340636 0.0071335696 -0.057306577 0.094940916 -0.029939748 0.08129925 0.035018977 -0.028385347 0.007855586 -0.04017746 -0.011340168 0.06837641 0.006387603 0.0074177827 0.03270453
seeing -0.024281561 0.18173635 -0.03070616 -0.0039235707 0.14395127 0.0032222676 0.026834257 -0.042641584 0.0077068093 0.057124287 -0.15221554 0.0035829989 -0.001056286 -0.061382078 -0.004942654 -0.04954207
half -0.0015463157 0.10642106 0.05067221 0.030946996 -0.00060408236 0.0065343645 0.019041305 -0.069489166 0.082865104 0.061059307 -0.13915847 0.119152494 -0.03732986 -0.052795734 0.056441464 -0.10576816
excellent -0.117716216 -0.016134828 -0.08097524 -0.041127417 0.09515995 -0.10873679 0.06631992 0.07174969 -0.086726196 -0.03835121 0.022015272 -0.05771587 0.11367032 0.07248839 -0.08304347 0.09021287
wife -0.06155001 0.03410033 -0.026440684 -0.026062643 0.15289325 -0.06290455 -0.020853294 0.08622523 -0.09333835 -0.07349525 0.021455303 -0.06916024 0.0047830543 0.00915343 -0.09357449 0.029800937
star -0.10357546 0.0725778 -0.10198297 -0.06787926 0.12731934 -0.10626245 0.07042846 0.06752902 -0.054435827 -0.059528325 -0.044964463 -0.021898836 0.07077938 0.02945 -0.029634563 0.05392904
shot -0.010296771 -0.00470782 -0.02358942 0.056242265 0.1699816 -0.07626437 0.006173111 0.024457332 0.010325443 -0.034169618 -0.027147967 0.038996525 0.02347104 0.02730904 -0.036545873 0.007899756
war -0.09719601 0.0981741 -0.08641293 0.0037716618 0.10959602 -0.036783062 0.03554908 0.00866512 -0.07655012 0.019118056 -0.14052293 -0.0033895047 0.070236586 0.0038037426 -0.022671623 0.044653006
idea -0.060293194 0.13051368 -0.084214695 -0.09895201 0.11329376 -0.078424394 0.10014787 0.03692029 -0.09751635 -0.023260726 -0.0021435956 -0.14362352 0.08163024 0.112209715 -0.085544 0.11072797
nice -0.05836075 0.06285776 -0.050444376 -0.017938055 0.21269035 -0.10906246 0.016912492 0.05318927 -0.058035143 -0.07929468 0.023823842 -0.05237594 0.034341004 0.04761909 -0.07468754 0.10328301
black -0.029963342 0.013496726 0.005409117 0.011465191 0.022393432 0.019348409 0.03563309 -0.008766712 0.0180974 -0.0187997 -0.027360452 0.013218975 0.009073217 -0.03558346 -0.03712125 0.008532006
less 0.0039105727 0.06375477 -0.018728497 -0.016408972 0.18219489 -0.040926564 -0.03159205 -0.03661051 0.051123723 -0.023428906 -0.07457992 0.035518106 -0.053877387 0.020283693 -0.027225053 -0.0020697357
mind -0.21378903 -0.018958064 -0.13660675 -0.19297743 0.15844023 -0.16596821 0.17248236 0.18249692 -0.18765807 -0.16497867 0.17224106 -0.22922662 0.22730018 0.13966648 -0.16409634 0.14022863
simply 0.0327798 0.023778582 0.030948581 -0.03282071 -0.0073441844 0.012778183 -0.043206748 -0.04350316 -0.0030550703 0.035103455 -0.017497953 0.002180166 -0.043574207 -0.029068077 0.040047087 0.027278675
read -0.011163388 -0.00330437 0.0034916955 0.007361921 0.022472769 0.045270167 0.0084857205 0.03439314 0.022493433 -0.016295519 -0.046064623 0.040939253 0.009392867 -0.059422653 0.0432752 -0.038240083
second 0.020297887 -0.026014332 -2.8584262e-05 0.083362535 0.042280372 -0.025233272 -0.059085757 -0.055720568 -0.010514677 -0.011451846 0.066789776 -0.005181212 -0.04867342 -0.013818574 0.05096315 -0.04132114
else 0.0022426087 -0.02267453 0.07250686 -0.0089106355 0.052221313 0.0073923906 -0.023563096 0.00092425867 -0.022303348 0.008790432 0.010283502 -0.0022950612 -0.028747862 -0.02784196 -0.015052429 0.01043741
you're -0.0010760898 0.020373795 0.0243426 -0.010938439 0.028019538 0.07348938 -0.06535869 -0.01969264 0.025392514 0.093283065 -0.01732684 0.060782343 -0.01599248 -0.053536568 0.069680944 -0.08586339
father -0.008263893 0.06976674 -0.025828132 0.018012196 0.06826572 -0.038758077 0.041148994 0.02146178 0.0056270063 0.01546691 -0.12613797 0.017676735 0.03541909 0.012891512 -0.03675706 -0.0077325986
fan -0.013613496 0.004443131 -0.046117224 -0.020083638 0.13910086 -0.03091565 0.03567642 0.07031997 -0.020667879 0.005547708 0.0021946582 -0.07920488 0.017491905 0.0036870174 -0.03129342 -0.011689958
poor -0.010842775 0.013507988 0.07212778 0.0777144 0.05364897 0.05185853 -0.016407914 0.0047295503 0.022198059 0.018500192 0.00200233 -0.0037076029 0.0015753446 -0.00972177 0.010141484 -0.031206025
help 0.021933183 -0.013383523 -0.046782933 -0.0034260743 0.006367617 0.02223008 -0.038683537 -0.037355363 0.01871569 -0.005863141 -0.024689686 0.01663854 -0.039068434 0.03638853 0.030625014 -0.031774525
completely 0.025749424 -0.0048505347 0.09274279 0.10899074 0.04043815 0.028802719 -0.041275676 -0.114750504 0.048184406 0.10678475 0.0056702606 0.0810174 -0.0931589 -0.07877954 0.06277882 -0.042325977
death -0.007709862 0.11034422 -0.04814211 -0.019028192 0.13302839 -0.034003746 0.03507935 0.016776811 -0.033671387 -0.044863064 -0.04625917 -0.016425073 -0.010049767 0.03985378 -0.022483792 0.06833239
3 0.13043045 0.25524384 0.18601985 0.08446978 -0.10469584 0.12780008 0.01886018 -0.16238637 0.19241628 0.17561159 -0.13396508 0.15884249 -0.19616829 -0.17465916 0.1489837 -0.17759398
used 0.038435306 0.069252364 0.08834448 0.07684098 -0.0076961685 0.0356292 -0.025987877 -0.06389905 0.071503334 0.048939224 -0.052902825 0.03658583 -0.100560315 -0.083555974 0.047207706 0.005837498
home -0.12595135 0.03131852 -0.074326165 0.018235995 0.227708 -0.09311037 0.06299802 0.117281206 -0.071713574 -0.11750978 0.009347829 -0.0873234 0.11265445 0.044937134 -0.10068066 0.0645233
either 0.059365224 -0.0005722862 -0.008640296 0.0062249876 -0.0021607936 0.042076413 -0.04474483 -0.07452612 0.03798093 0.067564726 -0.061636448 0.0138153145 -0.08725528 -0.035837937 0.07683336 -0.000549812
short -0.0057871817 0.118473545 -0.012721912 -0.005970658 0.10815422 0.010722016 -0.020713642 0.021708896 -0.000959985 -0.020584742 -0.08685989 -0.00081628974 -0.023556968 0.0065048155 0.011840471 0.014650848
line 0.053180497 -0.006689857 -0.028373405 0.00024748888 -0.04435176 0.036010314 -0.018757047 0.0079254955 -0.012259943 0.025514653 -0.020886295 0.014824486 0.01978619 -0.019612085 0.050674237 -0.05758505
given -0.10925591 0.19508527 -0.08044226 -0.10846301 0.2273911 -0.14214118 0.15811746 0.117293976 -0.12246158 -0.059581272 -0.097566895 -0.11312126 0.10566942 0.07294737 -0.11937778 0.13956776
men 0.01269279 -0.027905798 0.02560077 -0.024879795 0.016019246 -0.00072183146 -0.025073076 0.015056578 -0.009237948 -0.012659078 -0.025066763 0.021087902 0.0025341713 0.008539911 0.021051448 -0.038479242
top -0.15908025 0.1988473 -0.12396327 -0.16553915 0.21503946 -0.17454915 0.18205129 0.16838856 -0.18631668 -0.15289104 -0.10715713 -0.20685947 0.12618439 0.10835357 -0.21732707 0.23052356
dead 0.110866226 0.048130505 0.07663414 0.006811948 0.030190483 0.033691272 -0.016320633 -0.07754962 0.08616002 0.030645452 -0.004135309 0.083411746 -0.08181324 -0.052332334 0.059852794 -0.017714178
budget 0.054643687 0.06653295 0.05638053 0.11155682 0.076558456 0.043304443 -0.028769607 -0.069577076 0.02694314 0.037390035 -0.0311445 0.08668308 -0.07350565 -0.036828704 0.06095781 -0.08914731
try 0.052485097 0.03415793 0.07022754 0.029496716 0.04081653 0.014283853 -0.057225578 -0.07560735 0.0493648 0.026905652 0.008716317 0.068717904 -0.0807342 -0.025108123 0.0683296 -0.08618247
performances 0.0063033258 0.14250322 -0.013303963 -0.044144817 0.023883602 0.0046318206 0.03370559 -0.04279982 -0.0066454043 0.032731477 -0.112038545 0.010565502 -0.02227574 0.026553612 -0.027055575 0.047801964
wrong -0.0214044 -0.0054519414 -0.002846343 0.037489675 -0.05268386 0.00033931743 0.00403346 -0.03329248 0.01534284 0.05020952 0.024947463 0.00033111 -0.009223979 0.03323603 -0.027669119 -0.02861604
classic -0.19847374 0.033361305 -0.12881202 -0.086071804 0.14099573 -0.100037895 0.11305344 0.09708243 -0.1033135 -0.052047107 -0.026471125 -0.14354116 0.072689965 0.08718925 -0.11583994 0.11978745
boring 0.00086774025 -0.06435769 0.052612826 0.07719559 0.016390992 0.06705879 -0.072930224 -0.028308941 0.04865176 0.009397963 0.018152129 0.084119804 -0.0021997802 -0.05734337 0.07264431 -0.053267363
enjoy -0.113098 0.09749967 -0.10524851 -0.014760615 0.21442892 -0.12955207 0.07021609 0.110550016 -0.14074792 -0.024630636 -0.06446404 -0.111198135 0.06049097 0.11005554 -0.14478415 0.14125772
need 0.047003195 0.051920515 0.040711526 0.08799366 0.059177976 0.028525647 0.0014290517 -0.08193213 0.03802153 0.006587654 -0.011815892 0.013454324 -0.002980336 -0.01461937 0.062213924 -0.002115077
rest 0.026918089 -0.073596016 0.08418845 0.041215982 -0.08648398 0.06685605 -0.08608734 -0.06579401 0.08326363 0.045766804 0.03416649 0.0059659923 -0.07640431 -0.05381193 0.047015276 -0.0587727
use -0.012163629 -0.05184813 0.016916128 0.032462526 0.06802736 0.02083798 -0.008075786 -0.06418948 0.024712322 0.04033478 -0.04457236 0.058486916 0.0010770219 -0.030282727 0.014462522 -0.0017906777
kids -0.026638925 -0.052698255 0.027870797 0.030211778 0.16448869 -0.0142046865 -0.020754835 0.0107522905 -0.019582525 -0.007966041 0.079461254 -0.022670679 0.036319375 0.016393332 -0.015261364 -0.020538256
hollywood 0.041293565 0.08608514 0.046329077 0.05428819 0.051275734 0.060279682 -0.025013318 0.002508534 -0.007493603 -0.009898833 -0.0655249 0.018161945 -0.016742848 -0.038169693 0.02299755 0.004076654
low -0.049951773 -0.09053388 -0.028265579 0.010642348 0.0931978 -0.00055957725 -0.027645158 0.012040032 -0.04404755 -0.045160446 0.05570456 -0.00482304 -0.00792712 0.036342174 0.050205316 -0.041431844
production -0.03453363 0.10872199 0.016973907 0.025557375 0.17921954 -0.011405856 0.028837102 0.026890742 0.031417098 -0.009779608 -0.07395856 0.009779749 0.03518098 -0.016031295 0.035460256 0.047716293
until -0.0020062365 -0.119450256 -0.0036403367 0.038756613 0.1240036 -0.07654665 0.024050962 0.017896507 0.0008145394 -0.08793544 0.019009478 -0.03857449 0.08937974 -0.03533789 -0.020300334 0.048369743
along -0.09637929 0.07693803 -0.09572254 -0.062264014 0.10543762 -0.043955516 0.0818635 0.015749086 -0.030277902 -0.03907902 -0.06888572 -0.053473447 0.011390734 0.084522806 -0.09988469 0.029039029
full -3.6396857e-05 0.08050458 -0.020389903 0.05779589 0.13787761 0.013226186 -0.006825615 -0.010800121 0.068929695 0.019768389 -0.19409683 0.003054869 -0.00056404405 -0.059230264 0.005235724 -0.019155428
friends 0.06529312 0.0830413 0.120351285 0.02787735 0.059481688 0.037905317 -0.029251294 -0.123949245 0.07966405 0.08222917 -0.1552338 0.101003125 -0.08373045 -0.022765845 0.06144542 -0.098771624
camera -0.014736729 0.044609554 -0.042271722 -0.033233605 0.11491092 -0.033972364 -0.031898744 0.0029602763 -0.033919677 0.038040064 -0.08627675 -0.056705307 0.044945564 -0.018377744 -0.014242814 -0.0007667189
truly 0.043941844 0.2737281 0.049498312 -0.057752024 0.06947254 0.018296579 0.093472995 -0.09871298 0.066368945 0.09281829 -0.17749102 0.042025592 -0.017315486 -0.024751598 0.05233893 -0.0008932906
women 0.11405746 0.066381484 0.094971575 0.10487988 -0.012438813 0.1179583 -0.03710541 -0.11889111 0.10504357 0.07608761 -0.07211271 0.10134209 -0.10052738 -0.038328618 0.10757626 -0.081409864
awful 0.0626558 -0.00038787164 0.039043345 0.051312715 -0.023015436 0.05332009 -0.0073164636 -0.0830793 0.07502129 0.076390184 -0.012872091 0.088472545 -0.1118138 -0.030509902 0.08467901 -0.08236618
video -0.026164997 0.03398039 -0.039438307 0.04316814 0.114223935 -0.030736037 0.0032599492 0.021837048 -0.0035151835 -0.031011082 -0.11110159 -0.051529724 0.05115851 -0.016176011 -0.023027293 0.034286506
next -0.08027444 0.043251995 -0.09650886 -0.016518751 0.1252411 -0.081123635 0.038072508 0.036289487 -0.024525583 -0.09656404 0.011760265 -0.060214832 0.060069267 0.028995877 -0.0007231829 0.092316315
tell -0.035639457 0.07679827 0.0055872486 0.035319075 0.093976006 -0.0016673171 -0.023737755 -0.022772249 0.03187484 0.00087854837 -0.043766424 0.036372926 0.009281042 -0.037983216 -0.01170646 0.018981762
remember -0.023209698 0.08220181 -0.011763758 -0.0012058741 0.093886696 -0.0019225855 0.05389339 -0.019667462 -0.022659471 0.013930862 -0.014941931 -0.058477774 -0.026753856 -0.051120777 0.0010786853 0.021311173
couple -0.027932255 -0.05981746 -0.04186815 -0.017093346 0.06907584 -0.03739895 0.012691999 0.07194546 -0.037803702 -0.06931668 0.06954575 -0.05007872 0.0214285 0.008953311 0.0074776923 0.024835216
stupid 0.102240786 0.009302769 0.04558452 0.02359631 -0.008249482 0.037833 -0.022297336 -0.10484631 0.09758462 0.05269693 -0.054408118 0.11339972 -0.068114445 -0.09127189 0.06476442 -0.091535814
start 0.050847355 0.10588141 0.012566372 0.009017623 -0.09673418 0.042094044 0.002313836 -0.038301818 -0.002685122 -0.006540221 0.016298212 -0.020727884 0.020338101 -0.004297745 -0.03637354 0.015914328
stars 0.0073000365 0.17473313 -0.007841283 0.09772799 0.19902419 0.017438173 0.035606652 -0.030595228 0.047434997 0.09819329 -0.28892422 0.070041396 0.003225889 -0.08745017 -0.01074613 -0.0033146748
perhaps -0.05844886 0.09532383 -0.07279426 -0.008042656 0.090764195 -0.103972875 0.07885104 0.008429583 -0.058887664 -0.049184565 -0.047693934 -0.012637058 0.049710564 0.05165006 -0.011648689 0.023584181
sex -0.050652932 -0.05315208 -0.06163532 0.028038673 0.08755829 -0.08367927 0.0014040193 0.06448291 -0.0024077622 0.0028009238 0.017279832 -0.07403972 0.0049360795 -0.01650401 -0.008625714 -0.026737731
mean 0.12184317 0.033053003 0.05400094 0.010991509 -0.07320381 0.09092744 -0.009149186 -0.059901815 0.06674844 0.038131855 -0.050639305 0.13928966 -0.11467773 -0.118918166 0.07400751 -0.12294323
came 0.049872607 0.052392863 0.045768887 0.02788433 0.025253907 -0.01404127 -0.055655386 -0.043071438 0.06888284 -5.5690834e-05 -0.07720942 0.062041335 -0.06013934 -0.0129630705 0.023726743 0.033061836
recommend -0.09274948 0.08796566 -0.11880789 -0.12570126 0.15770638 -0.110347725 0.13608773 0.05716122 -0.0400013 -0.027894968 -0.056978945 -0.028172236 0.09131269 0.04427862 -0.08471968 0.13173851
let -0.027903754 -0.050295252 0.027928265 0.011080043 0.0621316 0.023059435 -0.022527048 -0.026266174 -0.0058635687 0.059371512 -0.0077865175 0.027038457 -0.06962902 -0.0368224 0.0038997347 -0.03953083
moments 0.015134546 0.08564532 0.021156758 0.097529806 0.14124759 0.030452337 0.029361552 0.001491434 0.03155486 0.039601374 -0.17352144 0.011973391 -0.005880313 0.003633731 -0.04499898 -0.05151642
wonderful -0.0965721 0.0515979 -0.10511554 -0.061856903 0.1875558 -0.09466162 0.07908592 0.073625706 -0.069165565 -0.13594356 -0.025188822 -0.08510825 0.07514259 0.07623055 -0.0986211 0.1395865
episode 0.038554393 0.04746375 0.07583807 0.07465961 0.05024841 0.07068584 -0.0011996896 -0.092248194 0.002785157 0.07744873 -0.045264527 0.053746305 -0.04332411 -0.026009334 -0.0028096824 -0.0038610802
understand 0.061685767 -0.030946534 0.017036833 0.015178876 0.10325837 -0.01763166 -0.054763917 0.00905715 -0.01367122 0.061385497 -0.011706068 0.05324401 -0.04105804 0.007621951 0.03927275 0.021339431
small 0.101876445 0.0039105657 0.04356803 0.10527385 0.066471 0.038745806 -0.022514816 -0.09025764 0.10543884 0.080849 -0.09596036 0.061397143 -0.04003901 -0.12468548 0.083636954 -0.037048936
face -0.02619858 0.024078356 0.029864071 0.037889276 -0.02302995 -0.035769198 0.017333653 0.04133758 -0.00031108435 -0.026706193 0.037208654 -0.026293311 0.024747638 0.009224801 -0.048156105 0.04424773
terrible 0.0586503 0.08880561 0.14048664 0.12230975 0.009013065 0.09426042 0.024745991 -0.107385404 0.09201532 0.099964835 -0.17955492 0.08913459 -0.12321174 -0.16356625 0.10047514 -0.14435364
playing 0.018371703 -0.002429214 0.011169407 -0.04660852 0.05142957 -0.05592879 -0.0019296749 0.017670192 -0.040256348 -0.025122507 -0.023775417 0.025811527 0.049312044 -0.019626103 -0.04202506 0.0011105165
school 0.037209436 0.08773244 0.05189615 0.0071931044 -0.015609724 0.02738051 -0.029938646 -0.040101334 0.06684458 0.045042437 -0.12813948 0.10857071 -0.08760485 -0.1088127 0.079312176 -0.05879616
getting -0.08756968 0.0789025 0.02149102 -0.041894734 0.12961268 -0.025602719 0.034988455 0.08245862 -0.03492376 -0.051300272 -0.09291242 -0.0014504346 0.09103338 0.0035875784 -0.008604184 -0.00056384306
written 0.09174015 0.031422183 0.075609006 0.08230906 0.022839919 0.047531165 -0.1076726 -0.033644225 0.033181105 0.04409804 -0.07473899 0.085885584 -0.047395717 -0.08942022 0.08515194 -0.03289931
doing -0.094443135 0.12507294 -0.012247537 -0.00729239 0.10268798 -0.058927804 0.15051572 -0.025444178 0.01783135 0.067337945 -0.15580328 0.0023404313 -0.013343738 -0.0067335176 0.010903253 0.06928636
often -0.07998624 0.090550005 -0.08387663 -0.13468023 0.2058958 -0.12570195 0.08873294 0.13079412 -0.06925269 -0.032042403 0.038755782 -0.07039247 0.11709766 0.03768141 -0.13808809 0.052108105
keep 0.03761679 0.02806615 -0.008991752 0.02790163 0.06445517 -0.0069678645 0.0016995745 0.017091995 0.0048921187 0.02366236 -0.07757962 0.03886317 0.005450932 0.024125105 0.029386219 0.032186016
early 0.014750323 0.08456177 -0.015273759 0.033958398 0.034145463 0.0034914853 -0.008079071 0.0026535713 0.044211373 -0.019149961 -0.023602456 -0.0133802295 -0.041260432 0.043941468 -0.014921704 0.014772056
name 0.07481502 0.07349968 0.08530415 0.087539226 0.08604508 0.008958223 -0.023391506 -0.04732511 0.07031424 0.018215641 -0.08104355 0.027751813 -0.017743709 -0.102299914 -0.0019796258 -0.016674224
perfect -0.057918712 0.15685172 -0.021279361 -0.04810104 0.074630365 -0.051016364 0.07805591 0.026294593 -0.03416884 -0.02828177 -0.09042002 -0.07427066 0.060620006 -0.0054778713 -0.032012172 0.09054796
style -0.12992662 0.16426273 -0.09251161 -0.0063651283 0.19831519 -0.11036106 0.08549553 0.13337322 -0.046426628 -0.09478299 -0.15265971 -0.05844539 0.035334907 0.087261096 -0.12301887 0.05593864
human -0.08976806 0.08413152 -0.043713853 -0.023559846 0.18458842 -0.08911745 0.07181828 0.072120376 0.008847477 -0.0033122099 -0.030988585 -0.052013196 0.020554414 -0.03629774 -0.045430508 0.02928998
definitely -0.12947004 0.28115723 -0.020748235 -0.10024483 0.15206385 -0.12470253 0.079918705 0.02677839 -0.07567371 -0.05112071 -0.2257432 -0.09084111 0.063123554 0.03691649 -0.02732102 0.090699084
gives -0.065552875 0.054836232 -0.08675864 -0.0065292534 0.09213334 -0.022206757 0.022163725 0.053234767 -0.02278345 -0.01855502 0.040097885 -0.062592275 0.06327913 0.031558655 -0.006653245 0.099473044
others -0.015791198 0.19066508 0.019948004 0.044678334 0.11372921 0.020492472 0.094600655 -0.08364231 0.06784293 0.02852723 -0.19746932 0.027801534 -0.06808637 0.005049534 0.049811836 -0.020863695
itself 0.110260144 0.041179575 0.09348668 0.07370279 -0.017558582 0.08979847 0.004002723 -0.08296944 0.07280688 0.12032089 -0.08434049 0.06660858 -0.11730339 -0.09005035 0.072755404 -0.03994605
lines 0.009248414 0.13207129 0.106073216 0.006772422 0.06509648 -0.0032722915 0.009426741 -0.09930237 0.03678621 0.07421599 -0.069503404 0.017079908 -0.016751194 -0.03309531 0.016402718 -0.05332446
live -0.086926796 0.10119789 -0.07483646 -0.0019624245 0.0441047 -0.0783611 0.10261042 0.0025437644 -0.059228387 0.0025337734 -0.028893098 -0.07428839 0.019581888 0.06845618 -0.08235646 0.024351241
become -0.013096842 -0.03618593 -0.027254257 -0.049194317 -0.09725241 -0.018071257 -0.012220626 0.03063011 -0.010574504 0.010608013 0.14393757 -0.038946237 -0.019420283 -0.0153526375 -0.005182892 0.061399657
dialogue 0.042932197 0.024643889 0.05830633 0.020527821 0.07542612 0.053642105 -0.012733978 -0.047530577 -0.01727834 -0.007987581 -0.06172794 0.038150586 -0.03498478 -0.010685695 -0.015131993 -0.014635317
person -0.04748678 0.021261416 -0.02321043 -0.06083596 0.005957374 0.020373533 -0.006915535 0.0074352915 -0.033993214 -0.066754624 -0.03768551 -0.0059735677 0.070741445 0.02683377 -0.018586133 0.004309716
lost -0.04825333 -0.025748478 0.012254115 0.038164202 -0.07065581 0.045990024 -0.06985432 -0.011639773 -0.006122496 0.008404864 -0.011519686 0.028460206 -0.008360725 -0.06574949 0.02622936 0.029073576
finally -0.017495703 -0.021717906 -0.01628216 0.049205355 -0.041393273 0.06976797 -0.04535035 -0.050571628 0.064967155 0.05298039 0.030363481 -0.02853722 -0.018463194 0.0054692356 0.03217376 -0.0439283
piece 0.16086876 0.15073994 0.13096243 0.11816541 0.1044634 0.07932878 -0.07130047 -0.15886036 0.092150345 0.16053924 -0.1795773 0.15380011 -0.11020439 -0.16547967 0.09128477 -0.18326554
head 0.07350147 0.08972555 0.13377528 0.12868483 0.0484445 0.06257916 0.008970683 -0.07432513 0.07625566 0.12868863 -0.20480235 0.14942694 -0.16365173 -0.08939589 0.083871454 -0.09686837
case 0.06766194 0.11704374 0.12180352 0.036296032 0.081161685 0.052104175 0.02259792 -0.09751497 0.11516561 0.109889865 -0.090167135 0.046613026 -0.018143829 -0.08896877 0.04471647 -0.02359132
felt -0.0608012 0.021939775 0.03560815 -0.052610736 0.036888253 -0.00077740964 0.027593512 0.002778422 -0.022597393 -0.023993766 -0.031112349 -0.0266295 0.02696371 -0.02921136 0.03261046 0.05963885
yes -0.02513751 0.08989564 -0.03198551 -0.0017633354 0.081126034 0.008872584 0.0009464044 0.01207777 0.02659477 -0.032159317 -0.081377484 -0.058993068 0.021156797 0.008521598 -0.00053166645 0.043690145
liked -0.08321554 0.17562896 -0.09104982 -0.10306063 0.07120074 -0.09692979 0.075719446 0.06687535 -0.048805054 -0.117907025 -0.080742046 -0.079743594 0.09378037 0.12934357 -0.1323242 0.12286149
supposed 0.04634374 0.026373629 0.10816194 0.08938942 -0.011349643 0.08855926 -0.03700864 -0.07421113 0.12356332 0.023331536 -0.09950839 0.13234445 -0.037261087 -0.12067834 0.018790033 -0.056795664
title 0.04951108 -0.040222406 0.05400444 0.032379277 0.12545542 0.058229428 -0.047632024 0.030066177 0.058586147 -0.03966803 -0.09526054 0.06378155 -0.06318583 -0.022429908 -0.01446181 -0.018421138
couldn't 0.057982083 0.039144356 0.05285442 0.015148191 -0.04986556 0.08215724 -0.04299257 -0.021793745 0.041877672 0.013786052 -0.00037707505 0.05040785 -0.076028675 -0.0035060295 0.021957144 -0.03147112
absolutely -0.05633833 0.19844033 -0.0011820748 -0.004845011 0.20889658 -0.085152715 0.056614548 0.07830883 -0.03682064 0.019312361 -0.113324 0.0099193165 0.070415996 0.01730855 -0.05208584 0.0046797814
white 0.023742108 0.028656036 0.0061248834 0.035697784 -0.035044916 -0.035700172 -0.0016184449 0.027571317 0.003178732 -0.026482023 -0.0064070504 0.028270047 0.0065961317 0.01774207 -0.040126387 -0.017574456
against -0.10542313 0.08250244 -0.08113529 -0.05530669 0.08253776 -0.07861479 0.06256387 0.002448811 -0.06696703 0.016661717 0.007313251 -0.06138039 0.0135504315 0.059123665 -0.083118185 0.034060694
boy -0.03257145 0.11317799 0.017909128 -0.04314288 0.10053887 -0.08375779 0.013053389 -0.03453181 0.014068899 -0.02546843 -0.029480072 0.01784051 0.06853001 -0.020165969 0.016291197 -0.017204333
picture -0.031901527 0.15120275 0.015770594 -0.08323035 0.08191414 -0.048103873 0.10793561 0.0016896161 -0.031972874 -0.06443949 -0.058198545 -0.08723436 0.026563063 0.11261088 -0.07932881 0.05159697
sort 0.017465975 -0.048925523 -0.060213458 0.007884753 0.021283617 0.011221439 0.01348016 -0.021662362 0.027932376 -0.022121206 0.08800464 -0.036381193 0.017113695 0.017999342 0.028701682 -0.030176107
worse -0.0042235986 -0.07842237 0.018176435 0.08257284 0.060059167 -0.0051054163 -0.06893022 -0.012775913 0.052983265 0.03201846 0.034852337 -0.0022485955 -0.033427596 -0.042102005 0.06909107 -0.086825974
certainly -0.04272912 0.049751803 -0.059269212 -0.058325037 0.14065449 -0.09131618 0.04476099 0.038438123 -0.097810894 -0.08277961 -0.083458565 -0.08483537 0.06963236 0.0050675855 -0.07326652 0.022017112
went 0.09429294 0.13204485 0.056835253 0.10709218 0.04961038 0.0872877 -0.05889946 -0.111489154 0.12619117 0.053628515 -0.08477753 0.15928505 -0.06574278 -0.11115651 0.04834265 -0.08517688
entire 0.008924876 -0.04273572 0.018919863 0.10589271 -0.026218642 0.017411571 -0.09201401 -0.10025557 0.074651904 0.09436214 0.009848016 0.03652815 -0.10958017 -0.08016249 0.06489868 -0.07659675
waste 0.20626955 0.16633044 0.17339487 0.24889475 0.1416034 0.121239975 -0.09133684 -0.14014126 0.14544663 0.14586844 -0.21333003 0.23442705 -0.20727721 -0.15958878 0.120800085 -0.22560951
cinema -0.0035993706 0.06584137 0.01102744 0.004368595 0.027978756 0.05036434 0.059774753 0.027933974 0.030752245 0.06305724 0.0075810007 -0.00037517428 0.023932476 0.007149961 -0.038037088 -0.0036756604
problem 0.019738853 -0.04830849 0.06225738 0.04273823 -0.058279213 0.03233483 0.026684977 0.018735759 0.04408762 -0.015005049 0.011964834 0.022320725 0.019662218 0.024215765 0.031566776 0.0063800383
hope -0.09266169 0.13668987 0.031616125 0.026087463 0.18104735 -0.019102804 0.045706287 0.015054677 0.019325754 -0.041333467 -0.14599274 -0.0314955 0.03557575 0.029015267 -0.05414217 0.02103288
entertaining 0.01664302 0.08237348 0.050533686 0.06473467 0.1227914 -0.055088237 0.033433642 -0.048478093 0.052946426 -0.00068128 -0.15979654 0.005236309 0.029322958 -0.030152557 -0.009276151 -0.019203585
she's 0.022480283 0.050147895 0.011842149 -0.0008011483 0.049206972 0.057516225 -0.04239056 -0.088842295 0.04791496 0.04829398 -0.047232125 0.101177916 -0.055636793 -0.009259492 0.006123704 -0.028762784
mr -0.022417825 0.017660763 -0.054243766 0.027571242 -0.023942536 -0.04599666 0.012565502 0.04929444 -0.013364004 -0.05683237 -0.0027631565 -0.0293549 -0.0006960999 0.027702939 0.009864774 -0.005977664
overall -0.0275175 0.15552986 0.016223427 -0.012356879 0.08956242 0.0017441167 0.0308265 -0.005720091 -0.016796531 -0.0027399617 -0.17475161 0.009519485 -0.041172963 -0.006860436 0.056181636 -0.043638036
evil 0.032955457 0.02303656 -0.00030743092 -0.0035422216 0.02302683 0.022009537 -0.034493517 -0.021947198 0.032296326 -0.0038013007 -0.04754766 -0.023838239 -0.056001216 -0.0020516722 -0.01609064 -0.0026006943
called 0.06508667 0.04509445 0.06331786 0.008440557 0.007920772 0.00060165237 -0.052986737 -0.09399899 0.03957675 0.028183538 -0.028131682 0.026502546 -0.018731257 -0.027086068 0.089960955 0.009747847
loved 0.02657057 0.1301033 0.04298665 0.06956008 0.09521897 0.056742907 -0.057956655 -0.06144148 0.04310143 0.090806946 -0.10021032 0.0778601 -0.11344676 -0.07725857 0.08325136 -0.10683777
based 0.03500971 0.1636843 0.0013466885 0.017988345 0.03539517 0.034597788 -0.004838873 -0.06630857 0.08095552 0.093908586 -0.08224925 0.046174135 0.001888105 0.0148038175 0.015323351 -0.005980606
oh 0.011118396 -0.053476196 0.0680151 0.07152807 0.034587167 0.006913961 -0.07493824 -0.072561264 0.08185975 0.016486691 0.021370117 0.032777052 -0.037969057 -0.06173018 0.063325554 -0.068613864
several -0.012425843 0.06895006 0.036941484 0.021768 0.10171717 0.038273502 -0.041364543 -0.030571952 -0.025086602 -0.025413452 -0.097106345 0.061159927 -0.06841761 0.04233902 0.032609843 -0.011295586
fans 0.007545358 0.20642631 0.029120158 -0.098655805 0.04063145 -0.024703868 0.068828456 -0.022472503 0.048891403 0.024523847 -0.036119092 0.055323288 -0.0008713172 0.024976486 -0.016037406 0.031080253
mother -0.059371162 -0.038514737 -0.006214049 -0.017821217 0.05545094 -0.017593095 0.08078435 0.093787014 -0.0795724 -0.08879142 0.07100648 -0.0706844 0.035503566 0.060329612 -0.037261065 0.02721114
drama -0.015042525 0.06832994 -0.011772284 0.03662156 0.00867265 0.048083134 -0.0158354 0.020744776 0.020337652 0.020314397 0.016992768 0.04045673 -0.020551266 -0.037552096 0.003198011 -0.0614478
beginning -0.00629593 -0.0015879567 -0.014219931 -0.055288337 0.0028106798 -0.08328317 0.08153245 0.05580503 -0.057392735 -0.027556296 0.023034511 -0.1011499 0.10030916 0.018790478 -0.07813807 0.043572254
killer -0.00627849 -0.08561722 0.019159934 0.010414941 -0.04352926 0.039342325 -0.039537765 -0.07318029 0.07499202 0.016467035 0.027553836 0.002774409 -0.02980986 -0.038450424 0.038698122 -0.06966486
lives 0.039008882 0.16925365 0.03200974 0.016439889 0.15277554 -0.00026416947 -0.032397967 -0.06980527 0.096582964 0.119403146 -0.19723214 0.03269428 -0.07400783 -0.06690181 0.07055823 -0.0083987005
5 -0.11662353 0.11491229 -0.1344347 -0.1093628 0.22683275 -0.18355083 0.17098103 0.10522875 -0.07810974 -0.064242505 -0.08666233 -0.15011133 0.15671474 0.08303324 -0.09793935 0.16167867
direction 0.0679172 0.06405346 0.032145947 -0.054592643 -0.053568102 0.060055885 0.009361708 -0.04454338 0.060621787 0.021651734 -0.06883651 -0.0039909612 0.0018008862 -0.015701318 0.021428324 -0.04505352
care 0.026056707 0.04528526 0.052841157 0.09289445 0.08220685 0.053609017 -0.018311579 -0.03812014 0.065583944 0.03419123 -0.077810585 0.1107457 -0.050365377 -0.062195044 0.06541117 -0.091236725
already 0.024545496 0.114022866 -0.027394202 0.026450174 0.101169616 -0.04358445 0.003308555 -0.04711323 0.044698447 -0.003823849 -0.069494694 0.014941332 -0.064720206 -0.0026132236 0.045445655 -0.019986158
becomes -0.10623502 0.13385038 -0.0999721 -0.115986206 0.11817991 -0.15150665 0.11136619 0.056927882 -0.10976135 -0.05948975 -0.1461398 -0.09702727 0.12920152 0.039992016 -0.12855335 0.12754776
laugh 0.023742553 -0.055459585 0.03854894 0.10180333 -0.07394955 0.051859844 -0.09924428 -0.07713844 0.07041817 0.059522346 0.0032267573 0.077590756 -0.031626675 -0.09113746 0.087149754 -0.027049918
example -0.056171775 0.047098342 -0.0022822274 -0.07347676 0.03243427 -0.05417369 0.05227905 0.058180902 -0.025524568 -0.017167509 -0.015071248 -0.002256863 0.050523542 0.016173357 -0.0024821872 0.074339196
friend -0.1383764 0.14020276 -0.1804353 -0.092950836 0.15314183 -0.21656832 0.11081769 0.18697256 -0.096070945 -0.12044249 -0.05042765 -0.1621428 0.11805696 0.11427149 -0.169556 0.109168455
dark 0.05638454 0.084820315 0.05209011 -0.025072359 0.017772226 -0.007960624 0.040600866 0.016038544 0.018079963 0.043747555 -0.04166183 -0.022026254 -0.046981078 0.03631798 0.0037148942 -0.037149545
despite 0.04414066 0.15698732 0.06535644 0.056608707 0.0879047 0.00066725345 -0.04189159 -0.01863936 0.06586683 0.028643861 -0.16083258 0.111578725 -0.05900325 -0.09594922 0.027428325 -0.0036143998
under -0.11495363 -0.019916084 -0.015682908 0.044755317 0.13002877 -0.055104468 0.036189217 0.11114543 -0.00905858 -0.09211539 0.026413096 -0.03757084 0.04217898 0.0051774364 -0.025939902 0.010892089
seemed 0.01470093 0.04869004 -0.008878164 0.009798897 -0.01927568 -0.008984935 0.03642957 0.06505635 0.012033596 -0.018534847 -0.0052935495 -0.057343293 0.06823011 -0.0062644356 -0.031925727 0.025906531
throughout 0.026842922 0.10663437 0.0082512405 -0.018399235 0.05506039 -0.05674657 0.026739204 -0.04666204 -0.0013870917 0.069864206 -0.12764445 0.03632363 -0.027768362 -0.0036841773 -0.0074425284 -0.046795253
4 0.13049604 0.14773792 0.18073367 0.08984576 -0.055821612 0.08741986 0.02459054 -0.11406736 0.12327362 0.16476618 -0.13307449 0.1854155 -0.15877056 -0.12782545 0.16017483 -0.1175786
turn 0.047086943 -0.06906034 0.05411157 0.11147405 -0.063169666 0.036986325 -0.078464486 -0.010133635 0.09313655 0.09821207 0.033724353 0.09189614 -0.050624564 -0.010582968 0.035792798 -0.09828922
unfortunately 0.021837413 -0.09060037 -0.007002829 0.05635094 -0.004732789 0.036049508 0.0019593078 0.0026572486 -0.038148712 -0.032621488 0.05042537 -0.010886929 0.021756127 0.008265379 -0.031447716 -0.01712636
wanted -0.0050470415 0.15595879 -0.0012507106 0.007847786 0.111393094 0.018585369 0.015874248 -0.094313115 0.011251153 0.074342474 -0.21963285 0.06465358 -0.060427617 -0.062102783 0.004848911 -0.09225111
i'd -0.02932582 -0.0029986652 -0.04169372 -0.0088007245 -0.002154 -0.0040514283 0.05712989 0.043908644 -0.07856256 0.013741844 0.018373955 -0.075663105 0.024618285 0.047545977 -0.05165879 0.0312571
 0.010547208 0.005268904 -0.0053127934 -0.0066757216 0.057141833 0.011598422 -0.041622326 0.06098623 0.005971057 0.03173231 -0.07510908 -0.031849574 -0.0031550818 0.004503218 -0.021012101 -0.02217023
children -0.017016541 -0.0507934 0.018436827 0.04212871 0.036384862 -0.074031405 0.008527708 0.008274557 -0.040378604 -0.023877911 0.029746901 -0.047661122 0.007686896 -0.033621885 -0.007970677 0.053716045
final -0.032394286 0.08522693 -0.08816264 -0.073953316 0.16039032 -0.07628264 0.1023294 -0.006505333 -0.045508742 -0.0631409 -0.059169617 -0.06671342 0.10182461 0.059764978 -0.044634093 0.034787912
fine -0.1686131 0.22472347 -0.15462872 -0.14893436 0.2728607 -0.18177375 0.14111495 0.19985777 -0.18104537 -0.1866171 -0.057435974 -0.2268213 0.22111668 0.15070502 -0.22320846 0.16023815
history 0.033442084 0.12235439 0.00670182 0.020763496 0.057692725 0.00797356 0.040921707 -0.056897864 -0.0142553905 0.01999322 -0.12668562 0.036501076 -0.03885011 -0.087441675 0.04099837 0.0034971947
amazing -0.12845376 0.08917615 -0.12402001 -0.0824999 0.2380617 -0.19797327 0.07490445 0.09291056 -0.10802895 -0.15340008 -0.046736382 -0.12908775 0.1781865 0.13508368 -0.14307764 0.11406132
sound 0.022784216 0.016842294 -0.0009333535 0.07269651 0.062079918 -0.03956076 -0.05761543 -0.013302003 0.011871194 -0.045398045 0.03559396 -0.0035704304 0.008216336 -0.05450592 -0.032677643 -0.00074583833
guess 0.12351672 0.04283225 0.049896255 0.099980116 -0.017233036 0.104816675 0.004001288 -0.0986082 0.1402481 0.15444401 -0.0450818 0.076692455 -0.09414337 -0.058173742 0.1155749 -0.11235925
heart -0.14999418 -0.033892184 -0.087028034 -0.105527095 0.1575242 -0.0954603 0.09826534 0.14330846 -0.1367942 -0.1362453 -0.02124122 -0.0846711 0.14494966 0.07915039 -0.13536446 0.12713537
totally 0.028015962 -0.0052154073 0.007586528 0.0822976 0.037304737 0.041005157 -0.027814971 -0.024404418 0.013606574 0.012989851 -0.06472455 0.05843424 -0.0655331 -0.10272901 0.006506362 -0.051911216
lead 0.022508198 0.06627177 -0.003630055 -0.049118042 0.06989151 -0.036748134 0.0008826352 -0.030703414 -0.042719223 -0.041979447 -0.016869392 0.01733732 0.03422857 -0.013986159 -0.01901784 -0.025469664
humor 0.019244602 0.030403232 -0.06425883 0.014070919 0.012510894 0.014807421 0.04051703 0.021641353 -0.03337233 -0.028174656 0.020020667 -0.040700525 -0.012337792 0.06684504 -0.07247572 -0.0050892285
writing 0.018786063 0.13267905 0.052311424 0.06582179 0.06290827 -0.015026844 -0.058831137 -0.047552787 0.028368892 0.07078368 -0.13754842 0.07235576 -0.019227058 -0.06650645 -0.0027771958 0.0009765704
michael 0.008872081 0.020698136 -0.05924447 -0.0600104 0.029950617 0.008214053 0.04606776 0.049223356 -0.009350955 -0.030877719 -0.020885853 -0.005403973 0.08359006 0.0792057 -0.0044145784 0.07631011
quality 0.0045830314 -0.01154332 0.023224508 0.063171096 0.13024175 -0.0074243294 -0.05451161 -0.005726585 -0.03791688 -0.02068938 -0.03343125 0.035805106 -0.007598682 -0.067344256 0.008185153 -0.036122493
you'll 0.0665764 0.02470695 0.032274127 0.060397476 0.07889248 0.050902836 -0.05138515 -0.008994509 0.0057448256 0.020434467 -0.12264498 0.03256925 -0.08270705 -0.03497382 0.023841364 -0.021610044
close -0.2046768 0.059027247 -0.21247156 -0.2133461 0.23773654 -0.20813468 0.15419485 0.16438825 -0.22901885 -0.13295689 0.020163333 -0.21734893 0.22535639 0.19108097 -0.22291662 0.14780393
son -0.033929948 0.053017315 -0.037838332 -0.021195697 0.033730846 -0.07312686 0.09461905 0.041609466 -0.068378806 -0.07259246 0.0056784097 -0.099066876 0.056213506 0.03600993 -0.024200061 0.040028654
guys -0.016705997 0.06137708 -0.040535342 -0.03635545 0.11614339 0.0024652805 0.011253461 0.03964719 -0.029115157 -0.012636896 -0.052437034 0.02419932 -0.0014456498 -0.028487539 0.019331703 0.018101934
wants 0.010137587 0.04028406 0.028401641 -0.013085578 0.030063726 -0.013383372 -0.020006828 -0.020180639 -0.025789823 -0.021097982 -0.023475664 0.031511392 0.024945803 0.0046019843 -0.0043096826 -0.029211994
works -0.1321037 0.028721076 -0.08542277 -0.04309651 0.123470336 -0.13240372 0.08550553 0.073042095 -0.129587 -0.05683786 -0.025210384 -0.08572569 0.052098095 0.029185608 -0.045614135 0.11728458
behind 0.070674315 0.10050447 0.037495296 0.04009608 0.11301517 0.034153737 0.007669842 -0.08990835 0.09106797 0.11081404 -0.14623587 0.018363819 -0.096151374 -0.03553821 0.028235136 -0.07543846
tries 0.0501456 0.038273532 0.07660294 0.09630153 0.06378422 0.056567583 -0.02316725 -0.06136485 0.019443188 0.032080643 -0.07619799 0.06047302 -0.0777716 -0.08555007 0.08603414 -0.01026398
art -0.0010657063 0.09689946 0.042741355 -0.022394894 -0.03541768 0.019670364 0.039524842 -0.093956105 0.06497596 0.10233384 -0.07097855 0.022819702 -0.024646755 0.025169399 -0.0061325105 -0.016983848
side -0.0035790855 0.08523382 -0.033181712 -0.04618738 0.05274761 -0.057101484 0.040803663 0.030878436 0.0021645993 0.033696435 -0.070719406 -0.015197988 0.043818854 0.03266962 -0.026321327 -0.005688799
game 0.0023696206 0.05978805 0.044823635 0.017771246 0.08795871 0.012238756 -0.020366073 -0.008623192 0.047226876 0.040139005 -0.049673323 0.07787627 0.0039667287 -0.033043053 -0.019762704 0.000119087636
past 0.03711679 -0.03403747 0.04651018 0.024189023 -0.052826487 -0.003244711 -0.06523199 -0.01282339 0.07260057 -0.008038416 0.0015284232 -0.0041192393 -0.047103077 -0.064454935 -0.02400294 -0.039458457
able -0.105486594 0.014855294 -0.09561279 -0.06142424 0.059381176 -0.052373935 0.13703768 0.056800984 -0.13408108 -0.05225716 0.023559978 -0.05536778 0.108669564 0.07584318 -0.073016904 0.094850585
b -0.05538671 0.014326071 -0.087592766 -0.093824446 0.15385415 -0.07585234 0.083827674 0.047751203 -0.055544324 -0.048976686 -0.030861488 -0.11257977 0.12668967 0.108405754 -0.054026444 0.077160425
days 0.013638147 -0.008881463 0.047588635 0.059458103 0.012055897 0.023297178 -0.03807633 -0.048752446 0.073357865 0.005771538 -0.035428226 -0.017854242 -0.015403662 -0.04766784 0.018989729 -0.046695285
