7973 16
. -0.08842021 -0.076979764 -0.1291261 -0.03967773 -0.06786867 -0.0960674 -0.09808566 -0.11204476 -0.11308864 -0.084544286 -0.08709945 -0.106235646 -0.1145675 -0.059573065 -0.104487896 -0.0906957
영화 -0.07377116 -0.0719173 -0.122645006 -0.10386837 -0.071336046 -0.099507 -0.090714745 -0.11355049 -0.11184232 0.18819197 -0.079168774 -0.10605546 -0.11575548 0.31372127 -0.09594097 -0.11248869
다 -0.07833186 -0.10644394 -0.12594378 -0.04824961 -0.06948092 -0.08182158 -0.086127095 -0.11209823 -0.11789213 -0.059729435 -0.09910792 -0.11495301 -0.117919885 0.07576267 -0.0931788 -0.10773072
고 -0.067012325 -0.10523383 -0.10934044 -0.06827018 -0.066628374 -0.082613714 -0.062971294 -0.10947224 -0.10476977 -0.01734416 -0.075503916 -0.1065604 -0.1008131 -0.062096994 -0.06725418 -0.09172728
하 -0.082024455 -0.08834778 -0.107408345 -0.0198314 -0.07862775 -0.084483154 -0.08478483 -0.06756103 -0.053670354 -0.0629447 -0.011740906 -0.0898811 -0.08598305 -0.042569436 -0.09094883 -0.062544644
을 -0.05596044 -0.070830524 -0.12034846 -0.06946219 -0.061262235 -0.064004906 -0.08638304 -0.09374164 -0.117914826 0.1651728 -0.07209599 -0.09913287 -0.0948112 -0.047811694 -0.08832107 -0.0455721
보 -0.09074723 -0.098971814 -0.10573108 -0.066462785 -0.07177346 -0.08323398 -0.089856304 -0.11276297 -0.10515955 0.24481198 -0.07943077 -0.11309398 -0.07490858 -0.034357786 -0.09764981 -0.07971987
.. -0.06171406 -0.10068616 -0.11990487 0.12470366 -0.08087038 -0.08669778 -0.085341655 -0.11424072 -0.11084179 -0.05710875 -0.086767174 -0.11265428 -0.11916404 -0.039200157 -0.097738095 -0.09342426
게 -0.07166344 -0.060141474 -0.12716769 -0.07779136 -0.043589395 -0.09927948 0.06537315 -0.11285997 -0.12724538 -0.063003935 -0.09707744 -0.0844153 -0.07498004 0.04720879 -0.102334715 -0.09082828
, -0.08176374 -0.08949097 -0.07189528 -0.08351915 -0.066507824 -0.03878737 -0.07369455 -0.11034693 -0.07204272 -0.044226702 -0.10476642 -0.07156388 -0.074404955 -0.07151791 -0.060685158 -0.0904879
! -0.05344683 -0.11063419 0.1409936 -0.096305475 -0.023831783 -0.090171285 -0.09371634 -0.11842385 -0.11217897 -0.06325373 -0.1054202 0.029707812 -0.120987326 0.47116706 -0.030713592 -0.11533056
지 -0.07202915 -0.061452202 -0.12493191 -0.093750976 -0.065874815 -0.08673796 -0.095006295 -0.049302008 -0.07457556 -0.059771724 0.026080698 -0.12082202 -0.12364558 -0.051029325 -0.10148322 -0.09856536
있 -0.022556538 -0.09072933 -0.059260566 -0.056912776 -0.052251745 -0.03634416 -0.07151725 -0.09525462 -0.08327159 -0.052088175 -0.06956528 0.13051192 -0.007912877 -0.057226837 0.03945387 -0.09562612
없 -0.077096835 -0.022277277 -0.12078431 0.020337418 -0.07298712 -0.059245665 -0.06031461 0.12545133 0.13482392 0.05614194 -0.018844577 -0.112824894 -0.0737164 0.2834654 -0.10258741 -0.09421488
? 0.05670055 -0.10238323 -0.06391863 -0.061297316 -0.074224554 -0.052156135 -0.04907664 0.09074499 -0.10814564 0.14775555 0.02369026 -0.07566581 -0.07095614 -0.06556612 -0.061657134 -0.101535566
좋 -0.096824825 -0.09579867 0.10604832 -0.04500923 -0.06989012 -0.037136387 -0.08663134 -0.11331474 -0.115429804 0.037301973 -0.085507065 -0.09651435 -0.004494266 0.17984128 0.16289082 -0.10625566
나 -0.089178264 -0.09513963 -0.050098687 -0.08227366 -0.020629138 -0.061836515 -0.09144321 -0.11185392 -0.11325143 -0.024922859 -0.09617984 -0.08475809 -0.068926 -0.055492353 -0.062256444 -0.084382854
었 -0.04992795 -0.0914356 -0.074853085 -0.070960715 -0.066701934 -0.10391067 -0.066028744 -0.124420576 -0.111746855 -0.02037245 -0.09349442 -0.03845322 -0.040432 -0.05333711 -0.05076116 -0.10440491
만 0.12619303 0.04004822 -0.07542685 -0.08067621 -0.06126694 -0.0880354 -0.0792095 -0.102631934 -0.1066746 -0.07162999 -0.06551744 -0.0994347 -0.10373378 0.017250359 -0.097536325 -0.089382485
는데 -0.05312707 -0.09857776 -0.058787823 -0.017149443 -0.06281896 -0.050126124 -0.08655628 -0.09465193 -0.10170708 0.054372635 -0.1019304 -0.07745153 -0.07974216 -0.060542986 -0.057719246 -0.021022195
너무 -0.08930872 -0.03133839 -0.1220835 -0.0830518 -0.073840044 -0.08376578 -0.09348426 -0.095487826 -0.10865224 -0.06955785 -0.061469708 -0.1117915 -0.11479571 0.013424502 -0.08862385 -0.10028563
봤 -0.098349944 -0.098753765 0.0066576516 -0.05124873 -0.0575817 0.044808608 -0.07146811 -0.11804313 -0.118128516 -0.06600575 -0.10158241 -0.10278042 -0.09971359 -0.047383584 -0.09451572 -0.09162306
적 -0.057871662 -0.08288555 -0.078872494 -0.04702772 -0.06405055 -0.0020675256 -0.08715071 -0.12389858 -0.1256986 0.23389228 -0.08110967 -0.07329609 -0.11224055 -0.041121542 -0.08176125 -0.064917736
안 0.10552476 -0.07671166 -0.11579611 0.087167226 0.041383907 -0.08716343 -0.088164344 -0.044268366 -0.01974704 -0.06045455 0.020833932 -0.10999958 -0.09796625 -0.049146663 -0.08890486 -0.07012071
정말 -0.09703136 -0.053027444 0.11139481 -0.06585578 -0.073551446 -0.04763134 -0.050203383 -0.11330389 -0.111502506 0.26913914 -0.08714482 -0.101835154 -0.079258874 -0.031940486 -0.1016579 -0.08306892
로 -0.023848547 -0.081238486 -0.12396638 -0.02366954 -0.025180625 -0.08602716 -0.08015504 -0.046054196 -0.05166278 -0.075786404 -0.07922216 -0.11151975 -0.09056759 -0.045399163 -0.09772278 -0.05369176
음 -0.049588513 -0.10598168 -0.12649253 -0.063411176 -0.07941797 -0.03872978 -0.06746866 -0.11503739 -0.123105265 -0.0455864 -0.05187856 -0.10975338 -0.10114221 -0.05421375 -0.1041653 -0.09450642
것 -0.07306098 -0.07736944 -0.096683264 -0.054664813 -0.027563998 -0.08415787 -0.07931158 -0.08761527 -0.08752541 0.17424133 -0.06662015 0.0028412375 -0.11821358 -0.04422454 -0.10112977 -0.07191536
아 -0.040518127 -0.10162526 -0.077511035 -0.09083914 -0.08416492 -0.06649313 -0.052894596 -0.113459215 -0.10991094 -0.06283124 -0.11269849 -0.10517526 -0.08831689 -0.06149664 -0.107098326 -0.08490373
네요 -0.083472885 -0.06808367 -0.0075525143 -0.06875332 -0.019742347 -0.09135895 0.10892623 -0.110464 -0.116190515 0.16313173 -0.09920517 -0.11038516 -0.09824519 0.3147599 -0.09817078 -0.096912146
재밌 -0.08305536 -0.094668515 -0.10925759 -0.07467953 -0.023855522 0.13117346 -0.086903974 -0.122910775 -0.110673286 -0.07013073 -0.093603864 -0.100668676 0.12290489 -0.051103324 0.21180527 -0.09597988
어 -0.06431751 -0.0962486 -0.10951295 -0.012523169 -0.028236987 -0.092503116 -0.03792936 -0.103150874 -0.10592167 0.15803206 -0.094265334 -0.119026065 -0.09372412 -0.019710023 -0.09207934 -0.071063556
같 -0.06731039 -0.039547585 -0.0860095 -0.022878556 -0.049113933 -0.08389055 -0.075799555 -0.10896747 -0.095039636 -0.065483175 -0.017366901 -0.10539215 -0.10886115 -0.049123287 -0.098249845 -0.06145908
점 -0.08602849 -0.101591244 -0.10908846 -0.06657047 -0.07064567 -0.07998456 -0.080785654 -0.010827931 -0.048573565 -0.07553246 0.094694 -0.09353546 -0.09546538 0.076160744 -0.07912495 -0.02737985
지만 -0.07414433 -0.07692931 0.011818174 -0.06585005 -0.06414452 0.008221109 -0.07359053 -0.08669734 -0.073326044 -0.053408194 0.0054631606 -0.104466274 -0.0769449 0.41538233 -0.06153952 -0.0792886
진짜 -0.056815185 -0.093178675 -0.06464135 -0.07746613 -0.07459455 -0.095091864 -0.029894505 -0.107458465 -0.1072069 -0.022839975 -0.101620905 -0.07027411 -0.0639126 0.15902989 -0.06026686 -0.09750193
했 -0.08345055 -0.061447553 -0.08307345 -0.009855424 -0.06665416 -0.07480842 -0.09698365 -0.07363787 -0.0021750107 -0.047127705 -0.011236452 -0.0988537 -0.09958835 -0.03707259 -0.09890377 -0.09116988
에서 -0.041847873 -0.06393191 -0.10051305 -0.043491505 -0.08819605 -0.08228595 -0.080710545 -0.08149068 -0.10742503 -0.026650699 -0.06575941 -0.09260116 -0.0889155 -0.044936348 -0.08321985 -0.044407606
기 0.06441637 -0.00604778 -0.11323412 -0.02766265 0.039224666 -0.08485853 -0.10136915 -0.043514013 -0.06374972 -0.06344494 -0.03311082 -0.091250144 -0.117311105 -0.045812167 -0.08390478 0.00024967318
네 0.07123313 -0.08432536 -0.12451065 -0.08751966 -0.0736979 -0.093720645 -0.089052334 -0.106688455 -0.10093307 -0.08123928 -0.023264663 -0.109805 -0.12274996 -0.04690765 -0.09280281 -0.09061986
않 -0.07281033 -0.07276474 -0.040625155 -0.007644498 -0.07263077 -0.08804497 -0.08672972 -0.06078058 -0.081930645 -0.026722014 -0.035158396 -0.089193866 -0.094373025 -0.045028497 0.005963464 -0.07997619
거 -0.06724492 -0.08021376 -0.08873769 -0.05338934 -0.012058418 -0.09698039 -0.08037018 0.06618439 -0.073303536 -0.02441359 -0.07401426 -0.10823056 -0.08524099 -0.037928447 -0.072299615 -0.08701845
았 -0.08025514 -0.10194606 -0.0808909 -0.05036577 -0.07850688 -0.090178296 -0.088663824 -0.11801463 -0.088567026 -0.025548743 -0.02489208 -0.089411505 -0.091870144 0.0061706826 -0.10058698 -0.08313487
수 -0.06615423 -0.088563845 -0.09170178 -0.075957894 -0.05032418 -0.032705884 -0.060040295 -0.10761161 -0.06904616 -0.009882656 -0.06765258 -0.114105985 0.095938414 -0.049842086 0.053782113 -0.050003137
되 -0.05543724 -0.07527237 -0.109967746 -0.046624437 -0.04672822 0.033888277 -0.08259709 -0.089832984 -0.09364309 0.022652237 -0.08140652 -0.09940159 -0.08187293 -0.061794784 -0.082459375 -0.07571208
면 -0.086913496 0.022121655 -0.097412184 -0.01319953 0.04373796 -0.0808409 -0.08575292 -0.036772586 -0.09109893 -0.047331598 -0.041050855 -0.09940125 -0.082246415 -0.045613777 -0.094241604 -0.013414535
ㅋㅋ -0.073688015 -0.047265824 0.058775596 -0.06603612 -0.00012067219 -0.10332056 0.041404326 -0.124078594 -0.06399402 0.22823966 -0.03398648 0.010674667 -0.13248092 0.23977917 -0.105743796 -0.04972141
말 -0.060628124 -0.08114383 -0.119012 -0.07446463 -0.07591328 -0.07209391 0.00093512505 -0.091568165 -0.054224595 0.12608393 0.0075836387 -0.11179175 -0.08590756 -0.05307178 -0.10436865 -0.0949069
연기 -0.07106843 -0.07705078 -0.033584658 -0.059315853 -0.07025732 -0.095364705 -0.072995 -0.104778275 -0.10984523 -0.09859889 -0.04032775 -0.06530811 -0.0928652 -0.00827235 -0.07735666 -0.06290496
인 -0.07769244 -0.06794395 -0.08922925 -0.072651036 0.005300391 -0.079973966 -0.08669797 -0.11444888 -0.07553012 -0.041959252 -0.02690588 -0.038789887 -0.114706 0.0025718913 -0.031271543 -0.084207155
주 -0.08308961 -0.046683095 -0.11212199 -0.04203154 -0.05304836 -0.06311871 -0.081494644 -0.11600505 -0.08092572 -0.06987756 -0.039604906 -0.10088236 -0.093383 -0.053630058 -0.09142804 -0.055892896
내 -0.08671352 -0.08626691 -0.100241944 -0.09328362 -0.0690252 -0.08986182 -0.08457153 -0.09350952 -0.11032611 -0.023639316 -0.08121787 -0.0683163 -0.08736214 0.058836095 -0.07962268 -0.026050251
최고 -0.07723282 -0.06368242 0.10363111 -0.100986384 0.069525324 -0.010047415 0.1852851 -0.11152643 -0.1081202 0.31345114 -0.09196775 0.024431746 0.17550807 0.34578297 -0.07932721 -0.096756555
~ -0.037413187 -0.07995049 -0.07058045 -0.07479066 -0.057993677 0.07679307 -0.087212086 -0.11338244 -0.10855006 -0.06931734 -0.015389733 0.010411536 -0.112241834 0.11953995 -0.102651775 -0.07098991
평점 -0.01663133 -0.06659047 -0.12204624 0.063133486 -0.054026622 -0.08279891 -0.083295956 -0.1152162 -0.023999024 -0.062833585 0.061068404 -0.021710493 -0.091220975 -0.049295094 -0.056255605 0.026667258
이런 -0.072797075 -0.07651093 -0.060408413 -0.0424279 -0.042068414 -0.09841538 -0.0931041 -0.055368878 -0.12555304 -0.083071 -0.04125234 -0.10490071 -0.1148595 -0.049375013 -0.09983062 -0.07412307
던 -0.06924377 -0.054340158 -0.07079157 -0.03013214 -0.055915374 -0.072571 0.07147219 -0.05887636 -0.07944268 0.29261592 -0.04746704 0.044282597 -0.078241944 -0.049379386 0.0439475 -0.02536569
어요 0.029235953 -0.08918664 -0.08224873 -0.06439025 -0.07705993 -0.08337493 0.14658321 -0.12876739 -0.109701976 0.3116074 -0.09622185 -0.114649415 0.06034572 0.3224755 -0.1072698 -0.09702041
할 -0.07026925 -0.064417794 -0.12641847 -0.008071887 -0.029578075 -0.0820138 -0.08648908 -0.015492132 -0.09229447 -0.039140083 0.02979461 -0.117832795 -0.0899654 -0.051631965 -0.09306411 -0.023135865
왜 0.025169658 -0.051728964 -0.075986415 0.08181777 -0.06399677 -0.048483606 -0.08258203 -0.057964038 0.010825156 -0.06556747 -0.07404539 -0.101595245 -0.10534043 0.29549047 -0.09246235 -0.063585944
겠 -0.06111908 -0.008476389 -0.105734445 0.029874286 -0.09287742 -0.087482 -0.077207364 -0.0017070312 -0.12126357 -0.05000126 0.0020699918 -0.07995969 -0.031987406 0.09707027 -0.10147424 0.12522808
1 -0.08350371 -0.026231285 -0.09118847 0.13844378 0.0042946767 -0.08116481 -0.09626659 -0.08586025 0.024069464 -0.06810086 -0.050534055 -0.106186375 -0.08588888 -0.04276782 -0.08110043 -0.07934352
스토리 -0.07255471 0.10658121 -0.08666354 -0.05032673 0.0029530532 -0.08370291 -0.07148472 -0.055679396 -0.05332041 -0.0492494 -0.01666553 -0.051996272 -0.09393054 -0.04723176 -0.0859402 -0.079500094
해 -0.048226103 -0.075770706 -0.11212824 -0.03120422 -0.022218911 -0.09225903 -0.05223415 -0.08545272 -0.07602778 -0.08253196 -0.074683316 -0.083719924 -0.10728667 -0.053826064 -0.089826494 -0.09824052
습니다 -0.09052462 -0.10202875 -0.055564865 -0.063089736 -0.07837808 -0.041632526 -0.078786515 -0.096702605 -0.10862629 0.4125152 -0.08835774 -0.026662467 -0.014237408 -0.036114547 -0.053300653 -0.1008167
ㅋㅋㅋ 0.012321697 -0.011725005 0.074894466 -0.03333859 -0.08461202 -0.09659171 -0.04783575 -0.05007881 -0.11120541 -0.10253505 -0.07826169 -0.013202741 -0.12884465 0.1999766 -0.1129276 -0.023671636
... -0.06990761 -0.06475991 -0.12090471 -0.0010276586 -0.056874316 0.0058934176 -0.080601886 -0.107038006 0.08891092 -0.0074528554 -0.09156967 -0.066478774 -0.1153739 0.14296314 -0.086660154 -0.09506059
드라마 -0.072665505 -0.05993359 0.046097826 -0.0766792 -0.06862304 -0.09085952 -0.09061329 -0.099488534 -0.10429383 0.1505612 -0.0942641 -0.09057508 -0.09502404 0.0857406 -0.09964973 -0.09533702
생각 -0.060310263 -0.063282326 -0.08647891 -0.042301662 -0.0508521 -0.08918506 -0.09091561 -0.08519409 -0.069950216 0.0035359042 -0.044016663 -0.09511458 0.14753477 -0.038022675 0.06299005 -0.06500742
아니 0.018718656 0.058854997 -0.11406846 -0.03233285 -0.063532665 -0.08852409 -0.102408275 -0.1013655 0.052061696 -0.059070792 0.027099326 -0.10572333 -0.112536125 -0.048668083 -0.09599526 -0.049031083
더 0.0073942523 0.04112894 -0.10405712 -0.054623768 -0.06528574 -0.09124489 -0.077762604 -0.09838735 0.0004228023 -0.04572202 0.012342733 -0.10386503 -0.10503601 -0.060531653 -0.096905105 0.029837511
그 -0.033174958 -0.088684104 -0.102174334 -0.0724356 -0.063573055 -0.075606085 -0.08338118 -0.0396233 -0.061367825 -0.03575861 -0.04989355 -0.10695421 -0.11119892 -0.043049272 -0.09053469 -0.015792307
싶 -0.07774029 -0.044189423 0.014643543 -0.050236575 -0.06620726 0.022450406 -0.07140539 -0.10426234 -0.10818203 -0.02517726 -0.048118327 -0.08165446 -0.08757967 -0.038803898 -0.028512854 -0.08558455
사람 -0.068079896 -0.08001412 -0.11530031 -0.061917733 -0.047910873 -0.08195376 -0.083096266 -0.09203262 -0.091541894 -0.057534114 -0.013904905 -0.1047824 -0.0817393 0.1948039 0.123407714 -0.0827225
듯 -0.07650966 -0.0743831 -0.10732303 0.018504875 -0.067178465 -0.08075082 -0.07996191 -0.06599555 -0.118110426 -0.042762294 -0.06343543 -0.10807178 -0.019260075 -0.046190023 -0.105501 -0.057948306
때 -0.052196212 -0.06297451 -0.01704965 -0.040074315 -0.028313883 -0.03642336 -0.05394155 -0.08507533 -0.07480211 0.047602046 -0.058602646 -0.103091106 -0.070700966 0.3493611 -0.0729918 -0.019245103
감동 -0.029313441 -0.047283523 -0.12468163 -0.089713566 -0.022500768 -0.087173104 -0.07463167 -0.116313 -0.11324125 0.05977981 -0.099973716 -0.11173961 0.10499848 0.34479365 0.21715635 0.0051663294
함 -0.06296784 -0.07161145 -0.11683628 -0.075265475 -0.065151155 -0.08841777 -0.0869014 -0.101716146 -0.10250362 -0.0793269 -0.06636024 -0.10903516 -0.088771194 0.17545821 -0.08453415 -0.08655014
배우 -0.08415632 -0.08772006 -0.09118112 -0.060391 -0.06496226 -0.045613613 -0.09512111 -0.106374815 -0.11075907 0.059217136 -0.07854006 -0.09028899 -0.06901754 -0.06514231 -0.0710049 -0.06573476
본 -0.08212034 -0.02393247 -0.08002364 -0.07702222 -0.02360975 -0.07683808 0.01728923 -0.108684324 -0.11662758 0.11467616 0.0076703653 -0.084391624 -0.07736174 0.05345303 -0.08785309 -0.035211068
까지 -0.06982015 -0.07052295 -0.07689333 -0.06900477 -0.07840338 -0.05576152 -0.06329126 -0.06128169 -0.08677869 -0.02600129 -0.09296361 -0.074439004 -0.047866534 -0.039414603 -0.06677715 -0.08009434
뭐 0.023703083 -0.0748794 -0.11928344 0.055359885 0.020698229 -0.106342986 -0.088310316 -0.111881435 0.053445667 -0.07259395 0.05703198 -0.107525066 -0.09865926 0.07944202 -0.09571126 0.0059050443
알 -0.04813202 -0.019847842 -0.0864238 -0.06186421 -0.06988399 -0.08426534 -0.080733664 -0.07829969 0.04053882 -0.05205805 -0.023358563 -0.101526074 -0.07867976 -0.044284713 -0.07166465 -0.07832438
만들 -0.04534112 0.077804655 -0.06045844 0.0037101614 -0.08236244 -0.04969656 -0.032822542 -0.1228192 -0.11138571 0.086478114 -0.111769415 -0.0843389 -0.07968208 0.02895559 -0.06590141 -0.09539923
내용 0.07490112 -0.07220437 -0.12148535 0.13408692 -0.06984624 -0.07075729 0.009227149 -0.10380872 -0.062145174 0.17480041 -0.065293066 -0.108984545 -0.08667339 0.13954294 -0.10309931 -0.09532477
볼 0.03111759 -0.07552712 -0.1256005 -0.07339886 -0.04178665 -0.047975425 0.10010176 -0.1127957 -0.11386452 0.24124923 -0.07177734 -0.08761563 0.08124653 -0.029969791 -0.114144675 -0.07885141
감독 -0.09598057 -0.09140957 -0.06515909 -0.06716277 -0.015452367 -0.0032251803 -0.030044787 0.026632175 -0.089833714 -0.04893732 0.11128848 -0.067229606 -0.008631091 0.14648776 -0.009327609 0.11151783
보다 0.052250534 0.011917802 -0.075723805 -0.03329188 -0.03129598 -0.104431 -0.02794686 -0.053495243 -0.0882655 -0.050891727 -0.039864954 -0.08737045 -0.045804493 -0.042435076 -0.10721459 -0.03562412
라 -0.051512185 -0.07806953 -0.1049216 -0.051385947 -0.001717349 -0.08889542 -0.0061255503 -0.026412465 0.040292487 -0.035446797 -0.08722021 -0.10019844 -0.1136176 -0.053753767 -0.09686376 -0.047725685
그냥 -0.0044140257 -0.07245716 -0.12774089 0.15491343 -0.08487354 -0.094073825 -0.056272946 -0.047791563 -0.12338771 0.029504938 -0.09155303 -0.10658231 -0.12844871 -0.053488545 -0.10445843 -0.100831084
재미 -0.028092388 -0.10342406 -0.035147835 -0.08457477 0.116188094 -0.021639034 -0.014429081 -0.11465915 -0.09997838 0.1956162 -0.09982891 -0.07895999 -0.05334773 0.2746291 -0.10609928 -0.10717539
시간 -0.041373212 -0.07677064 -0.10141368 0.0068723443 -0.063498154 -0.07100217 -0.0795536 -0.013487259 0.12758435 -0.03571246 -0.06573406 -0.087886654 -0.11076458 -0.054391243 -0.079850756 -0.10146649
지루 -0.07117378 0.1371596 -0.09542403 0.12247525 0.041388717 -0.068506286 -0.0806681 0.121873975 -0.017112458 -0.061380394 0.024011998 -0.09701387 -0.094786175 -0.038813576 -0.100582555 0.08196145
중 -0.06080178 -0.034821887 -0.098404676 -0.02258453 0.026410287 -0.091600575 0.067305796 -0.07447442 -0.08258165 0.024905412 -0.031216655 -0.07959294 -0.09577994 -0.045679886 0.052765563 0.010612377
재미있 -0.081173085 -0.07810847 -0.051815484 -0.07652497 -0.07542313 0.12336258 -0.060745027 -0.112055615 -0.11249808 0.16897646 -0.09815506 0.09152379 -0.054455448 -0.054849144 0.24450697 -0.09144964
년 -0.08565297 -0.059814095 -0.08881127 -0.009922906 -0.057926796 -0.060235154 -0.02546195 -0.032674354 -0.07578764 0.009794091 -0.04987706 -0.04565875 -0.07896296 -0.030043626 -0.047590643 -0.08342199
10 -0.09108418 -0.09842915 0.04373049 -0.065700226 -0.06797826 0.08620735 0.1694784 -0.0035875146 -0.028352264 -0.06930857 -0.10792077 0.011517632 -0.06460063 -0.04503173 0.051096838 -0.016979637
였 -0.06375955 -0.0681842 -0.07878707 -0.09232342 -0.070131764 0.07672212 -0.068004005 -0.05592905 -0.106258385 -0.052030195 -0.08710764 -0.08535099 -0.07527212 -0.053383365 -0.07657983 -0.0774382
잼 -0.08886519 -0.09194392 -0.100643605 -0.093149304 0.05545345 -0.052396055 0.013322829 -0.1171457 -0.11110075 0.15056941 -0.093653925 -0.10557845 0.13601103 0.27060202 -0.069375075 -0.080225036
사랑 -0.07750226 -0.09660736 -0.04540302 -0.08426555 -0.07602766 0.13905245 0.08161774 -0.10007792 -0.10520832 0.18280694 -0.08546107 -0.056381192 -0.031481497 -0.027359745 0.17260692 0.012718312
못 -0.091138735 -0.06497971 -0.114387594 -0.06294324 -0.06355632 -0.049835805 -0.038972285 0.05475014 -0.0036490269 -0.06019553 0.11484592 -0.09664363 -0.03648156 -0.041034535 -0.08667876 0.07072982
냐 -0.034055308 -0.026523085 -0.088989496 -0.060379423 -0.071053244 -0.09125056 -0.07607276 0.029106302 0.08494408 -0.027735936 0.09398503 -0.044998944 -0.11433731 0.27772084 -0.08139952 0.13276905
재미없 -0.044113524 0.13514817 -0.096060455 0.14623193 -0.05955022 -0.09778113 0.042642344 0.117061056 0.102999955 -0.051509757 0.08836377 -0.123626105 -0.028776936 0.16445853 -0.09859847 0.15285482
쓰레기 -0.027033608 -0.008004227 -0.106806524 0.16390781 -0.024289763 -0.10224905 -0.10556425 0.1066471 0.100313954 -0.036420595 0.1038528 -0.08879694 -0.09567736 -0.045323297 -0.078379944 0.16377589
서 -0.021145126 -0.05769211 -0.060573228 -0.052178632 -0.05601276 -0.08171348 -0.05884641 -0.07638791 -0.00853124 -0.050222863 -0.058456313 -0.08220232 -0.08824106 -0.03623769 -0.0856766 -0.052316777
2 0.062261015 -0.014538177 -0.105528645 -0.01115079 -0.043475814 -0.08887086 -0.09309703 -0.027102718 -0.023152646 -0.058344662 -0.040968183 -0.09906478 -0.124030344 -0.039267994 -0.11006058 -0.02422611
라고 0.027899692 -0.08494879 -0.09873001 0.010770448 -0.0072546843 -0.09451277 -0.07485666 0.00841681 0.085711576 -0.02289903 -0.004521676 -0.10049469 -0.11290142 -0.04472351 -0.110921204 -0.059660133
야 0.00018963657 -0.050619863 -0.061600592 -0.024361713 -0.034557205 -0.086959936 -0.082792066 0.006122941 -0.022987578 -0.070124425 -0.0433654 -0.110367455 -0.12002459 -0.044048633 -0.09524215 0.012076032
니 -0.008380154 -0.077699214 -0.12001206 -0.06912425 -0.035958838 -0.020369984 -0.09550909 -0.05889321 -0.041209985 -0.08044926 -0.0076715196 -0.045671575 -0.11386399 -0.04294383 -0.06056346 -0.017093074
면서 -0.059481364 -0.022530384 -0.04934106 -0.0364531 -0.053795036 -0.03199563 -0.030257769 -0.07138248 -0.07127193 -0.042734075 0.01497862 -0.0037003146 -0.0022828805 0.034862433 -0.09049901 -0.035603613
번 -0.07498324 -0.08419327 -0.11222478 0.03255401 0.03159247 0.10141096 0.041135702 -0.09212664 -0.103926785 0.015423338 -0.07792026 -0.044887375 0.110143475 -0.06125572 -0.103629336 0.009239741
다시 -0.075809866 -0.07366073 0.083107136 -0.044010945 -0.03050537 0.2124992 -0.02577013 -0.10785999 -0.09499817 0.021855276 -0.0813587 -0.08441425 -0.027830964 0.090696126 -0.07844412 -0.021245996
나오 -0.070414916 -0.053354695 -0.056869894 -0.05654707 -0.07344519 0.042307217 -0.096786015 -0.06758982 -0.035907846 0.20598601 -0.0820669 -0.06900111 -0.07120875 -0.0443473 0.007668944 -0.06922139
작품 -0.08368078 -0.08109802 -0.1017735 -0.053828113 -0.07113921 0.16837117 -0.042949352 -0.056282323 -0.08808431 0.17570794 -0.080885984 -0.06326893 -0.03908864 -0.01545981 -0.06950223 -0.057823874
이거 0.020623313 -0.060718976 -0.12301192 -0.01390219 -0.07025631 -0.02737015 -0.043944612 -0.10936904 -0.038252782 -0.045543816 -0.062915236 -0.024905715 -0.122524016 -0.057550002 -0.10006797 -0.06939953
하나 -0.03900078 -0.07268171 -0.096960254 0.041104976 -0.028280962 -0.08639946 -0.0853495 -0.09081552 -0.010369715 -0.034620624 -0.03124754 -0.097594395 -0.08500189 -0.04929243 -0.09565591 0.008610262
줄 0.045097094 -0.077911444 -0.10296145 -0.0008821021 -0.030548513 -0.09260162 -0.08084782 0.0032816462 -0.0719442 0.042298667 -0.046803724 -0.037197407 -0.08179923 -0.05336521 -0.030291105 -0.10484722
해서 -0.039501544 -0.04897022 -0.08230325 -0.041923027 -0.036048 -0.06415789 -0.06804239 -0.021413105 -0.050245844 -0.030123001 -0.080658406 -0.089522816 -0.09056652 -0.0046039266 -0.091604955 0.024697972
개 0.009759798 -0.10264928 -0.09838905 -0.057915613 0.121132344 -0.07338642 -0.08020983 0.0069678174 -0.005305569 0.15589106 -0.09445665 -0.118078925 -0.031168826 0.06828832 -0.039797444 0.039308667
남 -0.063794814 -0.022075493 -0.076324716 -0.050051946 -0.055347063 -0.07409993 -0.07928984 -0.10338902 -0.112159215 -0.073559925 -0.07659791 -0.094035126 -0.06946566 -0.05133931 -0.015860042 -0.03851489
정도 -0.046113927 -0.006726611 -0.094993845 -0.014192556 0.008054978 -0.078210615 -0.06862551 0.0032689862 -0.026029639 -0.035595354 0.09629436 -0.09259787 -0.086884685 -0.04460119 -0.07972073 -0.043532416
마지막 -0.06695206 -0.09230521 -0.08862659 -0.090719365 -0.06586689 0.123885565 -0.01913369 -0.09696518 -0.09527222 0.08976719 -0.07152133 -0.079209 0.05550729 -0.04865254 -0.06699162 -0.08544267
끝 0.028573815 0.1011501 -0.049704913 0.020678004 -0.07021014 -0.054856837 0.0009831092 -0.028070848 -0.0350951 0.12225198 -0.07540689 -0.016739503 -0.058706075 0.08079904 -0.034821995 -0.08874768
이건 -0.058103148 0.17759767 -0.12002152 0.089899644 -0.08862749 -0.03948034 -0.095564365 -0.095876455 -0.10948194 -0.048805613 -0.08934111 -0.09998788 -0.11831744 0.062017906 -0.09485304 -0.10166776
액션 -0.06624513 -0.023495572 -0.0456031 -0.07564425 -0.02918415 -0.080407575 -0.061514996 -0.05153544 -0.09587119 -0.07056368 -0.044771805 -0.025121449 -0.098655425 -0.0685097 -0.093783095 -0.040726166
임 -0.09719528 -0.06799147 -0.0940715 -0.06994636 -0.06652265 -0.091878265 0.0041632582 -0.1103081 -0.10919984 0.10427397 -0.06767641 0.036314886 -0.11079205 0.2952297 -0.06626196 -0.09613454
ㅋ -0.08726181 -0.04742863 -0.054606825 -0.070070475 -0.020776974 -0.10559303 0.1040965 -0.11025561 -0.12837934 0.1942482 -0.054796904 0.04667982 -0.082348675 -0.044316318 0.069880344 -0.006256216
3 -0.05864838 -0.018220736 -0.11218992 -0.044830233 0.07339937 -0.09061506 -0.059463784 -0.06298563 -0.043271847 -0.05751723 -0.044756945 -0.10573549 -0.11159024 -0.06174134 -0.09525972 -0.059546188
기대 -0.030075362 -0.08330375 -0.10589033 -0.06408441 0.04474596 -0.06855683 -0.0919709 -0.025953861 -0.11526076 -0.052030925 -0.0894573 -0.109413415 -0.096799985 0.07877457 -0.05978041 -0.055260282
입니다 -0.0344415 -0.06332007 0.01054969 -0.06339115 -0.065620154 0.012479043 -0.020797813 -0.10920315 -0.11543303 0.12916327 -0.09009934 -0.0001683033 0.07803546 -0.014770272 -0.082135685 -0.08436846
건 0.06888122 -0.08688629 -0.064410985 -0.06911158 -0.07689188 -0.047012664 -0.080481485 -0.090229794 0.10685093 0.0004233855 -0.0741564 -0.09821251 -0.07256847 0.1575175 -0.07876255 0.023190564
라는 -0.07159616 -0.073617645 -0.087470636 -0.059574485 -0.06361004 -0.0805695 0.00228854 -0.062127467 -0.09648285 -0.03892871 -0.046098754 -0.09210316 -0.080977775 -0.044589553 -0.063736446 -0.057185873
분 0.013012782 -0.06138413 -0.086440384 -0.061918445 -0.042538416 -0.05367928 -0.053851698 -0.0020873123 -0.03884211 -0.06357495 -0.06995747 -0.08161659 -0.08194937 -0.049575448 -0.06469933 0.06496373
완전 -0.06750008 -0.091501094 -0.10711427 -0.051877715 -0.040914487 -0.09093987 -0.085619144 -0.12365484 -0.10687128 0.07092707 -0.09122756 -0.001992125 -0.0870404 -0.02499733 -0.08205177 -0.088309154
다는 -0.06304015 -0.06149606 -0.08846472 0.029910557 -0.05093029 -0.035613514 -0.085803464 -0.094486125 -0.10530356 -0.04602584 -0.09442508 -0.09708264 -0.078802735 -0.043244544 -0.0830739 0.004708411
참 -0.04075649 -0.008976522 -0.084412396 0.04468343 -0.0049057193 -0.091025844 -0.07129875 -0.03823697 -0.03014139 -0.014499441 -0.085461706 -0.06066859 -0.09520376 -0.038183756 -0.086513266 -0.10769734
많 -0.0624841 -0.095962495 -0.09316145 -0.040408336 -0.04238081 -0.09687585 -0.10224059 -0.089143075 -0.107181884 -0.052389074 -0.053364214 -0.10339669 -0.08273414 -0.021469299 0.0019734916 -0.077835865
처음 -0.01757582 -0.018817233 -0.08635731 0.04977686 -0.017981011 -0.07215237 -0.073204644 -0.04774371 -0.029733688 0.03950058 0.000973885 -0.089835845 -0.08759165 -0.037265934 -0.09199225 0.016307961
장면 -0.065032706 -0.07836522 -0.054621864 -0.05741003 -0.087121285 -0.022881417 -0.0821281 -0.095593974 -0.08628167 0.1691138 -0.050564103 0.010613161 -0.052806243 0.076419696 -0.022879818 -0.08600632
대 -0.06520239 -0.060236506 -0.082808085 -0.051412027 -0.075965114 -0.054727025 -0.053141262 -0.07372985 -0.08091815 0.025024217 -0.08788271 -0.09829307 -0.08332962 0.018822132 0.05934218 -0.05546466
아깝 0.09178196 0.18892044 -0.11393727 -0.022630733 -0.08537494 -0.07755012 -0.080896854 -0.056736235 -0.07323541 -0.027267236 0.033328768 -0.10014226 -0.096771166 -0.048041355 -0.09317085 0.040256806
다가 -0.05303124 0.13155602 -0.08891628 -0.049996365 -0.05965976 -0.060721125 -0.07251861 -0.017367624 -0.048426308 0.11714481 0.059332892 -0.090735756 -0.08903088 -0.05585608 -0.07423609 -0.0786522
으면 -0.06373159 -0.03721283 -0.06364661 -0.059089445 0.026301904 0.015377347 -0.07827053 -0.026025016 -0.006673838 -0.023501659 0.020695668 -0.08950536 -0.078449555 -0.029085822 -0.08028555 -0.052478526
지금 -0.05180888 -0.06377754 -0.093058355 -0.05169369 -0.063719474 -0.05636657 -0.08121669 -0.11135815 -0.08698468 0.0020194019 -0.063831575 0.10064836 -0.046652555 0.06095904 0.09442361 -0.07039054
모르 0.040662564 -0.084010966 -0.07708977 -0.037449583 -0.055759672 -0.07230997 -0.08960185 0.007635424 -0.008102093 -0.0381575 -0.035046935 -0.10050258 0.039097674 0.11244239 -0.08527079 -0.098341085
이렇게 -0.0023461138 -0.023711998 -0.11605506 -0.061179735 -0.050409775 -0.091893956 -0.084186345 -0.09675705 -0.03814002 -0.020352874 -0.04562711 0.027913125 0.021905564 0.133045 -0.08730831 -0.037973955
' -0.077486746 -0.090249956 0.047668193 -0.07483212 -0.08566381 -0.090301745 -0.025793878 -0.101082 -0.08714846 0.1303646 -0.07392975 -0.002501906 -0.05023661 -0.05335401 0.010533014 -0.09534514
편 0.0066071483 -0.041444078 -0.048782706 -0.061143406 -0.008606917 -0.07966797 0.0030840642 -0.029633407 -0.042836547 0.0045852163 -0.050365627 -0.10510862 -0.059963804 0.23474859 -0.079514734 -0.031672362
일 -0.0020048101 -0.046676427 -0.020816546 -0.02525233 -0.024773406 -0.0008729687 -0.08590566 -0.042165194 0.08732817 -0.04612726 -0.04428545 -0.08718629 -0.089314096 0.040402517 -0.05020153 -0.034355048
돈 0.040340483 0.17987771 -0.07459113 0.1751128 -0.043319073 -0.07845075 -0.07174597 0.11917611 -0.08274453 -0.029281426 0.0050030085 -0.113099635 -0.08662442 -0.04496453 -0.07425154 -0.01628363
이게 -0.0066264225 0.08917534 -0.041473016 -0.02577234 0.064406104 -0.089142255 -0.093350776 -0.084200844 0.058366872 -0.06607986 -0.08759568 -0.11061684 -0.04452847 -0.056710485 0.089333184 -0.09780118
성 -0.024855124 -0.079784185 -0.072101265 -0.038918883 0.078010954 -0.07445425 -0.056852717 -0.04398179 -0.06482517 -0.02457303 0.11966915 -0.095227025 0.026233569 -0.04304808 -0.069964424 -0.05201632
느낌 -0.040768612 -0.04394384 -0.046280805 -0.017388213 -0.031154364 -0.08790598 -0.06177279 -0.042330354 -0.061241496 -0.043092966 0.031158669 -0.104801 -0.10970943 -0.045212556 -0.09753985 -0.048861016
시 -0.06845375 -0.0626892 -0.07206813 -0.060978383 -0.061882768 -0.043741502 -0.05034894 -0.012375588 -0.078486234 -0.00558832 -0.03464935 -0.09291572 -0.0703797 -0.049177013 -0.0917708 -0.07985577
이야기 -0.06971954 -0.09554627 -0.077871606 -0.04606514 -0.05957724 -0.07426928 -0.06521196 -0.042180162 -0.04479975 -0.01262652 -0.07733639 0.034527343 -0.10947481 -0.054140393 -0.0035503474 -0.055753715
최악 0.24337216 0.092129625 -0.06754822 0.2093635 0.2667931 -0.04935192 -0.058978725 0.19246899 0.040001873 0.119999625 -0.048460912 -0.08968952 -0.06252528 -0.025574481 -0.059689984 -0.022150125
된 -0.046123073 -0.041846458 -0.114165686 -0.04776316 0.003215517 0.045688003 -0.08692687 -0.016052207 -0.012027261 -0.05588252 -0.027765103 0.042495016 -0.08428111 -0.052163508 -0.012898482 -0.049846664
봐도 -0.012039948 0.028949799 0.021452479 0.021603778 -0.08750562 -0.092610806 0.16152918 -0.105563976 -0.09921431 -0.04694865 -0.049727935 0.029174676 -0.031918034 0.24023752 -0.07515369 -0.07451642
님 -0.021489866 -0.020213518 -0.08616205 -0.071854845 -0.0699545 -0.060456786 -0.0520977 -0.03494026 -0.031533066 -0.049916174 -0.0764985 0.020662788 -0.038368613 0.054233212 -0.077089906 -0.07583649
어서 -0.017982665 -0.09168791 -0.075675264 -0.035510268 -0.036901057 -0.04921335 -0.03616306 -0.08092059 -0.07800209 0.017479707 -0.041333698 -0.084863275 -0.071427576 0.0023336834 -0.076972365 -0.05901427
애 -0.0031183618 -0.018032119 -0.08061665 0.040256485 -0.06782501 -0.0719415 -0.012096319 -0.07865761 0.055099636 0.1319563 -0.023403557 -0.09148516 -0.080654144 -0.050337862 -0.08513398 0.023646314
전 -0.039920453 -0.07331384 0.035299234 -0.06422491 -0.0019373527 -0.07310986 -0.02474667 -0.08641779 -0.095823415 -0.027217211 -0.0988812 -0.09151802 0.069151044 0.16036898 -0.084965125 -0.080309495
넘 -0.058990426 -0.06763635 -0.074566014 -0.06393932 -0.051490683 -0.061177045 0.02284572 -0.087612614 -0.10880974 -0.017031455 -0.034366008 -0.0064988756 -0.07773142 0.1768511 -0.04204572 -0.08066875
ㅠㅠ -0.1009984 -0.09433895 -0.09841109 0.04223161 -0.058112215 -0.08978305 0.13365944 -0.08997831 0.008229551 -0.031719033 0.104397394 -0.1057397 0.14968745 0.18920073 0.04548097 0.0036037622
인데 -0.07334822 -0.0854419 -0.0776697 -0.0057654316 -0.035471953 -0.06411072 -0.051822934 -0.07211509 -0.064211704 -0.001951391 -0.048274744 -0.08884396 -0.056469835 -0.01716578 -0.046281796 -0.019280426
다고 -0.05112352 -0.035819903 -0.093812265 0.040442307 -0.024243774 -0.08861988 -0.0783516 -0.043896373 -0.009944088 -0.049404323 -0.043893084 -0.08391197 -0.073757865 -0.06091648 -0.05865753 -0.039834708
이해 -0.08505238 -0.047098555 -0.09489925 -0.10047226 -0.05531889 -0.02736634 -0.064186335 -0.024360763 -0.010930034 -0.055666275 -0.06813754 -0.10142422 -0.0841414 -0.04163749 0.06281701 -0.069744594
별로 0.12035489 -0.0013980933 -0.085301265 -0.03006025 0.120970406 -0.083681345 -0.07583704 0.093319714 0.05202687 -0.05748065 0.11120706 -0.10007816 -0.09813356 -0.031964518 -0.09876152 -0.011480769
그리고 -0.03356813 -0.086125486 0.08104614 -0.069179974 -0.071086735 -0.05953783 -0.04186889 -0.05204782 -0.09738725 -0.04585034 -0.08305509 0.059243243 -0.06972988 0.27709416 -0.030662462 -0.019187432
명작 -0.06393745 -0.09274142 0.08673346 0.012719188 -0.052234903 -0.031979963 0.2125081 -0.10760308 -0.10263573 -0.025439097 -0.087549575 -0.029559912 0.089639395 -0.04216845 0.24161136 -0.091095395
여자 0.08315441 -0.07078022 -0.025827607 -0.0009757532 0.030470833 -0.066583514 0.011274615 -0.10131191 0.09287533 -0.0008157102 -0.0825974 -0.0781625 -0.084468864 0.0039907726 -0.06813457 -0.09339083
^^ -0.09482398 -0.07821185 -0.043033008 0.0800823 -0.081183806 0.11342924 0.025274012 -0.112454206 -0.11161511 0.06761936 -0.10472462 -0.10710518 0.13257894 0.2614916 0.13274014 -0.09275039
역시 -0.07446025 -0.08868125 0.0115784155 -0.08396105 -0.053658754 -0.06463171 -0.0744342 -0.09703936 -0.09078114 0.30307198 -0.0791162 0.0429028 0.10788248 -0.025153896 -0.07261647 -0.104955256
난 -0.08167557 -0.014142931 -0.07863729 0.04097933 -0.0021056777 -0.081023194 0.06901416 -0.012709594 -0.10273579 0.08610219 -0.082427256 0.079848595 -0.11386302 -0.028067337 -0.10002223 -0.0037889224
이상 -0.03832493 -0.07924503 -0.11609653 0.047487944 -0.028616818 -0.086001225 -0.07890325 0.043379128 -0.07130701 -0.04788537 -0.08202556 -0.106377676 -0.08869204 -0.046421707 -0.09237673 -0.05356218
또 -0.07850191 -0.062403046 -0.07802527 -0.072539635 -0.06177817 -0.0722698 0.009997161 -0.1004102 -0.10084654 0.0044179806 -0.040393993 0.1590684 0.008181623 0.06264412 -0.07152106 -0.08082506
걸 -0.07394742 -0.09192034 -0.1125171 -0.047127962 -0.067958266 -0.09093569 -0.06738798 -0.00020294673 0.017598815 -0.021119233 -0.069130644 -0.08514737 -0.012814893 -0.05514613 -0.09179967 0.047416378
한국 0.040395793 0.003710194 -0.066813275 0.017067011 -0.06894246 -0.026531478 -0.09967536 0.028965868 -0.067031145 -0.0076188976 0.011598943 -0.09876648 -0.116709314 -0.039880086 -0.03204728 -0.016111206
는지 -0.043507066 -0.086382955 -0.07802906 -0.020399287 0.1792003 -0.06910218 -0.032174446 -0.07820951 -0.06612311 -0.07236399 0.007571638 -0.059168834 -0.10103109 -0.047102634 -0.02285818 -0.07917581
많이 0.09874199 -0.018913405 -0.11431086 -0.04775088 -0.07356874 -0.08341039 -0.07611554 -0.11837097 -0.096900724 -0.047330655 -0.09270039 -0.10564786 -0.107515946 -0.037957653 -0.09401029 -0.040352557
에게 -0.06391709 -0.08846471 0.0071971524 -0.05556311 -0.037667416 -0.05509477 0.03428454 -0.08003462 -0.08974505 -0.05732927 -0.07355835 0.104201145 0.021747671 0.18892755 -0.08837213 -0.073973656
부터 -0.0035523062 -0.067959026 -0.07004472 -0.013344005 0.003247117 -0.034830585 -0.09210694 -0.07583137 -0.080956765 -0.009976745 -0.033813905 -0.022123126 -0.014707997 -0.011441017 -0.057901513 -0.019408392
만든 -0.067228444 -0.03145107 -0.12528981 -0.030793983 0.00792486 -0.08520068 0.048706926 -0.11273889 -0.031056589 -0.069080606 -0.02694224 -0.10309496 -0.09248579 0.003872089 -0.10504393 -0.10764944
주인공 -0.04484109 -0.01736361 -0.11696549 -0.059061002 -0.05421617 -0.08300199 -0.078693375 -0.030539162 -0.043776643 -0.035768025 -0.092740275 -0.103878655 -0.10875411 -0.047924634 -0.012348108 0.046208385
받 -0.06249125 -0.07518271 -0.036717776 -0.05573426 -0.05660857 0.09060514 -0.062817656 -0.058595333 -0.098362185 0.07572997 -0.05725294 -0.11017399 -0.10067309 -0.005789174 -0.035757236 -0.05210915
합니다 -0.031086778 -0.08645572 0.12275298 -0.06630128 -0.0849644 -0.04661839 -0.081242725 -0.12034747 -0.10875344 0.06910435 -0.006247226 -0.06449264 0.052537933 -0.031852093 -0.07964226 -0.053179868
우리 -0.057018332 -0.07817583 -0.09152102 -0.060461473 -0.018190283 -0.059065446 0.1235413 -0.069804125 -0.079553515 -0.019518685 -0.058139138 -0.084810264 -0.030172609 -0.054151427 0.2277781 -0.08073216
두 -0.07997152 -0.0037640568 -0.03866537 -0.038414005 -0.040940218 -0.07035269 0.021444092 -0.07901423 -0.098179124 0.24618703 -0.066973284 -0.05332144 0.00081789546 0.0600495 -0.08310737 -0.067632936
살 -0.029431866 -0.05065163 -0.0072191004 -0.06894219 -0.024135398 -0.08749179 -0.08840549 -0.08375294 -0.0009655219 0.014960528 -0.07209423 0.020685688 -0.09180668 0.021114266 -0.094515875 -0.01908956
!! -0.08287895 0.1219568 -0.0551365 0.057877038 -0.040546283 -0.024580626 -0.060950108 -0.10660785 -0.11728518 -0.029706413 0.022229416 0.064628884 -0.06996259 0.20104077 0.0067285434 -0.10889357
길 0.030508544 -0.009294186 -0.09066432 -0.051542416 -0.058658887 -0.07365436 -0.06860655 -0.01734271 0.026604705 -0.026713694 -0.08387906 -0.09540279 -0.026795747 -0.03244671 -0.07107901 -0.02595674
엔 -0.060296506 0.027215252 -0.077725574 -0.03814149 -0.05844291 -0.068047725 0.031489078 -0.012967971 -0.030947676 -0.05883579 -0.060677543 -0.09108181 -0.08802552 -0.05204311 0.10488591 -0.06993871
괜찮 -0.08023266 -0.093330696 0.07985721 -0.07417179 -0.07274334 0.21724482 -0.030173354 -0.11235675 -0.11014379 -0.04370536 -0.08080197 -0.041333176 0.047537174 -0.013164797 -0.02586762 -0.091602884
기억 -0.054354493 -0.06383511 -0.09251385 -0.049640216 -0.058013413 0.12653755 0.09802263 -0.09861699 -0.11030814 -0.06689786 -0.0847611 -0.0668526 -0.071494155 -0.0403986 -0.084946476 -0.08842386
연출 -0.060644988 -0.08066881 -0.09467223 -0.054113626 -0.06437106 -0.018102605 -0.060084037 -0.07091534 -0.072511025 -0.061582025 -0.067442164 -0.08073294 -0.046621863 0.03244124 0.044221062 -0.0793448
한다 -0.08940935 0.018180702 -0.082862556 -0.10048123 -0.073098265 0.004562703 0.012693794 -0.08083284 -0.067348905 0.008600874 -0.03562658 -0.061250307 -0.009440172 0.009859056 -0.09828888 -0.013236519
때문 -0.09316873 -0.07016754 0.0025044458 -0.052605234 -0.054857608 -0.08624957 -0.05678258 -0.10360534 -0.11537355 0.044983193 0.036812723 -0.076657325 -0.10678007 -0.036453575 -0.08771661 -0.036931712
이나 -0.04217409 0.0148742655 -0.08897379 -0.039897714 0.14375152 -0.07883724 -0.061487757 -0.07999809 0.03509886 -0.031398956 -0.03393415 -0.0906859 -0.06958198 -0.063283645 -0.06778811 -0.027429558
ㅎㅎ -0.07803914 -0.0959136 0.12136339 -0.05573908 -0.084092 -0.08367385 -0.095042996 -0.111821145 -0.09674566 -0.018397061 -0.079424396 0.117860734 -0.1213887 -0.049920797 0.17249992 -0.017533537
요 -0.05537217 -0.071237855 -0.08262084 -0.08087647 -0.003186559 -0.07535931 -0.07567478 -0.105897576 -0.10795064 -0.025953177 -0.07390288 -0.097806595 0.11295247 -0.058668163 0.011196158 -0.09086389
저 -0.051739108 -0.03837967 -0.09293011 -0.049443226 0.021679515 0.028509539 -0.08815777 -0.10249095 -0.105314285 -0.063587435 -0.045549247 -0.10324125 -0.10110113 0.010454599 -0.09504943 -0.033557966
재 0.030147994 -0.049622573 -0.08790962 -0.047470562 -0.097431645 -0.08046216 -0.01799213 -0.09605199 -0.10982062 -0.052564196 -0.05843766 -0.06587617 0.14703125 -0.057905946 0.04271785 -0.06783141
꼭 -0.07592082 -0.077377744 -0.08095296 -0.07015082 -0.050665557 0.13078716 0.041912206 -0.09456086 -0.08890495 -0.011998334 -0.081309095 0.04905772 -0.06311385 -0.049738932 0.1275587 -0.08236845
랑 -0.0626563 -0.079723194 -0.09324403 -0.05273749 -0.064244814 -0.07770257 -0.08792572 -0.087569036 -0.09492627 -0.027302861 0.020792656 0.07424042 0.02301752 0.007958303 -0.07788661 -0.01701719
며 -0.06792017 -0.034168724 0.104007766 -0.04791852 -0.05724735 0.1025112 -0.021321964 -0.05773846 -0.07229276 -0.01245482 -0.06454916 -0.08850712 -0.012902643 -0.050145093 -0.07100363 -0.067010835
현실 -0.04493662 -0.06484678 0.24045783 -0.09756076 -0.06418304 -0.059734683 -0.09603281 -0.110392414 -0.08131125 0.092081286 -0.093825296 -0.09270438 -0.085432425 0.23042822 -0.07622414 -0.0874794
긴 -0.08162577 -0.052286036 -0.11293678 -0.020142285 -0.06432132 -0.07545711 -0.06707678 0.044197746 -0.0012440138 -0.06255946 0.0012596698 -0.10195211 -0.070114754 -0.051234487 -0.07975012 -0.0490337
ㅡㅡ 0.0042642187 0.18721288 -0.09201303 0.1287215 -0.04451536 -0.10020176 0.040555377 0.009369389 -0.017096404 -0.055675365 -0.0703982 -0.09498887 -0.084282294 0.03454076 -0.08248427 0.046383843
무슨 -0.060816355 0.14259094 -0.082176074 -0.05372521 -0.06939446 -0.075105764 -0.057818115 0.14948747 -0.06894329 -0.0045229527 0.12723176 -0.101883195 -0.066488914 -0.038848463 -0.06355312 -0.025371956
내내 -0.060815163 -0.022951093 -0.077951804 -0.032394275 -0.057936944 -0.08029131 -0.07795777 -0.060010154 -0.0012587602 -0.023398 -0.049422197 -0.09176641 -0.06750051 0.0063345977 -0.103273794 -0.09187248
결말 -0.072340034 0.09336922 -0.02676171 -0.028319078 -0.054948635 -0.0931693 0.025603285 -0.05689549 -0.04255707 -0.066333875 -0.03332458 -0.10304874 -0.11971182 -0.045811344 -0.047867518 0.016350241
죽 0.056932367 -0.10125647 -0.0421755 0.018317075 0.07981857 0.02513291 -0.087737456 -0.09955109 0.010021861 -0.04712537 -0.10048681 -0.0242505 -0.10861735 0.034789056 -0.0023912396 -0.041588616
남자 -0.0636493 -0.088537194 -0.08277604 -0.038672876 -0.051095933 0.030303892 0.0501217 -0.0982522 -0.09945038 -0.040694524 -0.07345616 0.035156123 -0.084904954 0.12610127 0.021403573 -0.078473225
세요 -0.06488275 -0.09669756 -0.09215837 -0.059506536 -0.053165693 -0.021177266 -0.06472263 -0.0935739 -0.09280978 -0.042964034 -0.08327115 -0.09614831 -0.08968223 -0.04923603 -0.00859514 -0.06234502
전개 -0.052509762 -0.07831237 -0.08457022 -0.023489604 0.1276549 0.024807958 -0.07099228 0.073062345 -0.028226286 -0.042032503 -0.007816775 -0.07282131 -0.066033 -0.018581241 -0.07861817 -0.0697524
마음 -0.077055715 -0.088620655 0.10183357 0.048603468 -0.062421374 0.18367891 -0.08825441 -0.09697697 -0.08871708 0.15347676 0.00027360924 0.05238882 -0.08039831 0.1220732 -0.0913137 -0.09982108
소재 0.10123045 0.102559865 -0.07084105 -0.08021912 0.06475059 -0.01098561 -0.08201424 -0.049623713 0.119685866 -0.046000626 -0.07176486 -0.08805742 -0.07052012 -0.035052285 -0.068600476 -0.050723083
속 0.010267099 0.11608189 -0.08724926 -0.0804964 0.024117047 -0.04790937 -0.0791648 -0.0273888 -0.07764189 -0.014967412 -0.07547643 -0.08736091 -0.037712116 -0.031287417 -0.08587873 -0.0038974565
공포 -0.03584594 -0.084169015 -0.10942979 -0.080866285 0.010585041 -0.07720778 -0.09193656 0.054736786 0.06476931 -0.065676756 0.026542323 -0.10476869 -0.0868526 -0.04374221 -0.089244254 -0.08397783
아서 0.0025608863 -0.06322938 -0.08724971 -0.03838465 -0.052168444 0.048540324 -0.06792424 -0.06433597 -0.022100924 -0.062114995 -0.04918484 -0.081526406 -0.09079141 -0.03770871 -0.06234126 -0.071969405
다른 0.03934877 -0.050036907 -0.10648077 -0.030508934 0.009952097 -0.049057163 -0.06452325 -0.0612487 -0.06569622 -0.010703206 -0.06214274 0.069052406 -0.09258128 -0.04062712 0.063876346 -0.06123671
씨 -0.04941871 0.0023147473 -0.09901382 -0.06676325 -0.016328007 -0.084584415 0.0105340285 -0.032365058 -0.0471551 -0.075483575 -0.07082453 -0.11235863 0.06736938 -0.043244217 0.0053761546 -0.07911807
인생 -0.04220292 -0.107118964 -0.062300015 -0.06305257 -0.0734737 0.14708227 -0.00519258 -0.05153648 -0.027936054 0.07044999 -0.045201235 -0.04098939 -0.058876168 0.18967105 -0.07142103 -0.07169173
~~ -0.08086726 -0.09422002 0.09854778 -0.08460275 -0.06513726 0.05713032 -0.08413913 -0.104578085 -0.10027756 -0.07198671 -0.09686646 -0.10155806 -0.06132425 0.24196838 0.096157655 -0.085167475
짜증 -0.080037944 0.09705089 -0.08509082 0.16916639 -0.019261703 -0.07111909 -0.08472362 0.22821091 0.11369167 0.00167666 -0.042478245 -0.07744558 -0.07444273 -0.037271887 -0.052776985 -0.0459122
짱 -0.086261496 0.015355294 -0.09050055 -0.07999409 -0.07620882 -0.08526745 0.16206105 -0.12819655 -0.11207605 -0.049125884 -0.09613259 -0.042309787 -0.0015017559 -0.071835145 0.1543777 -0.1029874
뿐 -0.048460796 -0.07602535 -0.068993665 -0.036763776 0.10405478 -0.012739065 -0.06535563 -0.022315938 -0.044783197 -0.033319872 0.08859813 -0.08262418 -0.06413525 -0.042792525 -0.008457154 0.017934337
은데 -0.09810967 -0.04340115 -0.08997773 -0.026619105 -0.072188735 -0.09175092 -0.072369605 -0.021525523 -0.020519955 -0.0093699815 0.032485656 -0.026854375 -0.09553575 -0.040399015 0.122562975 0.028389158
별 0.05940325 0.024175497 -0.0917559 -0.04798464 0.082403675 -0.07669364 -0.06793432 0.010270767 -0.016725268 -0.03819281 -0.045017585 -0.09348256 -0.072859176 -0.040771645 -0.07873943 -0.033793043
아요 -0.07612981 -0.06184857 -0.11874246 -0.048114773 -0.07711694 -0.09097338 -0.040086944 -0.09300089 -0.110949025 0.24210057 -0.08935981 0.09057379 -0.09377662 -0.0374958 -0.069014125 -0.09423752
유치 -0.06712068 -0.06375316 -0.11137542 -0.04099139 -0.067054756 -0.08883281 0.02465174 0.084302746 0.029716428 -0.057936925 0.1340387 0.010289713 -0.09049021 -0.06630034 0.018351108 0.13848285
가장 -0.030463597 -0.07022467 0.07971487 -0.05763501 -0.056999408 0.02440118 -0.084203824 -0.06646403 -0.087279566 -0.0142025575 -0.054218933 -0.09680083 -0.021092117 -0.013263822 -0.041564893 -0.07133141
필요 -0.070182234 -0.08083089 0.12235076 -0.07544909 -0.07551945 -0.08409405 -0.07223848 0.15475708 -0.072759666 0.20389855 -0.010781121 0.16272321 -0.0021479859 0.030086765 0.05638882 -0.0986397
음악 -0.07336105 -0.075067356 -0.013205158 -0.043437153 -0.01825876 -0.08230802 0.15501615 -0.09654371 -0.107760474 0.1489 -0.092722125 -0.08653287 -0.07100456 -0.04543426 0.14275381 -0.07841114
) -0.07053052 -0.06592883 -0.0059308466 -0.050509207 -0.066647395 -0.062087845 -0.07205035 -0.08410548 -0.07376532 -0.0289272 -0.061949424 -0.020842217 -0.07872809 -0.05434678 -0.009880178 -0.091195375
일본 0.12039175 -0.07785245 -0.12052485 -0.06434235 -0.032951485 -0.09049579 -0.019534001 0.06780022 -0.093359075 -0.048205066 -0.032952238 0.012306954 -0.038588062 -0.03959412 0.02274468 -0.07310399
낮 -0.06239203 -0.03171718 0.23052423 0.015328084 -0.04856716 -0.09270391 0.09339056 -0.056540426 8.5773194e-05 -0.011375429 0.08108338 -0.10713063 0.16630597 -0.0064741685 -0.11050948 0.061023414
아이 -0.06345031 0.071617246 -0.07347222 -0.039231185 0.0148059 0.05372222 -0.020090332 -0.092487715 -0.10739833 0.18049976 -0.07316885 0.039175067 -0.07429066 0.053835932 -0.055488396 -0.07689123
;; -0.07520313 0.040641606 -0.11840458 0.021728614 0.009845427 -0.083337694 0.023709802 0.01544739 -0.06712181 -0.08539954 0.10462569 -0.08217713 -0.10340959 -0.070283264 -0.09985948 -0.07760432
오 -0.09966005 -0.006231789 0.0155879045 -0.06993026 0.07937837 -0.018315718 -0.024417633 -0.10252966 -0.04445551 -0.05569717 -0.09458916 -0.046075884 -0.04776164 0.069254264 -0.057021577 -0.081867546
반전 -0.07929918 -0.04806165 -0.058038518 -0.08788641 -0.067593716 -0.0070882533 -0.010747494 -0.09459888 -0.115084566 -0.044314433 -0.08413153 -0.035151854 -0.008548837 -0.049869306 0.016593855 -0.08794953
수준 -0.03669833 -0.04428603 -0.06916346 -0.014263832 -0.06250614 -0.09375836 -0.05223344 -0.053521242 0.024217656 -0.02388947 0.22326756 -0.10116784 -0.0754818 -0.0541068 0.04126583 0.068902135
다니 -0.0704031 -0.073712245 -0.10430496 -0.04124177 -0.03866026 -0.06702639 -0.06982091 0.1035033 -0.06708804 -0.04846418 -0.057887256 -0.0025566155 -0.06400018 -0.03599743 -0.08012386 -0.05716407
웃 0.060355995 -0.028938144 -0.07120339 -0.058948334 0.023376206 -0.069028914 0.13248879 0.000605232 -0.07405622 -0.0009372158 -0.0506659 -0.07972273 0.080237664 -0.04223911 -0.065537 -0.03333155
매력 -0.05563307 -0.07823753 0.014126784 -0.09948531 -0.08412133 0.16014796 -0.07049313 -0.09192846 -0.09577702 0.118521735 -0.08850126 0.0072923256 0.077937946 -0.040741768 -0.047067054 -0.008758242
맞 0.047269683 0.092027895 -0.100606255 -0.07047542 -0.04912668 -0.0800062 -0.014830065 0.04688696 -0.032922145 -0.04482187 -0.05645206 -0.079264514 -0.083155185 -0.03387747 -0.07365043 0.0873436
인지 -0.021405077 0.0763525 -0.07471686 -0.018534074 -0.028764503 -0.063689716 -0.06877123 -0.05700385 0.18069407 -0.045227874 -0.04386297 -0.08343647 -0.06601647 0.005625235 -0.061747342 -0.054732636
가슴 -0.040821396 -0.1115538 -0.05442425 -0.019897733 -0.018151078 -0.08762548 0.18358201 -0.029992657 -0.045095906 -0.014284085 -0.0052299774 -0.052725226 0.07439134 0.14762793 -0.04446575 -0.096930444
없이 -0.070140906 -0.07360939 0.0045066853 -0.02896889 -0.07645945 0.0050918125 0.0048441943 -0.08757674 -0.0065260115 0.098833494 -0.08269188 -0.051301576 0.020534646 -0.045124892 -0.060887728 -0.043589525
원작 -0.071780875 -0.05675433 -0.0873209 0.01505146 -0.004034564 -0.012186615 -0.073529914 -0.09718053 -0.018464604 -0.0625001 -0.0072028562 -0.09558176 -0.096258685 0.028797623 -0.09546951 0.094949044
ㄷ -0.011574495 -0.033320326 0.07883762 -0.010534793 -0.03636236 -0.09482423 -0.104106024 -0.044422526 -0.011036029 0.011171467 -0.018311271 -0.12607723 0.14753829 -0.02326527 -0.11404089 0.024172707
인간 -0.03380128 -0.063409224 0.1351925 -0.047899254 -0.053640693 0.10250289 0.043931264 -0.07553093 -0.07352625 -0.03785402 -0.067077115 -0.07591189 0.051448107 0.09011325 -0.09527133 -0.051670346
데 -0.053680897 -0.0676599 -0.022527665 -0.041838598 -0.029588146 -0.06060878 0.048218764 -0.02167952 -0.06738306 -0.008494974 0.030256376 -0.009332183 -0.07029373 -0.01594999 -0.06419058 -0.053705025
굿 -0.08736001 -0.0756333 0.16937178 -0.078322016 -0.07964385 0.026320554 -0.00095112325 -0.11626394 -0.11011888 0.2209327 -0.10122795 -0.05657793 0.1253998 0.07130338 0.19169334 -0.09726613
ㅠ -0.06057544 -0.089916766 0.09712434 -0.0038428465 -0.05672044 -0.08166527 0.056547478 -0.0876851 -0.07714302 -0.020420581 -0.06298859 -0.044724718 -0.073827386 -0.052785162 0.121274516 -0.08405447
높 -0.014219054 0.08152462 -0.10196389 -0.019655699 -0.06762219 -0.08026546 -0.09011103 -0.047676474 0.032225188 -0.06107469 -0.025585053 -0.091007814 -0.089372 -0.039119404 -0.054475788 -0.031625297
밋 -0.043554045 -0.07974246 -0.08972403 -0.055443946 -0.084632896 -0.06859333 0.123110406 -0.096931525 -0.11378436 0.13314499 -0.066851646 -0.05295154 0.06337615 -0.033951227 0.2523396 -0.08125679
( -0.080108024 -0.06416845 -0.045081746 -0.051238865 -0.054825604 -0.029990476 -0.06319618 -0.082616895 -0.08332792 -0.030337926 -0.030606559 0.02873649 -0.040996917 -0.056338776 0.0059914496 -0.06627215
만드 -0.022661306 -0.06395852 -0.07587068 0.027539434 -0.04611175 -0.086096175 -0.06349899 -0.08976063 -0.05749109 0.007294226 -0.05816148 -0.09371678 -0.062004685 -0.012859486 -0.083009064 -0.03751935
급 -0.0610884 -0.03813442 -0.06752395 -0.0643815 0.09734594 -0.07620702 0.08022615 -0.077480406 0.0694485 -0.043760817 -0.07906996 -0.033042368 -0.052092385 -0.05397179 -0.0032868106 0.06665642
눈물 -0.06878268 -0.05859475 -0.06402471 -0.006665206 -0.053082973 -0.061850697 0.09713244 -0.09349564 -0.08747276 -0.015816255 -0.08187994 0.019393537 -0.06898361 -0.058825478 0.29664165 -0.0065042446
보여 0.08980429 0.044559646 -0.074635625 -0.04316004 0.02005779 -0.07460955 -0.07818052 7.359497e-05 0.07621683 -0.0020391208 0.03000236 -0.091928184 -0.087327495 -0.040844597 -0.0781752 -0.0603515
준 -0.0687373 -0.08655401 0.044751547 -0.06641834 -0.050205648 -0.07404932 0.07846303 -0.08180395 0.012093111 -0.036405016 -0.025389742 -0.08587084 -0.085761115 -0.025788296 -0.07671239 -0.013267188
찍 0.0321295 0.062589765 -0.08357374 -0.02924344 0.097748905 -0.000831308 -0.07782634 -0.11918141 0.12973218 -0.0035459287 -0.086231746 -0.08398432 0.0543218 0.13722765 0.04703141 -0.07510274
인가 -0.04615879 0.021877486 -0.06826259 -0.018120216 -0.056611117 -0.061776977 -0.06576943 -0.053500984 -0.020952027 -0.0038961738 -0.057346415 -0.09591196 -0.07685997 -0.04069288 -0.07104246 0.07031487
노 0.18654133 0.12514411 -0.083790645 0.15830523 -0.078165665 -0.055464704 -0.080128364 0.10420828 -0.09036597 -0.020217916 0.1381169 -0.11753999 -0.03843947 0.08206622 -0.06973037 -0.06965451
을까 -0.039095066 -0.06222347 -0.07175175 -0.05682075 0.0110411085 -0.058439717 -0.0075607765 0.03161412 -0.05828028 0.052505225 -0.0695614 -0.09073354 -0.08339685 -0.045133274 -0.07792548 -0.01060363
용 0.06545691 0.13362609 -0.098423526 -0.086241275 -0.011221758 -0.08008635 -0.09158785 0.009435665 0.048214287 -0.05097131 -0.055290177 -0.10609976 -0.07039473 -0.013325457 -0.06842572 0.03369409
코미디 0.08228201 -0.08033555 -0.085793 -0.00893263 0.046013456 -0.08989632 -0.08591532 -0.091685265 -0.05822255 -0.052202657 0.031307098 -0.09863034 -0.08223587 -0.05082296 -0.09465883 -0.09042292
마 0.0566704 -0.09517691 -0.020635294 0.073500395 0.09671397 -0.03674908 -0.01666864 0.009780264 -0.10860206 0.066319674 -0.08704174 -0.114131495 0.045466818 0.03312536 -0.02042139 0.03579372
화 -0.07117056 -0.035876557 -0.07075381 -0.051077023 0.019081336 -0.052376706 -0.08523091 -0.042572998 0.039672315 -0.02625559 -0.076277085 -0.08000873 -0.08662015 -0.03929344 -0.08522749 -0.05714138
신 -0.06495401 -0.049763974 0.009055057 0.026872134 -0.07405268 0.08784472 0.00708157 -0.094582856 0.014272468 -0.039264068 -0.04466963 -0.071014896 -0.09117817 -0.046116155 0.03813004 -0.09666238
모든 -0.046678506 -0.0702573 -0.090486236 0.08032163 -0.07378451 -0.05866845 0.12430462 -0.071107864 -0.072435394 -0.0352471 -0.058422644 -0.05899933 -0.06961309 -0.007554938 -0.0052171806 -0.05731596
쓰 -0.037513208 0.118585765 -0.10670418 -0.09701001 0.023495596 -0.08525469 0.07689621 -0.066582486 0.07877043 0.00026006103 0.081138484 -0.10768714 0.010796539 -0.030528815 -0.078457184 -0.0319549
여 0.030990995 0.013828077 -0.07940262 -0.05217396 -0.06460094 -0.025008682 -0.07495607 0.011994827 0.00056307827 -0.057310667 -0.08349894 -0.11182327 -0.07207878 -0.04937819 -0.038321853 0.003056134
5 -0.062241178 -0.010342696 -0.10438401 0.062802285 -0.048150964 -0.033654064 0.109757416 -0.047202744 -0.031096846 0.0036792958 -0.044963114 0.08787534 -0.08478428 -0.028653098 -0.059738934 0.031790286
아직 -0.021220468 -0.025551341 -0.11548654 -0.05233656 0.0091704 -0.03393064 -0.07819768 -0.053060424 -0.043519326 -0.0434327 0.07072742 -0.10378761 -0.10913466 0.009962518 0.22900665 -0.028021934
추천 -0.021654997 -0.088291556 -0.11087672 -0.051043235 -0.026699835 -0.06623284 -0.08222649 -0.10107222 -0.102611266 0.002651458 -0.019198127 0.17348741 -0.09960516 -0.044338945 -0.09972056 -0.05991263
처럼 0.0131476885 -0.04779 -0.09851374 -0.040591117 -0.027426584 -0.0030299076 -0.038418587 -0.07966166 -0.08619654 -0.022991003 -0.059736874 -0.023204615 -0.06958611 -0.057831574 -0.07304711 -0.08148753
눈 -0.05177219 -0.03205486 -0.08655754 0.038144175 -5.0514398e-05 -0.093454555 -0.08100337 -0.05430436 -0.029758941 -0.034903556 0.014968799 -0.034566496 -0.085854396 -0.040797796 -0.08496005 -0.041015998
아닌 0.08871165 0.048717108 -0.0962629 -0.048616983 0.098838516 -0.08103557 -0.07799403 -0.06068942 0.0059748325 -0.03352087 0.05390772 -0.116835006 -0.082867 -0.035398867 -0.094502866 -0.032774232
자체 -0.023647165 0.01900544 -0.10947725 -0.07463212 -0.031551957 -0.07819512 -0.07986345 -0.053052828 -0.057966344 0.14746338 -0.071506366 -0.09972848 0.027123868 -0.042487826 -0.08655003 -0.004648935
울 -0.05825467 -0.05998205 -0.08262599 0.0064034318 -0.07002587 0.028491523 -0.0062384075 -0.019696917 -0.07801758 0.13139418 -0.07199272 0.062332865 0.18350472 0.14696245 0.15177032 -0.08817194
몰입 -0.046030294 -0.06778967 -0.06043072 -0.041817863 -0.06919792 -0.033379823 -0.059605382 -0.08506765 -0.0844983 -0.011580586 -0.065261476 -0.032332744 -0.050364684 -0.027827905 -0.06406439 -0.053252466
4 0.0569672 0.003853125 -0.0700706 0.056660973 -0.015256279 -0.07817061 -0.08761473 0.046033803 0.069405176 -0.049830418 -0.060145818 -0.08405298 -0.07409579 -0.032436617 -0.079503156 -0.003310019
대박 0.04956738 0.027595956 0.14921649 -0.05140035 -0.039373692 -0.016763646 0.045647334 -0.051003914 -0.10889521 0.1133496 -0.065973 -0.08187804 0.12464527 -0.061938163 0.12923175 -0.069427654
몇 -0.063047126 -0.05256289 -0.04940661 0.0093977535 -0.042973198 0.020912519 -0.014906246 -0.10363078 -0.09920728 -0.034574617 -0.047828786 -0.07043024 -0.016082702 0.054750413 0.01341497 0.011418957
스럽 -0.0737221 -0.064759985 -0.08952778 -0.048721105 -0.06283799 -0.07646727 -0.0797502 0.037715383 -0.008929363 -0.055270463 0.02561637 -0.085321225 -0.08063043 -0.014035762 -0.079820186 -0.027939543
실망 -0.067757905 -0.059843175 -0.1017375 0.25187153 0.0848969 -0.08457548 -0.08849328 -0.04832116 0.0967405 -0.0056146113 0.2495899 -0.10949109 -0.07298027 -0.041954737 -0.07837113 -0.08304783
는다 0.03404629 0.0133867655 -0.08479611 -0.05044048 0.034114867 -0.08361162 -0.077806994 -0.06882262 -0.087270476 -0.03359785 0.10428332 -0.07635301 -0.086924165 -0.056754585 -0.08099021 -0.067565665
대한 -0.055071767 -0.063772626 0.06282334 -0.06777996 -0.06494992 0.121724844 0.15686814 -0.07288725 -0.06566151 0.13256718 -0.043986112 -0.07803256 -0.07193179 -0.03500226 -0.069552355 -0.066617206
죠 -0.07577104 -0.09024312 -0.06980958 -0.082780346 -0.072222985 0.10643877 0.12453318 -0.08803812 -0.09238779 0.13410448 -0.044525113 0.06482584 -0.03617533 0.026720457 -0.020378472 -0.016470924
란 -0.06801798 -0.08843731 -0.06879871 -0.06621862 -0.072039865 -0.056048267 -0.052741017 -0.06467814 -0.048429187 -0.02738761 -0.052011523 -0.076723024 -0.082935795 -0.035634674 -0.021144994 -0.0898957
그런 0.024318844 -0.0048603183 -0.103013165 -0.0390054 0.0010765027 -0.09948053 -0.0664686 -0.006913892 -0.012979575 -0.01908653 0.052885853 -0.08315331 -0.097639136 -0.018426295 -0.073545784 -0.0070170606
솔직히 -0.046945613 -0.024531154 -0.09479284 0.055689763 -0.07408176 -0.08270789 -0.08647026 -0.09241542 -0.09027872 -0.050077327 0.023197824 -0.09584523 -0.08183359 -0.0014623391 -0.09934755 0.046687245
캐릭터 -0.059631184 -0.059640836 -0.0877476 -0.08331103 -0.044520248 -0.006622304 -0.07386791 -0.07966119 -0.06451955 -0.038374163 -0.062393766 -0.08494079 -0.027565567 -0.044706058 -0.025961347 -0.08944202
ㅎ -0.04583167 -0.03475188 -0.1371704 -0.08282693 0.020310758 -0.095318176 -0.09812295 -0.03496119 -0.059164535 -0.07790824 -0.04534909 -0.00546206 0.08711771 -0.05239181 0.021604028 -0.044449497
모두 -0.054644607 -0.08057366 0.04744864 -0.06509805 -0.04543058 -0.035472844 -0.019819755 -0.086281165 -0.07629857 -0.043330062 -0.07726132 -0.080876656 -0.068670735 -0.03679563 -0.024468176 -0.05617346
아주 -0.06447444 -0.09175709 -0.070885964 -0.06680282 -0.049602702 0.09052728 0.07045848 -0.10467327 -0.10935677 0.12959787 -0.09261668 -0.05954256 -0.082919426 0.024640774 -0.08534582 -0.09920526
- 0.048884243 0.029042674 -0.111861214 -0.061977107 -0.048623826 -0.08874864 -0.08526931 -0.08975888 -0.020205269 -0.052502744 -0.06630844 -0.10343268 -0.0072842417 -0.043784134 -0.095968045 0.033930246
가족 -0.07166352 -0.06895002 -0.08451652 -0.048200216 -0.07140982 -0.046200786 -0.074477986 -0.08413977 -0.09008579 -0.0034319393 -0.07858703 -0.043392133 0.0024531765 0.19675459 0.16931075 -0.07612347
여운 -0.048418194 -0.06899749 0.10259056 -0.044304695 -0.07158926 0.20172584 0.0909168 -0.106089056 -0.09569517 0.012989442 -0.08079474 0.021360192 -0.07190146 -0.03912407 0.20974569 -0.046352495
건지 0.114167064 -0.015540981 -0.09410443 -0.04451522 0.12747185 -0.08087163 -0.08221603 -0.040725894 0.002396362 -0.04558622 0.07423894 -0.0972739 -0.07317006 -0.03334993 -0.06482589 -0.014990623
전혀 -0.036096264 0.14103952 -0.080524296 -0.0013113274 -0.05170367 -0.08506094 0.073050916 -0.013133464 -0.08706079 0.09538137 0.034975827 0.06223833 -0.09219879 0.00210125 -0.0429259 0.09353435
연기력 -0.0868451 -0.039624028 -0.07818538 -0.058166757 -0.07463736 -0.057161354 -0.025652925 -0.037823256 -0.081266 -0.03685702 0.0021992386 -0.08422546 -0.029335009 -0.03970343 -0.054473676 -0.08872114
나라 0.06716253 -0.06566743 -0.10150729 -0.05465689 -0.053263955 -0.010078697 -0.04447304 -0.06802194 -0.0685007 -0.020013116 -0.033620175 -0.07952275 -0.06993505 -0.04510702 0.026297305 -0.02602268
후 -0.053840805 -0.0146417925 0.03732744 0.012402204 -0.047265742 -0.08575958 0.04502211 0.034834124 -0.0656942 -0.06778965 -0.058768805 -0.090635985 0.0331645 0.009046602 -0.08740837 -0.06633501
될 -0.060904406 -0.06667864 -0.06769926 -0.06741851 -0.06124323 -0.08347052 -0.06020684 -0.07534046 -0.070950426 -0.06340856 -0.07125015 -0.09039147 -0.07208869 0.1631973 -0.093172796 -0.02612112
다면 -0.06677368 -0.056742415 -0.074219204 -0.04586958 -0.040790237 0.004860757 0.04184209 -0.098289035 -0.049667977 -0.046674617 -0.051103223 -0.06310751 -0.07375406 -0.027820243 -0.0624991 -0.054604035
뭔가 -0.04028752 0.036140643 -0.07802184 -0.048289403 0.0038559271 -0.06259672 -0.06429485 -0.084748484 -0.06064025 0.004379874 0.014031235 -0.08273811 -0.069822624 -0.029119171 -0.09179723 -0.068080805
그래도 -0.033709295 -0.0583593 -0.009021561 -0.054546565 -0.05527116 -0.06319036 -0.08025635 -0.06727255 -0.08382871 -0.05675141 -0.055247907 -0.02721203 0.046855934 0.29374886 0.13339148 -0.047748536
; 0.06231027 -0.016225042 -0.11061312 0.0074333064 0.036693454 -0.085437834 -0.08420317 -0.02423214 -0.008450736 0.056521352 0.068070285 -0.10177904 0.05442772 -0.069285065 -0.05084127 -0.013584519
시리즈 -0.087377265 0.028403014 -0.067980446 -0.020445382 0.08742781 -0.012217383 0.13036104 -0.050405648 -0.038418286 -0.027814817 -0.024417315 -0.073156066 -0.06818863 0.057573456 0.16838573 -0.063219264
근데 -0.06836797 -0.077881515 0.014096269 -0.05787676 -0.030176045 -0.033243738 0.024552958 0.08106482 -0.061079748 -0.016037881 -0.060015563 -0.08443927 -0.0878833 -0.024169123 -0.0424663 -0.05561897
작 0.04830467 0.07404196 -0.06331444 0.006423392 -0.06380843 -0.069852665 -0.061147243 -0.07107338 0.038459633 -0.03290511 -0.018263262 -0.0825889 -0.08260463 -0.030359693 -0.065383404 0.031193938
표현 -0.02908772 -0.07760224 -0.093994945 -0.020286899 0.0020131469 -0.0710745 -0.093576774 -0.06109866 -0.058355745 -0.049988016 0.041600138 -0.07846818 0.05429528 0.0839123 0.18980607 -0.07022246
모습 0.026288344 -0.07436068 -0.06442307 0.016019985 -0.055169724 -0.06042008 0.034234226 -0.04518134 0.009677487 -0.029511059 0.010416972 0.15758836 -0.07176692 -0.035319313 -0.055185962 0.021832287
공감 -0.07431289 -0.067931324 -0.068979986 -0.08714269 -0.068205036 -0.049684703 -0.04517732 -0.09771341 -0.10890436 0.05063726 -0.08795771 -0.044229373 -0.007216123 0.025286919 0.029840486 -0.093590476
계속 -0.07187125 -0.052272916 -0.0967202 -0.028551808 -0.036941264 -0.0496419 0.1692317 -0.08056587 -0.07321543 -0.021796336 0.011732186 0.049569096 0.015250559 -0.057480723 -0.07651961 -0.07525392
먹 -0.079381704 0.10863485 -0.10011308 -0.053367108 0.0032820015 -0.055275932 -0.070208594 -0.012529462 -0.098190725 -0.034644436 -0.027949197 0.060206123 -0.07372415 -0.018623104 -0.08019326 -0.05797053
"" -0.003109579 -0.070134535 -0.0455389 0.014792957 0.09490059 -0.0198201 -0.060577255 0.040287018 0.1299763 0.084051184 -0.070547596 -0.04301473 -0.062320407 -0.039863788 -0.029315414 -0.0053695845
제목 0.029271962 -0.06280933 -0.09578367 -0.029728075 -0.052124765 -0.07865884 -0.08459985 -0.043346383 0.09500395 -0.04879588 0.047992982 -0.10556428 -0.08773725 -0.05516795 -0.08428432 0.026856394
7 0.015526033 -0.062391013 0.08286472 -0.03656693 -0.063634165 -0.07768225 0.056308743 0.0555005 -0.054672986 -0.028531313 -0.0665696 0.06824904 -0.05537372 -0.049858734 0.071442895 -0.051774956
이랑 0.00458003 0.0078993 -0.03371776 -0.053005572 -0.04821573 -0.070990436 -0.043412752 0.026332298 -0.010178312 0.08723446 -0.07862174 -0.08339343 -0.08381379 -0.04050024 -0.041783668 -0.06656981
극장 0.06610661 0.03294153 -0.072836764 0.024041945 0.0018370484 -0.0151892835 -0.060493767 -0.08512962 -0.064259045 -0.05774335 0.058455557 -0.07970265 -0.095373265 -0.029508008 -0.0944681 0.028671674
치 -0.032760162 -0.06940607 -0.10001098 0.11180774 -0.04268935 -0.025589896 -0.022616465 0.03376145 -0.056967236 -0.035155047 0.03805395 -0.09463922 -0.01790103 -0.014022361 -0.08367005 -0.09169671
비 -0.07249246 -0.040713444 -0.10806964 -0.031182274 -0.06241744 -0.079295844 -0.08633918 -0.04836732 0.15168472 -0.037518166 -0.06851513 -0.024658134 -0.106303036 -0.048230805 -0.097509295 -0.0887744
이걸 0.08599225 0.11408666 -0.07930892 0.028222542 0.00484061 -0.07457294 -0.075863674 -0.030125298 0.0130756125 -0.020256536 -0.046992343 -0.090306595 -0.09370021 -0.042349935 -0.073338516 0.06511615
진 -0.046778977 0.04390947 0.019561004 -0.04598354 -0.06411196 -0.05279566 -0.09022999 -0.06426131 -0.08216347 -0.018038534 -0.08498392 -0.084915966 -0.07952693 -0.053566664 0.12605962 -0.07082681
바 -0.038208812 -0.030458638 -0.06285417 0.108302966 0.16326888 -0.06444031 -0.050259117 -0.06925117 0.14667664 -0.042225793 0.0043905876 -0.084963225 -0.073450595 -0.04875708 -0.05825463 -0.004507644
대사 -0.040201865 -0.060719147 -0.061505217 -0.046296217 -0.0673869 -0.034055684 -0.053456295 -0.068813525 -0.074054055 0.08747422 -0.046566356 -0.07080265 -0.060409226 0.021116406 -0.06328362 -0.043865696
부분 -0.065380804 -0.044169717 -0.072492436 0.06719183 -0.06671175 -0.043052506 -0.061099082 -0.05659561 0.0897125 -0.048343815 0.013228969 -0.08202792 -0.06731392 -0.03667972 -0.07338083 -0.07034149
그렇 0.021493254 0.017979473 -0.08994107 -0.040775016 0.023888782 -0.052046128 -0.050018296 0.06520286 0.006711472 -0.024573531 -0.040784735 -0.083160944 -0.06599046 -0.025464114 -0.07028792 0.07768155
개봉 -0.07635724 0.079507574 -0.078453824 0.09473366 -0.011122312 -0.05526528 -0.076097496 0.016651046 -0.06415349 0.028666025 0.0064785783 -0.1019148 -0.097338796 -0.036883295 -0.08164419 0.040587515
0 0.19383194 0.066726916 -0.085399315 -0.06439511 -0.05248085 -0.054143317 -0.0769302 -0.06468749 -0.05271403 -0.047927536 -0.07551967 -0.08110561 -0.08111838 -0.031945318 -0.069971405 0.1483082
OO -0.06796417 -0.06777925 -0.098385096 0.026524443 -0.026555456 -0.085514694 -0.032241587 0.08309184 -0.09396844 0.058285747 0.03302891 -0.092537425 -0.05923485 -0.05343969 -0.097079076 -0.015721112
대단 -0.052981902 -0.0820762 0.16119388 -0.06400653 -0.04554497 -0.078237616 -0.08631988 -0.06704026 -0.07285557 0.18204604 -0.087724715 0.02099366 -0.061516065 0.009735356 -0.05625319 -0.07177838
어디 -0.043727256 -0.033018705 -0.023628032 -0.020971788 -0.065576784 -0.08458403 -0.08600715 -0.078359306 0.047779623 -0.029992545 -0.032054063 -0.11447498 -0.00017748692 0.046455424 -0.104809135 -0.00094251445
작가 0.15485135 -0.074356034 -0.06857379 0.023441644 0.1787456 -0.061545778 0.020782461 -0.04382662 -0.05747087 -0.030068481 -0.047667928 0.020068154 0.049921803 -0.031040454 0.05689975 -0.049710132
된다 -0.006136838 0.0033992429 -0.09586326 -0.026699787 -0.04559722 -0.048483342 -0.05848931 -0.04762652 -0.03456024 0.0052207396 -0.0010982668 -0.09286961 0.0018889303 -0.036908887 -0.10138064 -0.0028534334
아쉽 0.03510145 0.02848577 0.027318344 -0.03428247 -0.014826896 0.09352497 -0.008179755 0.054012895 -0.0032915398 0.17856751 -0.05491845 0.007971042 0.051461563 -0.031352714 -0.09122635 0.008480814
기분 -0.010403367 0.021367008 -0.07821477 -0.03449054 -0.017731408 -0.048996314 -0.096014574 -0.06161119 -0.060537346 0.13717493 -0.03953856 -0.095984384 -0.08882169 -0.042410973 -0.08637979 0.021747606
제 -0.08802739 0.015557483 -0.022477789 -0.07398132 -0.07706114 0.011518371 -0.08123085 -0.025021568 -0.08938143 -0.0012822285 -0.07033486 -0.037390426 -0.020122563 -0.026793677 -0.052812207 -0.08539849
진심 -0.017977336 -0.07037665 -0.11714154 -0.036688916 -0.03606871 -0.033003494 -0.04697717 -0.08255111 -0.06523615 0.012848958 -0.04026667 -0.07139113 -0.114965014 -0.046843257 -0.100993164 -0.022252548
타임 -0.055092335 -0.043977644 -0.055194065 -0.09161276 -0.014788425 -0.0505212 -0.050820723 0.031096868 0.05500413 0.06815056 -0.05004211 0.030211281 -0.07221216 -0.013062224 -0.0643057 -0.046275426
/ -0.036903583 0.031382132 -0.10214027 -0.041370627 -0.045647893 -0.06950575 -0.050136417 -0.078532994 0.07434549 -0.055767566 0.017400477 -0.10515483 -0.05806562 -0.049447853 -0.060978226 0.0663649
웃기 -0.040408578 -0.0025166532 -0.12500693 -0.061505746 -0.0052079777 0.022966962 0.0022241788 -0.11528081 -0.10869387 -0.049279615 -0.07106246 -0.079533495 -0.061186343 -0.04976039 0.047811512 -0.09417016
보이 -0.063983575 0.025881212 -0.060717512 0.12373772 -0.067647114 -0.00633311 0.012723047 -0.08420264 -0.022031387 -0.022903336 0.024379931 0.059851523 -0.08309803 -0.060629845 -0.058288112 0.0032604956
놓 -0.043005873 -0.05899287 -0.07028171 -0.057013758 -0.04354062 -0.062157083 -0.061589256 -0.06308947 -0.05367447 0.022277445 -0.048449427 -0.08385327 -0.060445577 0.010389247 -0.0641164 -0.05593726
해도 -0.047739685 -0.0800594 -0.016597027 -0.045332346 0.09250342 0.008265679 -0.089474216 -0.053492785 0.16806781 0.004129461 -0.08198537 -0.015508986 0.01657926 -0.042155396 -0.087555535 -0.04183245
이제 -0.018087838 -0.04775239 -0.08637678 -0.028949516 0.018415995 -0.07564123 -0.06279492 -0.035426084 -0.012215384 -0.005338195 -0.0054567205 -0.08285801 -0.07408663 -0.057448328 -0.07807851 0.026388878
물 0.0034186842 0.063527666 -0.09410379 -0.0088130105 -0.0051185545 -0.081135474 -0.08215469 -0.06446711 -0.07237041 0.0004187108 -0.046426747 -0.10056539 -0.07147282 -0.038408853 -0.08591254 -0.042200517
봐야 -0.066091046 -0.06523985 0.16560042 -0.06600155 -0.060160648 -0.084594116 -0.08387169 -0.060857285 -0.089328334 0.07592993 0.0066461894 -0.09878632 0.084192954 0.00015674891 -0.016275391 -0.04602821
막장 0.23156764 -0.093566805 0.071132846 -0.10470654 -0.07804429 -0.036338955 -0.01955677 -0.058510624 -0.114518136 0.01912731 0.11972202 0.07314071 -0.00686285 0.045129415 -0.054105677 -0.09401517
삶 -0.07106219 -0.010072259 -0.08101236 0.019350078 -0.03987584 0.15275928 0.0056004315 -0.056230746 -0.07800231 -0.052900765 0.10851046 -0.08357894 -0.060221244 0.18684162 0.26719496 0.008278579
친구 -0.016028022 -0.038591474 0.008815134 -0.043868937 -0.03689326 0.059512105 -0.001530416 0.032086927 -0.098475926 0.01809738 -0.070029825 -0.053042866 -0.060335636 -0.029486561 -0.047890924 0.040154446
잔잔 -0.06343033 -0.08905891 -0.044838738 -0.047557425 -0.06333082 -0.0015281778 0.010681345 -0.0961222 -0.10111901 -0.0031363969 -0.07529776 -0.064651124 -0.091872446 -0.025742173 0.11124162 -0.0998768
조금 -0.06559624 -0.087984614 -0.026161822 -0.04306094 -0.06485685 0.0022873096 0.14601588 -0.07458377 -0.06794507 -0.048617993 0.016766483 -0.0851899 0.1174064 -0.028472848 -0.07411436 0.008222223
씬 0.013663716 -0.05498834 -0.06422934 -0.05038104 -0.055047713 -0.055322286 -0.046979036 -0.08713993 -0.094029136 -0.020998897 -0.06737148 0.07133046 -0.05988078 -0.05744473 0.0027884084 -0.019049613
딱 -0.06861984 0.22950923 -0.10978891 0.093744785 -0.049928114 -0.08329616 -0.086189 -0.055387698 -0.087463126 -0.040260576 -0.077084236 -0.08965222 0.06320705 -0.037358813 -0.07322244 -0.05558302
영상 0.0025003522 -0.011475025 -0.08090738 -0.084750935 -0.019176876 -0.06908611 -0.011401675 -0.10111191 0.011176322 0.011967642 0.02480193 -0.057225358 -0.024841124 0.17477265 -0.10037073 0.034402728
억지 0.07196567 -0.060412966 -0.099672824 -0.045303166 -0.061888255 -0.069989555 -0.054553058 -0.010982146 0.0024295093 -0.019278817 0.06664784 -0.080611415 -0.07894619 -0.010769729 -0.08989891 0.21079476
찾 -0.06403573 -0.071022175 -0.0888531 -0.04645423 -0.05895391 -0.044537384 -0.041989416 -0.05690243 -0.1012491 -0.025868805 -0.04602535 -0.07273234 -0.06693869 -0.023712793 -0.07622633 -0.06876355
요즘 -0.025973115 -0.006089107 0.1642619 -0.013345778 -0.042216286 -0.03533238 -0.071124874 -0.022193197 -0.033297595 -0.032572642 -0.054956313 0.17664002 -0.03466238 -0.016897619 -0.10204671 -0.037864577
같이 -0.009602588 -0.0945682 -0.07017793 0.118595704 -0.06605253 -0.017955447 -0.025238972 -0.08933739 -0.101072 -0.013897857 -0.067416534 -0.07329784 -0.041100085 0.025024723 -0.07299419 -0.04063841
중간 0.031383317 -0.048462138 -0.07527381 0.046161767 0.04118546 -0.04184009 0.012021681 -0.06747953 -0.1007457 -0.043532122 -0.05611582 -0.09460198 -0.06114262 -0.028093299 -0.06697088 0.0331646
" -0.018343275 -0.057931077 -0.0020973047 -0.016754353 0.030881548 -0.011485145 -0.048875477 -0.0901292 -0.09096026 -0.035814665 -0.054571513 0.08439407 -0.027967447 -0.049957372 0.118385516 -0.042799097
구 0.049822297 -0.061379083 -0.08216485 -0.063178025 0.0036592076 -0.04669388 -0.06830869 -0.09323367 -0.08806946 -0.037252177 0.0632342 -0.043191224 -0.07781568 -0.044013128 -0.07640399 0.0029640766
라도 0.04837556 0.02606401 -0.07166451 0.004121174 -0.028969394 -0.05498506 -0.037524037 -0.057879366 0.0075703827 -0.012705721 -0.03308231 -0.071279176 -0.0618129 0.0693899 -0.04442363 0.012971656
스릴러 -0.07578399 0.023345424 -0.07041416 -0.105014235 0.024115857 -0.07396281 -0.06650581 -0.099591546 -0.110247076 -0.045566596 -0.07064356 -0.094930276 -0.0845819 -0.035290524 -0.068187684 0.00019805922
가지 -0.032981433 -0.06061429 -0.067740925 -0.03230508 -0.051471844 -0.053969588 -0.05690392 0.10032888 -0.022141648 -0.031933606 -0.009974968 0.0025536562 -0.0035894038 -0.021384085 -0.05717081 -0.048296098
8 0.036947902 -0.073424496 0.05711522 -0.046895694 -0.052820105 -0.041543607 -0.05886892 0.013408709 0.062381137 0.07655254 -0.048567224 0.18587504 0.05133707 0.009056246 -0.03177517 -0.028838279
믿 -0.05235536 -0.08224445 0.18671943 -0.06961046 -0.055419907 -0.054158796 -0.062376413 -0.015581375 -0.10314138 -0.017532963 -0.05610605 -0.074037686 -0.07177038 -0.04849973 -0.05280853 -0.06133163
싫 0.085389756 0.17146023 -0.090391256 -0.03113199 0.10224222 -0.059601486 -0.058142122 0.027629202 0.02334678 -0.04426229 0.021769676 -0.084372945 -0.10591084 -0.022115791 -0.075354524 -0.01742384
.... -0.09313097 -0.08502628 -0.062669404 0.034689896 0.13411164 -0.07428017 -0.043783676 0.08713781 -0.009062286 0.035743292 0.011949028 -0.09597096 -0.089035764 -0.050460454 -0.063485995 -0.0021005147
나왔 -0.07652128 0.017413162 0.022072095 0.025409313 0.012994122 -0.062205512 -0.059472874 -0.01807124 -0.06497626 -0.025005216 0.014855338 -0.01986605 -0.028108915 0.08008253 -0.0709845 -0.06566443
아까운 0.09283098 0.08662777 -0.07395777 0.12702666 0.15778191 -0.0791263 -0.073079854 0.05768879 0.06557576 -0.009701569 -0.030057814 -0.09286396 -0.072906695 0.0051400186 -0.08713592 -0.012806179
긴장감 -0.059218492 -0.08057086 -0.074491255 -0.041852184 -0.05833887 -0.07041255 0.007361253 -0.08295086 -0.05704827 0.07378083 -0.077166885 -0.08749546 -0.0055667814 0.12671277 -0.058335863 -0.050900463
점수 -0.00476078 -0.06164397 -0.09594512 0.002796498 0.012318705 -0.08809191 -0.07685412 -0.07438529 -0.034823056 0.036546294 0.08027539 -0.023152374 -0.09302041 -0.04070549 -0.077508986 0.06523597
개인 -0.04162453 -0.068636775 -0.06120143 -0.046380073 -0.06573431 -0.03871398 0.013653945 -0.09145357 -0.05307293 0.08414897 -0.081858054 -0.07451226 0.16249798 -0.04485507 -0.060130194 -0.04050104
제대로 -0.05474834 -0.05394125 -0.0746243 -0.03098246 -0.036258582 -0.05402631 -0.069040865 -0.08144435 -0.04617477 0.06170335 -0.067464195 0.04291954 -0.06951949 -0.037017174 -0.023247039 -0.06891226
부족 0.070291735 -0.022935752 -0.07490346 -0.04039289 0.096145205 -0.07731402 -0.060250293 0.030932337 0.005677848 -0.05738005 0.10428198 -0.07211693 -0.06740607 -0.05029552 -0.062016685 0.13214396
이유 -0.071692295 0.02034265 -0.042801075 -0.024098998 -0.06131697 -0.07546567 -0.062361855 0.011940817 0.005149669 -0.06913291 -0.053507764 -0.05859377 -0.06420582 -0.033538252 -0.066126876 0.008330493
노래 -0.06389132 0.0010998021 -0.0014222378 0.027673129 -0.062391486 -0.088162035 -0.010483947 -0.09467765 -0.10045362 -0.040701985 -0.05501338 -0.112130105 0.10164687 0.0049693445 0.030983958 0.01096913
만큼 -0.051878564 -0.089395136 0.021608166 0.03561478 -0.012782664 -0.061434057 0.026176758 -0.041733462 0.045433138 -0.044480927 -0.017740974 -0.008267822 -0.07053411 0.0012502453 -0.06253942 -0.023023134
라면 -0.06214535 -0.08242787 -0.065774724 -0.057999767 0.028913662 -0.032192107 -0.07392992 -0.063040935 -0.08032842 -0.05391529 -0.057217356 -0.080768265 -0.06935101 0.017296162 -0.071319096 -0.08639932
시작 -0.089426674 -0.0830846 -0.04165588 -0.09689451 -0.059270382 -0.044128187 -0.04682864 -0.10464339 -0.10233358 0.021464135 -0.07011257 -0.022048535 -0.04536119 0.00871258 -0.053054005 -0.0775233
구나 0.14610319 0.038795013 -0.089734636 -0.091041565 0.046280343 -0.074012294 -0.060260624 -0.11476822 0.062444124 -0.048995316 -0.10321392 -0.04720098 -0.008727681 0.05908509 0.06065472 -0.09240281
잇 -0.05444975 -0.085299745 0.00846854 -0.040898316 -0.0012026903 0.06750203 -0.068364374 -0.09775275 -0.100487664 0.03473216 -0.0860813 0.032684404 -0.06496891 -0.012632463 0.08409839 -0.09582744
특히 -0.058897234 -0.010593506 0.06503655 -0.04699306 -0.038704567 0.013164235 0.14604901 -0.067126155 -0.0005252552 -0.031082483 -0.04384555 -0.0887555 -0.05787226 -0.04359895 -0.057341658 -0.0407631
한테 -0.068112336 -0.06365167 -0.073072605 -0.06774288 -0.045815952 -0.061189093 -0.05019976 -0.04369318 0.06326981 -0.012193418 -0.050879404 -0.03328122 0.051138792 -0.04075388 -0.010767269 -0.06291542
날 -0.07337617 -0.068557665 -0.038883 -0.025503987 -0.0443379 0.059965137 -0.06655808 -0.016720358 -0.088546455 -0.034596886 -0.02360484 -0.051021595 -0.0019524832 -0.043666482 -0.059458315 -0.08107205
려고 0.112759724 0.053599507 -0.06750301 -0.040012628 0.09365449 -0.056424357 -0.06883958 -0.0042159935 -0.035726547 -0.017675389 -0.026730299 -0.072954826 0.02137011 -0.026912525 0.087686524 -0.024383921
제일 -0.06540369 -0.061999425 -0.09084281 -0.026806135 -0.03785577 -0.08238955 0.028159602 -0.069752775 -0.08814129 0.018064316 -0.029328043 -0.077056356 -0.07775769 -0.035914887 -0.06264128 -0.049461305
아름다운 -0.049296502 -0.065909564 0.06275675 -0.044684388 -0.04074026 0.07687432 0.14323246 -0.08280653 -0.10437059 -0.044089057 -0.064764336 0.027504617 0.07937989 0.016751502 0.25906098 -0.039907634
시대 -0.087795764 -0.024941577 -0.10120807 -0.073677495 0.0077998787 0.086366855 -0.06408555 -0.06719363 -0.029900122 0.21329921 0.011917629 -0.084439434 0.08090167 -0.015510212 -0.054352887 -0.10008896
ㅜㅜ -0.08577191 -0.088676386 -0.01672066 -0.068259746 -0.048760038 -0.0523727 0.059661686 -0.10203144 -0.105486035 -0.066053085 -0.08892121 -0.0752307 -0.08309005 0.1101644 0.04554616 -0.08029093
어떻게 -0.016987547 -0.00700468 -0.07754826 -0.063400336 0.027467 -0.052032087 -0.06513033 -0.020613186 0.032478232 0.018002542 -0.036754258 -0.0886243 -0.06409672 -0.035623115 -0.05728287 0.027361985
엔딩 -0.038789228 -0.06675154 -0.10008807 -0.01922503 0.011738175 -0.056891393 -0.08403696 -0.028816212 -0.11437766 -0.021434804 -0.070205964 -0.082787044 0.057414684 -0.03429646 0.013604212 -0.078523286
당시 0.019425431 0.05514067 -0.1044442 -0.068925425 -0.047895312 -0.0679308 -0.089031585 -0.1193902 -0.11761414 -0.06735256 -0.0007172416 -0.08820989 -0.09558095 -0.044110384 -0.041642748 0.023538323
하지만 0.06359285 -0.0698539 0.14825416 -0.041102275 0.04958906 -0.06034307 -0.05571633 0.06541829 -0.047610555 -0.037098777 -0.059351668 -0.081474215 -0.054610536 -0.046777386 -0.08109275 0.045111496
나름 -0.06633326 -0.08334077 0.03439572 -0.055857662 -0.03781024 0.027624626 -0.068163 -0.092545696 -0.10461763 -0.04858306 -0.08015938 -0.04115627 0.04687008 -0.023442008 0.09315955 -0.08867144
봐 0.10533537 -0.07826817 -0.08971011 -0.05859398 -0.064960234 -0.06869162 -0.075491846 -0.09227757 -0.09792907 -0.023035035 -0.06630145 -0.017108282 0.010028701 -0.0444677 0.010615802 -0.003866405
무섭 -0.0862421 0.07961165 -0.01867492 0.07125257 -0.07338739 -0.09430173 -0.06213154 -0.11173911 0.0324736 0.062543854 -0.08717462 -0.021818304 -0.08754054 -0.029947488 -0.04414748 0.057091035
나온 -0.04483158 -0.0070743486 -0.075477086 -0.048042364 -0.06453351 -0.047016 -0.0514171 -0.08311054 -0.07958155 -0.053280044 -0.044768665 -0.049623173 -0.058676388 -0.0009992404 -0.041456632 -0.058609586
명 0.038238995 -0.060776014 -0.057330284 -0.057798874 0.026266528 -0.072959416 -0.07237071 -0.04225364 0.050677456 -0.0012007225 -0.063182674 -0.03708017 -0.08222254 0.045591444 -0.071380965 0.18223684
사 -0.06352268 -0.058842517 -0.0733598 -0.022353793 -0.032321014 -0.05489355 0.16263315 -0.08008878 -0.06057757 -0.029088743 -0.047881115 -0.09008057 -0.05202084 -0.023392541 -0.0668575 -0.033983406
니까 -0.07572297 -0.08274081 -0.08095726 -0.07367033 -0.05265037 -0.08122351 -0.004255695 -0.0493512 -0.012067606 -0.03559011 -0.08212835 -0.063705474 -0.07114197 -0.046920598 -0.057770904 -0.06996743
오랜만 -0.050977323 -0.057514586 -0.024237987 -0.05541337 -0.06686127 -0.075211436 -0.08278846 -0.09439344 -0.1000103 -0.03809898 -0.085211284 0.16154528 0.02277988 -0.026281191 -0.07383608 -0.060747553
이것 -0.0808754 -0.052945007 -0.082815744 0.2149344 -0.061940387 -0.084674634 -0.033263262 -0.09319384 -0.07325933 -0.037434846 0.0119413715 -0.08688118 -0.11748402 0.070742965 -0.10295717 -0.056371998
해요 -0.056181766 -0.052862275 -0.07225614 -0.06022891 -0.04391225 -0.03818541 -0.050324235 -0.08307658 -0.09009038 0.008609164 -0.08935454 -0.11171135 -0.00338084 -0.03820721 -0.08935851 -0.060804278
9 0.10434143 -0.07961514 -0.010355384 -0.045203213 0.036583398 0.110357985 0.20236899 -0.03479609 -0.056829263 -0.06002689 -0.045028318 0.10078653 -0.004258356 -0.013793934 -0.087076046 -0.047722593
팬 -0.072152846 -0.057559233 -0.042542487 -0.04543579 -0.031936366 -0.06136796 0.07393679 -0.0844854 -0.07137388 -0.03460356 -0.06639788 -0.0938383 -0.07901533 -0.012089886 0.108866036 -0.06912877
차라리 -0.068879016 -0.057939243 -0.018597292 0.28427476 0.011259122 -0.06431878 -0.06141785 -0.012954687 0.121850275 -0.062329087 0.13814065 -0.07725852 0.041620716 -0.041240286 -0.09149386 0.040781967
절대 -0.051856376 -0.047470417 -0.093950614 -0.0814518 -0.07033368 -0.03053469 -0.06827796 0.086465046 -0.104714714 -0.042368345 -0.09202595 -0.09774948 -0.080726065 -0.037112247 -0.005655793 -0.08661738
세상 -0.06643468 -0.029044619 -0.10012156 -0.024953308 -0.047326606 0.019949956 -0.07199 -0.06551144 -0.07550392 -0.012958159 -0.04557324 -0.087504655 -0.08333388 0.007875657 -0.022796798 -0.076129176
세 -0.0035560022 -0.06887354 -0.10286514 -0.0013239314 0.022608554 -0.051656567 -0.07226915 -0.043914508 0.052612122 -0.030417193 -0.011143471 -0.0662697 -0.08025661 -0.03707852 -0.075504854 -0.058858875
못하 0.017095974 -0.047471393 -0.07520701 0.11280768 -0.041301165 -0.0060636736 -0.0615877 0.00060907693 0.099598244 -0.048564933 0.105487265 0.0045155063 -0.07564007 -0.015524322 -0.07129564 -0.015768997
의미 -0.0006049103 -0.0838788 -0.08197845 -0.049602766 0.01984417 0.0459893 -0.033967234 -0.015580656 -0.08459964 0.06323695 -0.06273187 -0.069409065 -0.067675434 -0.033858433 -0.08560281 -0.08492932
던데 -0.045785725 -0.08742444 0.049838163 -0.08241009 -0.06798482 0.11794637 -0.06387246 -0.0848804 -0.10581195 0.23921525 -0.08005413 -0.06783508 -0.09729815 0.07482942 -0.054687668 -0.08154287
봄 0.0071470104 0.02363535 -0.0038434945 -0.0222133 -0.040162314 0.097146064 -0.09919685 -0.04318052 -0.04759536 -0.100391656 -0.02639265 -0.11831819 -0.119499706 -0.054261085 -0.101074785 -0.04020391
욕 -0.076863185 0.09402797 -0.08000807 0.04459469 -0.0714235 -0.059008017 -0.015503255 -0.064948544 0.04457913 -0.024136024 -0.07686038 -0.003232136 -0.023643898 -0.035997387 -0.059480436 0.19673766
훌륭 -0.077258155 -0.06518377 0.23344503 -0.05062006 -0.06474505 0.07835658 -0.05350317 -0.08114495 -0.0750026 0.20575379 -0.051806644 0.10871649 0.017656956 0.10617495 -0.015608206 -0.09560431
너무나 -0.07401797 -0.056845903 0.12046392 -0.048695594 -0.05739317 -0.06728394 0.021955404 -0.07106282 -0.102190636 0.16012105 -0.056890637 -0.051038895 -0.01614432 -0.04605864 0.014421557 -0.090542264
강추 -0.010722789 -0.07898702 0.1137527 -0.03728212 -0.067902185 -0.011924502 0.15094914 -0.008867381 -0.013453769 0.2927981 -0.083197564 0.03694587 0.20873937 0.16861947 -0.023794023 -0.0012319309
감 -0.049725592 -0.043226525 -0.07374113 -0.02776758 -0.055304967 -0.040050715 -0.080373764 -0.03224175 -0.04473791 0.009975432 0.033026922 -0.04294015 -0.05453656 -0.035118915 -0.053519364 -0.02554009
됨 -0.006022735 -0.020005802 -0.063326225 -0.019804798 -0.049367238 -0.08533383 0.02579978 -0.060820956 -0.062238425 0.104968265 -0.05092118 -0.039882783 -0.08614287 0.13697936 0.024037233 -0.08528198
ㅡ -0.025093794 0.15033023 -0.06945112 -0.030456446 0.13618551 -0.070810094 -0.03974126 0.09564944 0.101156615 -0.007563822 0.011376942 -0.07550777 -0.060871087 -0.036225002 -0.06980951 -0.04102696
따뜻 -0.06527867 -0.07366423 0.016447188 0.020134812 -0.07319326 0.16805607 0.051389378 -0.0970196 -0.10623008 -0.034425758 -0.07896607 -0.013942482 0.18134868 0.049373638 -0.055709194 -0.09822854
빼 0.12259294 0.12949213 -0.0796125 -0.04747245 -0.050723363 -0.060146168 0.053735927 -0.06293465 -0.04741937 0.04765652 -0.03562172 -0.07456625 -0.06414161 -0.04015749 -0.06229957 -0.029158294
느끼 -0.07402236 -0.0678765 0.031056343 -0.031660937 -0.049321588 -0.036232267 -0.021212153 -0.08141137 -0.087718 -0.01673476 -0.059151407 -0.08589945 0.08451597 -0.04787731 0.022120317 -0.06505012
해야 0.014056953 -0.015187423 0.124570884 -0.04772805 -0.062176514 0.084707014 -0.088045314 0.0020787525 -0.0018101641 -0.049649883 0.064373344 -0.09817606 0.012801579 -0.060048077 0.004762983 0.07103369
드 -0.07412315 0.040405363 -0.07911568 -0.05524522 0.05069898 -0.04700664 -0.06538122 -0.09851131 -0.08732474 0.0059397183 0.030778598 -0.08763912 -0.061298274 -0.04191995 -0.056536723 -0.08781364
도대체 -0.0456265 -0.039444122 -0.08756476 -0.04175055 0.05893461 -0.09578718 -0.03514874 -0.05833748 -0.08755309 -0.041925624 0.022607122 -0.08766537 -0.07882462 -0.036289584 -0.056788713 0.1650435
어야 0.09016271 -0.0053865965 -0.070772715 -0.059792753 0.048382036 -0.08687613 -0.047956757 -0.042272203 -0.013683451 -0.024484193 -0.048857696 -0.07554536 -0.07470571 -0.033288322 -0.08635355 0.0060727755
답답 0.16279708 0.18965237 -0.0798961 -0.042857636 -0.013784723 -0.077791266 -0.06604201 -0.0273555 0.08026575 0.07279804 0.09233274 -0.08121325 -0.0787634 -0.026195426 -0.08637927 -0.04937953
마다 -0.0643842 -0.06474743 -0.0520501 -0.02566737 -0.028108276 -0.02776872 -0.022141373 -0.06567434 -0.05267701 0.0075194617 -0.054761536 0.07360414 -0.047454815 0.006833814 0.005119774 -0.044210233
준다 -0.06428425 -0.081804305 -0.06619943 -0.069165625 0.12884727 -0.09206808 -0.05796432 -0.05569337 -0.048159443 -0.06651414 -0.07024312 -0.106098525 -0.03622634 -0.037239842 -0.08197733 -0.05144854
글 -0.065561794 0.114370145 -0.07364688 0.06172936 -0.06819968 -0.061488666 -0.07400852 0.03551667 0.09148577 -0.043886103 0.014108959 -0.076435424 -0.06669369 -0.04683099 -0.08482417 -0.01344443
전쟁 0.03236019 0.0022162474 -0.109321415 -0.07261386 -0.061403416 0.12872759 -0.04343281 0.006530547 -0.04636092 -0.00010998022 -0.07205543 0.06884717 -0.076643154 -0.046594623 0.02979878 0.039609637
놈 0.030155823 -0.085521646 0.03513976 0.055648323 -0.007871271 0.023766791 -0.0051413896 -0.07093396 -0.072048604 -0.027145345 -0.05187067 -0.028749106 0.036622036 0.1188325 0.13172251 0.018583167
설정 0.006551905 0.24416296 -0.080046676 0.058655046 -0.044107135 -0.037220497 -0.06742229 -0.04305055 -0.07282116 -0.03679923 -0.008494879 -0.07501087 -0.052062713 0.0634012 -0.0443822 -0.05221162
무엇 0.02085011 -0.06489248 -0.08055 -0.04901308 -0.03348236 -0.06448923 -0.066746764 -0.021554783 -0.066750295 0.0027707599 -0.0731664 -0.002632089 -0.084455036 -0.056542672 0.041919466 -0.038457047
수작 -0.037789557 -0.060673136 0.12050456 -0.06786078 -0.06853101 0.1997477 -0.036859892 -0.07909611 -0.06419383 0.24199177 0.009199534 0.10984523 0.1307277 0.20339407 -0.07098151 -0.01772329
만화 -0.057363417 0.13435073 -0.10505928 -0.056751516 0.069114156 -0.00084850425 -0.057230394 -0.07945264 -0.0873955 -0.039827812 -0.056483563 -0.054144453 -0.0803536 -0.019500066 -0.08572257 -0.081650734
흥미 -0.07152781 -0.05980229 0.034962688 -0.042908814 -0.054719664 0.010893587 -0.07099013 -0.09841955 -0.056918178 -0.018073967 -0.051918585 -0.06784379 0.021679243 -0.03167582 -0.07088375 0.050600745
그저 -0.07355656 0.06647867 -0.09942508 0.01172081 0.095449276 -0.06014798 -0.076734655 -0.0065857437 0.1016189 -0.046393156 -0.08321723 -0.083647005 -0.0830186 -0.049779177 -0.069333285 0.009963872
감정 -0.04529159 0.030754505 -0.056602765 -0.03215598 -0.031625297 0.102525294 -0.00018153082 -0.07338214 -0.055709347 -0.028730452 -0.062629834 -0.029506087 -0.07565399 -0.019880185 -0.047530543 -0.058082547
미국 0.052074037 -0.01966036 -0.08925373 -0.0469867 -0.054549366 -0.053654358 -0.07764393 -0.058355518 -0.057299376 -0.007151804 0.06061663 -0.06588182 -0.05370564 -0.012764322 -0.044099238 0.031161107
신선 -0.054743163 -0.08262395 0.070371404 -0.05932091 -0.07072923 0.04335633 0.0957058 -0.06887093 -0.09129779 0.2053406 -0.07718174 -0.045058932 0.10462026 0.053899173 -0.007300247 -0.061566263
행복 -0.049491078 -0.055984765 0.008552102 -0.047173947 0.053085122 -0.058611747 0.04411615 -0.084961146 -0.07753089 0.23054332 -0.062030833 0.0070469882 0.20704494 0.25953788 0.19057828 -0.038383108
뻔 0.014509045 0.058456674 -0.09814854 -0.03468609 -0.0644033 -0.08797118 -0.08499351 -0.06939916 0.087389864 -0.07588821 -0.032600936 -0.07509089 -0.08384364 -0.03811199 -0.074049674 0.035242703
형 -0.0838504 -0.08037235 -0.07339107 -0.06542203 0.02175104 -0.06719886 0.06883332 0.030842377 -0.066782705 -0.044348534 -0.08354054 -0.08440013 0.0047588027 -0.03665182 -0.0038369151 -0.0264158
앞 -0.038751993 -0.074507095 -0.0007214473 -0.03499722 -0.06796547 -0.06296423 -0.02652645 -0.07803675 -0.008049261 -0.04286264 -0.059285864 -0.086523056 -0.032370504 -0.033335857 0.10398538 -0.042389378
허접 0.089635454 0.17644034 -0.07369454 -0.0009800529 0.1753723 -0.084226444 -0.053049415 0.045880936 -0.022696348 -0.008505897 0.13569108 -0.07437148 -0.064910986 -0.030873409 -0.0656602 0.09819205
어도 -0.06955517 -0.07080241 -0.022373019 -0.042254627 0.08693165 -0.049268324 -0.059354506 0.06854088 -0.08556525 -0.010869948 0.08287635 -0.05871649 -0.036294393 -0.029131861 -0.055976972 -0.082742095
군 -0.083374195 0.028613638 -0.09809227 0.12932862 0.14046928 -0.06272728 -0.080221705 -0.04997101 -0.027978754 -0.06448228 -0.011137797 -0.09479822 -0.024834668 -0.05465803 -0.07389159 -0.091687
시절 -0.048737 -0.07956604 -0.04698597 -0.0712087 -0.049901593 0.076651014 0.09804313 -0.08342535 -0.09532556 -0.009117187 -0.08176321 -0.066287 -0.08314571 0.038515154 0.006424978 -0.058034886
관객 -0.04186941 0.15386611 -0.077667736 0.1258888 -0.057719722 -0.0498918 -0.04671507 -0.059942808 0.020587424 -0.010783429 0.025886238 0.067891374 -0.06387253 -0.043406647 -0.06725324 0.093571134
배경 0.021418987 -0.017724967 -0.08919787 0.032221857 0.020409016 -0.055529177 0.1088435 -0.06454757 0.009606238 -0.010154885 -0.023746764 -0.087722465 -0.029795932 0.013586371 -0.08343687 0.01428524
6 0.082073994 -0.026510544 -0.09020472 -0.033725165 -0.029328253 -0.07266139 -0.07937331 -0.06285538 -0.031046161 -0.06474811 0.029255599 -0.086783975 -0.068757206 -0.029125718 -0.063558266 -0.022072649
초반 0.009607595 0.07220286 -0.06036078 -0.03673209 0.06276979 -0.056849953 -0.0660226 -0.020574315 -0.025587292 -0.024774034 0.015220979 -0.08481081 -0.08165821 0.04695357 -0.02976789 0.08128766
사실 -0.056156788 -0.08186991 0.10865534 0.0030264587 0.07294544 -0.05210664 0.14298607 0.006593558 -0.0641444 0.0135062225 -0.07242296 -0.086252026 -0.03312617 -0.031442486 -0.006389959 -0.039912615
웃음 -0.07286088 0.0171766 -0.024640873 -0.024424806 0.016611572 -0.071396776 -0.058149554 -0.09952851 -0.068388805 -0.042413414 -0.095468774 -0.10003091 -0.06433007 0.033612218 -0.06612078 -0.077911764
답 -0.0733335 -0.06626588 -0.08104559 0.04838152 -0.016712392 -0.061566092 -0.051810518 -0.028800938 0.010233858 -0.046835065 -0.009725308 -0.092698246 -0.0724101 -0.039917074 -0.08375242 0.03666909
엄청 0.018408325 -0.07600246 -0.087014325 -0.03651279 -0.012932057 -0.0217101 -0.09215097 0.0359224 -0.10107712 -0.06023298 -0.060279872 -0.08839102 -0.08275554 -0.04962428 -0.07235983 0.015853789
더라 -0.0454855 0.031818673 -0.07005402 -0.045316815 -0.07277931 -0.06839698 -0.023424193 -0.06439548 -0.09893661 -0.041512657 0.029376103 -0.105944864 -0.0736687 0.034669116 -0.070272096 -0.06568797
라니 -0.063600644 -0.064110674 -0.081849 0.04366369 -0.06552814 -0.083792925 -0.09249065 -0.024732076 -0.014710148 -0.038458038 -0.051910363 0.01853537 -0.07138493 -0.04881691 -0.06536675 -0.07503236
질 0.07922825 -0.0054334165 -0.055628177 -0.06581157 0.09841968 -0.08533912 -0.062164832 -0.07832769 -0.091668755 0.0072598755 0.09960333 -0.11089314 -0.081810236 -0.024971895 -0.09229272 -0.05290487
자신 -0.052265182 0.0203583 -0.059401896 -0.055824146 -0.027775526 -0.048067898 -0.05203432 -0.059322506 -0.05231033 -0.014308084 -0.05320515 -0.07351991 -0.08405804 -0.01632414 0.036751673 0.031125242
추억 -0.055396747 -0.08044933 -0.003718835 -0.041679695 -0.061208773 -0.032911334 0.09957394 -0.090337366 -0.09853745 0.18984067 -0.06529568 -0.05160772 0.124131024 -0.051813897 0.1960209 -0.074413
캐스팅 -0.01525424 0.03197112 -0.06334252 -0.039585583 -0.03551041 -0.014801227 -0.06953491 0.1696565 -0.0150347855 -0.0025597485 -0.018719975 -0.057039905 -0.094327345 -0.026997497 -0.089357935 -0.03885386
첨 -0.05083822 -0.062133297 -0.08443043 -0.04020045 -0.069766805 -0.068124376 -0.06604773 -0.10379808 -0.007240799 0.16902307 0.0023307593 -0.011268951 -0.091897406 0.14414708 0.047188472 -0.063205905
멋있 -0.0153594725 0.03129189 -0.05297426 -0.06464169 -0.056138642 0.20143442 0.061464492 0.025663838 -0.09562083 0.080248006 -0.063124344 0.09048658 0.11172795 -0.044021334 0.14521898 -0.06329529
류 -0.0586751 -0.059390258 -0.07709407 0.28461552 -0.050159805 -0.025224995 0.012058375 -0.066728085 -0.096919894 -0.015446864 -0.06833123 0.03225492 -0.005560782 -0.035347186 -0.015296851 -0.069585964
어색 -0.048028775 -0.07160684 -0.057934236 -0.03708037 0.20334983 -0.07832509 -0.044526294 0.16119139 -0.034351245 -0.06329401 0.017519845 -0.070252396 -0.06982136 -0.010123741 -0.08571934 0.009322145
시나리오 -0.07399465 0.08230832 -0.06123884 -0.050780687 -0.061012495 -0.04347125 -0.056287833 0.21760106 -0.093170576 0.081961885 -0.058097873 -0.085711524 -0.03746271 -0.02663941 -0.07495172 0.01714967
머 0.10326491 -0.047294356 -0.07993923 0.045792848 0.09189776 -0.06962209 -0.045895386 0.03849576 -0.04175403 -0.03659673 0.06694065 -0.087212145 -0.082518995 -0.031468116 -0.085998304 -0.069202945
밖에 -0.053277545 -0.07345769 -0.0737651 -0.0520967 -0.044059232 -0.04080083 -0.05398029 -0.06511222 -0.054541703 -0.045442212 -0.038615268 0.11473846 -0.06366919 -0.037896723 0.05036573 -0.06585138
OOO 0.0021094305 0.18687356 -0.10116959 -0.008279694 0.07869679 -0.09413454 -0.06936877 -0.08873359 0.12129199 -0.04761991 0.004114325 -0.084045246 -0.06476794 -0.035948023 -0.084791385 0.12658995
슬프 -0.012663222 0.00021958389 0.06361183 0.005039332 -0.025097 0.24128823 -0.020242902 -0.067540854 -0.008623482 -0.05270772 -0.015042708 -0.08296744 0.20039362 0.08826953 -0.09509227 -0.02641714
정신 -0.069050096 0.046355683 0.005617268 -0.07309036 0.13942751 -0.07923296 0.06532185 -0.07487587 0.098115765 -0.048864495 0.039763145 -0.03798758 -0.09939672 -0.03316535 -0.09903202 -0.093468696
분위기 -0.07595134 -0.08608389 0.02429547 -0.046607066 -0.061666 0.002571523 0.0099138785 -0.07914585 -0.082777455 -0.059865072 -0.06456656 -0.07266473 -0.032908265 -0.045429435 0.0913487 -0.075297795
소름 -0.05253145 -0.088526756 0.036921907 -0.07106682 0.024335796 0.06697203 -0.05612362 -0.068895966 -0.059158277 -0.0018470287 -0.07815306 0.16478783 0.059439156 -0.038630772 -0.010478213 -0.07157835
멋진 -0.05766373 -0.06448805 -0.08204888 -0.058636732 -0.06865173 -0.027141955 0.1826793 -0.107086085 -0.09545887 -0.046550974 -0.05599517 0.077055685 -0.10419209 -0.028763892 0.09833439 -0.09428589
힘들 -0.038492076 -0.028350752 -0.058096975 0.016597006 0.021342931 -0.06535169 -0.061533954 -0.042006392 -0.037051365 -0.018376373 -0.00044582417 -0.03418307 -0.08293433 -0.02650689 0.017213829 0.097291954
오늘 -0.04548335 -0.02487344 -0.06999672 -0.0370403 -0.055834875 -0.04835608 -0.0070485873 -0.056461886 -0.06991685 -0.06696238 -0.046926077 -0.027420482 -0.016361617 -0.032380734 -0.059182722 -0.033912532
어이없 0.16954939 0.07064233 -0.07499872 -0.02235546 -0.021641485 -0.052485824 -0.08517471 0.18375573 -0.06162353 0.10778315 0.16062017 -0.06388478 -0.07359993 0.020664252 -0.07023314 -0.021459332
봐서 -0.020197205 0.033542767 -0.0649281 -0.029021457 -0.047205124 -0.050713927 -0.07136404 -0.022066167 -0.104610786 -0.013899468 -0.041943125 -0.07606704 -0.07067727 0.06687633 0.02251547 0.020125706
잡 -0.0119251385 -0.05273735 -0.069952205 0.033074412 -0.035691485 -0.026734438 -0.055869132 -0.042257033 -0.062105916 -0.038736105 -0.013166341 0.060861785 -0.030134207 0.06301979 -0.052875567 -0.0074381577
구성 -0.058691792 -0.005380155 -0.068147525 -0.028886087 -0.028876653 -0.056942083 -0.050768834 -0.059733022 -0.059321012 -0.03739467 -0.025004216 -0.0759721 -0.048988465 -0.04108883 -0.06202082 -0.048796773
엄마 -0.061316475 -0.061759137 0.101181716 -0.051523905 -0.021690562 -0.063451 -0.059931003 -0.073834635 -0.07878411 -0.041827857 -0.014236322 0.08576265 -0.057992548 -0.047131304 -0.028087234 -0.03621594
함께 -0.0671161 -0.04205093 0.0006925756 -0.045943726 -0.06926559 0.047863234 -0.06619293 -0.07752139 -0.06408469 0.06079728 -0.05683795 0.007662915 0.14564814 -0.041800264 -0.07196064 -0.07278903
문제 0.0062311483 0.019706246 -0.07448569 -0.055608537 0.04321938 -0.071509704 -0.0639115 0.022848707 -0.056257725 -0.026016286 0.033658996 -0.08077852 -0.08809629 -0.04748652 -0.032778118 -0.06367308
위해 -0.047087308 -0.06417982 -0.073637776 -0.028449751 -0.038111858 -0.061004248 -0.052036613 -0.052064076 0.112933755 -0.026574934 -0.07433616 -0.07799949 -0.061614465 -0.004062451 -0.06056812 -0.0342945
졸작 0.1159433 0.15998675 -0.065056466 0.103734925 0.16975157 -0.047100563 -0.04742966 0.18469925 0.12576033 -0.047892027 -0.010821683 -0.057357732 -0.0730421 -0.042626977 -0.059594296 0.030836139
잊 -0.064465456 -0.0013765444 0.027966674 0.07871539 -0.06679108 -0.0009991418 -0.0033927627 -0.05287532 0.065057285 -0.019091785 -0.07202481 0.12413275 0.12892132 0.069295175 0.093922034 -0.044961624
이딴 0.024683703 0.06038469 -0.060352657 0.10258086 0.14490598 -0.037937775 -0.07451388 0.18060163 -0.030322278 -0.00712619 0.16103895 -0.062291503 -0.07010281 -0.03498261 -0.076087 0.18364294
등 -0.06088175 -0.021685863 -0.072681874 0.01553455 -0.0031076332 -0.046573415 -0.08651235 0.015296711 -0.064133376 -0.02509976 0.049348295 -0.01663905 -0.065147825 -0.04301205 -0.05312313 -0.096416965
집 -0.07954991 -0.079845004 -0.026469642 -0.03680171 -0.069659576 -0.022806887 -0.0019550165 -0.09038262 -0.07665214 -0.047582883 -0.07502558 -0.066505976 -0.05064475 0.008001347 -0.0013681741 -0.04188068
유쾌 -0.058714297 -0.070308544 -0.033520862 -0.06577451 -0.05403581 0.0050157164 0.047613595 -0.069419354 -0.1059767 0.09462014 -0.0652189 -0.017204972 0.22857359 0.21737725 0.2827437 -0.0875738
뻔한 0.036021307 0.071524866 -0.07330181 -0.031116344 0.09121923 -0.05272665 -0.0606632 0.015252738 0.08276722 -0.07299329 -0.016759902 -0.065504566 -0.06686444 -0.004677121 -0.052833933 0.20262074
킬링 -0.057293512 0.028833888 -0.0021650945 -0.07402304 0.0011318154 0.050763298 -0.054302793 0.015257975 -0.007874429 -0.0059049614 -0.06429413 -0.048153985 -0.020293567 -0.031670667 0.021967126 0.043875363
스러운 -0.023973739 -0.026560951 -0.09496457 -0.042933185 -0.028236646 -0.060370233 0.07457697 -0.092926376 -0.09248906 -0.025556218 -0.08995326 0.033814427 -0.072333954 0.020083252 -0.066658676 -0.07438144
